364 100
</s> 0.004003 0.004419 -0.003830 -0.003278 0.001367 0.003021 0.000941 0.000211 -0.003604 0.002218 -0.004356 0.001250 -0.000751 -0.000957 -0.003316 -0.001882 0.002579 0.003025 0.002969 0.001597 0.001545 -0.003803 -0.004096 0.004970 0.003801 0.003090 -0.000604 0.004016 -0.000495 0.000735 -0.000149 -0.002983 0.001312 -0.001337 -0.003825 0.004754 0.004379 -0.001095 -0.000226 0.000509 -0.003638 -0.004007 0.004555 0.000063 -0.002582 -0.003042 -0.003076 0.001697 0.000201 0.001331 -0.004214 -0.003808 -0.000130 0.001144 0.002550 -0.003170 0.004080 0.000927 0.001120 -0.000608 0.002986 -0.002288 -0.002097 0.002158 -0.000753 0.001031 0.001805 -0.004089 -0.001983 0.002914 0.004232 0.003932 -0.003047 -0.002108 -0.000909 0.002001 -0.003788 0.002998 0.002788 -0.001599 -0.001552 -0.002238 0.004229 0.003912 -0.001180 0.004215 0.004820 0.001815 0.004983 -0.003111 -0.001532 -0.002107 -0.002907 0.002815 0.001579 0.000425 -0.002194 0.001524 0.003059 0.000194 
to 0.045205 0.060663 -0.286731 0.041412 -0.004443 0.347914 -0.151626 0.066486 -0.429183 0.527148 0.109769 0.194374 -0.088758 0.198866 0.102625 0.084686 0.290519 0.420578 -0.328636 0.258079 -0.092339 -0.026839 -0.222743 0.226958 0.386550 -0.107006 0.171767 -0.095644 -0.290266 0.099320 0.232567 -0.181659 -0.052355 -0.109448 -0.600487 0.046163 -0.074951 0.076214 0.154422 -0.199638 -0.012449 -0.073936 0.339072 -0.226054 0.267993 -0.161944 -0.389652 0.417200 -0.267731 -0.078124 -0.546148 -0.177513 -0.057859 0.021980 0.126690 0.033036 0.004204 -0.226642 -0.170088 -0.278787 -0.211908 0.064426 -0.044313 0.127854 0.189578 0.127982 0.227123 -0.188619 0.221070 -0.143819 0.280902 0.140059 0.034304 -0.256902 -0.288944 0.075119 -0.426913 0.430542 -0.020963 -0.364759 0.788505 0.176897 0.233781 -0.398056 -0.062616 -0.000002 -0.158837 0.198321 0.839548 0.020694 -0.127704 0.398974 -0.060195 0.020826 0.305575 0.039925 0.197877 -0.319133 0.463271 0.063935 
the 0.081551 0.127891 0.043103 -0.075609 0.375350 0.116820 -0.180365 0.205540 -0.249807 0.815513 -0.024233 0.421313 0.201723 0.008187 -0.190666 -0.013284 0.413888 0.267136 -0.145246 0.550556 0.035975 -0.086586 -0.219032 -0.138160 0.112224 -0.229193 0.059734 -0.076960 -0.198410 0.178130 0.075575 -0.380086 -0.105448 0.176327 -0.341657 -0.178756 0.348202 0.301371 0.291836 -0.140336 0.027599 -0.083429 -0.170419 -0.161230 0.189667 -0.286013 0.116221 0.144668 -0.228462 0.010109 -0.378922 0.043495 -0.062312 0.203735 0.148478 -0.444121 -0.217151 0.172760 0.023535 -0.096093 0.045739 0.183605 -0.019165 0.033285 -0.168990 0.310117 0.046198 -0.269605 0.241925 -0.050469 0.188018 0.147085 0.384480 -0.087570 -0.131638 -0.079012 -0.444867 0.177661 -0.075719 -0.001529 0.332635 0.027139 0.259313 -0.125971 -0.159202 -0.144320 -0.284060 0.032190 0.915409 0.351845 0.198722 0.336154 -0.361434 -0.161414 -0.014008 0.528387 0.393113 -0.374215 0.436686 -0.297926 
/ 0.423526 0.063178 0.025398 0.532072 0.533161 -0.116946 0.114899 -0.257419 0.636063 0.292258 -0.272077 0.738737 -0.178857 -0.203698 -0.092775 -0.047235 0.662146 -0.493213 1.062413 0.362434 -0.228628 0.406886 0.245578 -0.515220 -0.263156 -0.418981 0.209546 0.131266 0.947581 -0.177103 -0.984144 -0.148518 -0.012811 0.210379 0.346182 0.181295 -0.063162 -0.699087 0.172532 0.068095 -0.405208 0.399424 -0.127352 -0.090377 0.306924 -0.258460 0.175887 -0.128412 -0.274843 0.133804 0.549555 0.046430 -0.190470 -0.667646 -0.142852 -0.440978 -0.011877 -0.092241 -0.001585 -0.375920 -0.266921 -0.407516 0.109171 0.020446 -0.539865 -0.006847 -0.310588 -0.125496 0.079387 0.467051 0.319186 -0.165209 0.264746 -0.184316 -0.375418 -0.124874 0.015249 -0.186542 -0.250538 -0.214147 0.249423 0.136329 -0.038760 -0.578663 0.318188 0.464907 -0.179463 -0.066758 0.132817 -0.010513 0.153372 0.002855 0.167861 0.550724 0.468046 -0.459292 -0.604542 0.737647 -0.115505 -0.330278 
with -0.087519 0.046335 0.332742 -0.291581 0.362325 0.068093 -0.210133 0.402831 -0.334317 0.608858 0.015282 0.638785 0.036322 0.206327 -0.403251 0.552575 0.171335 0.240595 -0.066591 0.318758 0.394590 0.385497 -0.229216 -0.245870 0.562260 -0.455115 0.223128 0.224104 0.197686 -0.123413 -0.161974 -0.573292 -0.010519 0.484417 -0.069293 0.062603 0.201819 0.295230 0.187836 -0.134730 -0.095263 0.124919 0.157092 -0.423593 0.317263 -0.302875 0.405252 0.310734 0.103168 -0.042307 -0.302464 -0.160304 0.258576 -0.086535 -0.397287 -0.367267 -0.193703 0.478582 -0.526551 -0.056912 0.157525 -0.118859 0.294291 0.027200 -0.042755 0.036557 0.103086 -0.491522 -0.048862 0.165543 0.088051 -0.066840 0.121767 0.165084 -0.064296 0.252817 -0.314558 -0.092736 0.254313 -0.234634 -0.110064 -0.020404 0.104824 -0.341538 -0.044573 -0.129789 -0.234742 -0.034832 0.743453 0.198029 0.529861 0.492010 -0.456409 0.061328 0.060373 0.023760 -0.135136 0.003849 -0.116474 -0.175553 
and -0.296430 -0.107590 0.188806 -0.415276 0.301776 0.114285 -0.165141 0.127407 -0.343300 0.411884 0.227048 -0.197772 -0.129426 -0.031690 0.144753 0.255459 0.262512 0.355076 -0.239132 0.349341 0.073864 -0.145979 -0.185739 0.095624 -0.053569 -0.060680 -0.064031 -0.235644 0.120254 0.003847 0.021968 -0.122318 -0.119953 0.092074 -0.332220 -0.009728 0.084260 0.031681 0.180758 -0.191128 0.026976 0.141324 -0.261035 -0.241066 -0.018089 0.134631 -0.055630 0.102741 -0.266024 -0.138076 -0.322969 -0.002756 -0.192368 0.348283 0.176309 -0.013792 0.461903 -0.129318 0.052965 -0.164585 -0.140438 -0.029130 -0.035784 -0.158698 -0.311289 0.377230 0.166974 -0.129768 0.423251 0.011375 0.203958 0.028224 0.149905 -0.378802 -0.260181 0.150761 -0.370945 -0.013557 -0.358271 -0.265466 0.515115 -0.011739 0.253684 -0.086686 -0.129866 0.355304 -0.076966 -0.080881 0.199852 0.361923 0.256747 0.053361 -0.101588 -0.374642 0.075644 0.542839 0.345312 -0.199472 0.380707 -0.332048 
xxhosp -0.224111 0.043777 -0.053794 0.146410 0.094929 -0.309723 -0.339387 -0.175005 0.163129 0.200565 -0.362081 0.388981 -0.345964 -0.278758 0.085429 -0.066274 0.223738 0.185012 -0.040559 0.451176 -0.000482 -0.357788 0.062177 -0.078812 -0.239782 -0.093393 -0.137701 0.212061 -0.078955 0.108816 -0.195943 0.170388 -0.462287 -0.347326 0.003033 -0.155596 0.283682 0.601275 -0.044073 0.071287 -0.037678 -0.025688 -0.321832 0.055715 -0.253540 0.501273 -0.036703 0.318049 -0.326194 -0.112250 0.151621 0.057524 -0.417100 0.767789 0.312019 -0.233985 0.071946 -0.303845 0.372757 -0.087875 -0.202746 0.399845 -0.257232 -0.014105 -0.368890 0.203249 0.109927 -0.035392 0.286382 0.176750 -0.017596 -0.039716 0.263124 -0.670180 -0.203514 0.065468 -0.522668 -0.180331 0.068956 -0.041891 0.028987 -0.034786 0.014671 0.278399 -0.089151 0.216770 0.252712 0.011440 -0.344271 0.166174 0.386841 -0.289035 -0.081945 -0.193277 -0.063159 0.227222 0.013778 0.465383 0.298859 -0.347465 
Home -0.444735 0.051960 0.033262 0.223140 0.023242 0.179487 0.128054 -0.677564 0.125166 -0.119979 0.134276 0.208305 -0.457753 -0.294431 -0.083877 -0.315035 0.591707 0.159682 0.435214 0.079386 0.205922 0.319002 0.125300 0.035773 -0.269121 -0.092857 0.158637 0.513615 0.024894 -0.103465 -0.628302 0.067088 -0.399095 -0.316269 -0.395773 0.199066 0.045303 -0.228196 0.027222 0.149161 -0.215198 0.237726 0.570122 -0.280595 0.192578 0.256542 -0.315282 0.351679 -0.125682 -0.327248 -0.064936 -0.466379 0.072807 0.056304 -0.124125 -0.215607 -0.040232 -0.612532 0.240324 -0.704925 -0.385826 -0.030166 0.091297 0.183196 -0.035247 -0.347368 0.224544 -0.161967 -0.027953 0.005967 -0.033859 0.104875 -0.301167 0.072837 -0.442117 -0.121925 -0.147607 0.359358 -0.483136 -0.287161 0.474721 0.282646 -0.272289 -0.314936 -0.012300 0.411544 -0.141716 0.126907 0.145968 -0.166630 0.068602 0.036991 0.291395 0.269833 0.206026 -0.180397 -0.245974 0.583419 0.015157 -0.091225 
Insurance 0.663029 0.160917 0.153931 0.088613 -0.068656 0.038019 0.071968 -0.978230 -0.029826 -0.216897 -0.421655 -0.276171 0.169354 0.353997 0.473401 -0.507857 -0.076449 -0.771007 -0.110293 0.144383 0.008403 -0.632520 0.110101 0.201131 -0.165150 -0.230415 0.294040 -0.218042 0.570590 -0.030721 -0.323366 0.448439 -0.296143 -0.390977 0.617889 0.150551 -0.094633 -0.061156 0.227755 0.615964 0.105018 0.175552 -0.265369 -0.454617 0.141376 -0.048329 -0.091399 -0.093011 0.802272 -0.184193 0.196090 -0.709809 -0.124792 -0.740959 -0.153312 -0.048398 -0.019614 -0.451349 -0.132658 -0.436265 -0.387778 0.398543 -0.311740 -0.537558 0.063064 -0.170217 0.633711 -0.155757 -0.361052 0.304515 0.085288 -0.265511 0.222014 0.230276 -0.604305 -0.316127 -0.109542 0.571175 -0.699033 0.473833 0.097206 0.290541 -0.028824 0.103329 -0.831290 0.316227 0.187657 0.487573 -0.108377 0.294919 -0.555924 0.061369 0.313879 -0.075775 -0.011408 0.642051 0.622010 0.322959 0.149283 0.348951 
Primary 0.538800 0.164834 -0.087356 0.458972 0.514155 -0.566724 0.327272 0.079609 0.815343 0.582831 0.056418 0.861405 -0.447157 -0.529588 0.308139 0.350481 0.555238 -0.632500 0.762278 1.058245 -0.258999 0.195694 0.267067 -0.692024 -0.006544 -0.832043 -0.140611 0.091523 1.076210 0.153670 -0.614529 -0.697872 -0.232775 0.490454 0.368083 -0.038321 0.437276 -0.192802 0.401839 -0.475122 -0.263153 0.393942 -1.004336 -0.435149 0.159561 0.189136 0.090468 0.360393 0.035524 -0.437355 0.358928 0.131986 -1.079478 -0.270457 0.458909 -0.979296 0.456017 -0.176314 0.060355 -0.155751 -0.037906 -0.304566 0.116729 -0.611249 -0.466724 0.401983 0.092614 -0.504932 0.207596 0.444808 0.562738 0.133391 0.480493 -1.094941 -1.033018 0.087822 0.043235 -0.206497 -0.553429 -0.402253 0.368821 0.248437 0.068934 -0.290607 -0.160053 0.449865 0.275209 0.014251 -0.758908 0.290476 -0.018758 -0.150577 0.030379 0.370784 0.105916 0.279307 -0.131225 0.727319 0.734610 -0.782632 
at -0.191830 -0.327173 0.283494 -0.370847 0.217204 0.137969 -0.656079 0.001987 -1.004851 0.847947 -0.164041 0.102481 -0.129038 0.087830 0.122939 0.602159 0.534721 0.590926 -0.153342 0.482049 0.608598 -0.042325 -0.207302 -0.213837 -0.312484 -0.282590 -0.320682 0.007252 -0.167875 0.177109 0.046814 0.076136 -0.462563 -0.134451 -0.562121 0.306535 0.300029 0.352193 0.197996 -0.185437 0.066916 0.170358 -0.409391 -0.011230 0.104100 0.219950 0.050351 0.223683 -0.281572 -0.022570 -0.112324 -0.165719 -0.081270 0.503174 -0.008260 -0.047813 0.379282 0.176277 -0.026007 -0.264897 -0.149327 0.028766 -0.208238 0.116127 -0.597596 0.445011 -0.141174 0.061653 0.449641 0.071537 -0.066700 -0.340228 0.265950 -0.088621 -0.263186 0.102526 -0.286705 -0.290743 0.085019 0.138258 0.123110 -0.101858 0.203331 0.033432 0.051995 0.153119 0.141859 0.081578 0.273422 0.286040 0.365089 0.237906 0.094212 -0.225374 0.090204 0.412707 0.033049 0.023800 -0.241586 -0.122928 
is 0.287489 -0.258121 0.407697 -0.413437 0.412548 -0.087892 -0.319479 0.098720 -0.679941 0.743323 -0.075384 -0.161795 -0.079006 0.076274 0.015238 0.525355 0.629749 0.518180 -0.138353 0.574707 0.301182 -0.141705 -0.476465 -0.044338 -0.019959 -0.422135 -0.255091 -0.172618 -0.016136 -0.079085 0.095421 -0.152759 -0.217100 0.440170 -0.227374 -0.047184 0.519719 0.373705 0.399305 -0.204016 0.290028 -0.066459 -0.863537 0.062351 0.134791 0.150333 0.315961 0.098471 -0.083119 -0.042829 -0.253636 -0.170320 -0.029212 0.355738 -0.037509 -0.014486 0.463916 0.098229 -0.137917 -0.111853 -0.080980 -0.154152 -0.053056 -0.022811 -0.508176 0.370039 -0.158260 -0.076515 0.232138 0.114455 0.068317 -0.059871 -0.021551 -0.108421 -0.105966 0.169315 -0.195385 -0.147068 -0.157042 -0.263554 0.112523 0.024718 0.067602 -0.058907 0.042951 0.327534 -0.119055 -0.236152 0.470071 0.701503 0.445696 0.213242 -0.133245 -0.483309 0.057862 0.929081 0.624250 -0.443433 0.134959 -0.259452 
of -0.346545 -0.487429 0.153543 -0.213581 0.433535 0.272398 -0.223327 -0.582689 -0.450979 0.794218 0.074478 0.505099 0.038687 0.034201 0.040775 0.093352 0.464791 0.268646 0.207951 0.388484 0.138259 0.052921 0.087313 -0.090923 -0.454824 -0.060862 0.006092 0.035240 0.194395 0.253903 0.122321 -0.004611 -0.084064 0.058164 -0.100950 -0.093522 0.247998 -0.307727 -0.045677 0.261709 0.068924 0.260966 -0.314981 -0.044842 0.298043 -0.232510 -0.064540 0.069334 -0.317769 -0.027299 0.138864 -0.180551 0.127099 0.437667 0.410015 0.185081 0.259402 -0.012485 0.021916 -0.134621 -0.087852 0.200871 -0.455379 -0.201910 -0.320561 -0.021473 -0.149458 -0.133924 0.339880 0.462058 0.009663 -0.269002 0.053669 0.478595 -0.286672 -0.115342 -0.333638 0.055515 -0.000443 0.252792 0.085435 -0.032914 0.155110 -0.071387 -0.233354 0.340815 0.112748 0.490304 0.990285 -0.436853 0.072081 0.109790 -0.183835 -0.203473 -0.115893 0.389817 0.119386 0.410473 -0.144794 0.001554 
for -0.182512 -0.154559 0.089918 -0.463389 -0.010464 -0.238857 -0.640513 0.216582 -0.421310 0.713096 0.262615 -0.002941 -0.197285 0.071918 0.157360 0.408582 -0.296829 0.515119 -0.514999 0.090668 0.561842 -0.232185 -0.094996 -0.214484 0.012959 0.159326 -0.362678 -0.198588 0.109277 0.479235 0.151915 0.106125 -0.192930 0.195124 0.292905 0.067062 0.066300 0.164917 0.219011 0.204852 0.113221 0.190094 -0.590921 0.069996 0.123563 0.392526 -0.088377 -0.040711 0.000106 0.219808 0.078102 -0.120766 -0.375316 -0.017268 0.396177 0.071382 0.257831 0.150881 0.096650 -0.289162 0.492567 0.078632 -0.157820 0.134198 -0.122034 0.008687 0.043074 0.001763 0.149183 0.185077 -0.280717 -0.181664 0.010561 -0.330418 -0.257988 0.082053 -0.264498 -0.044416 0.218375 0.078929 -0.074718 0.005289 -0.105565 0.221810 -0.248190 0.062401 0.214914 0.324811 0.153026 0.122217 0.594205 0.111474 0.093140 -0.358886 -0.098967 0.517914 0.120682 -0.111861 0.066895 -0.364045 
Care -0.134929 -0.306141 0.581273 -0.048672 0.154454 -0.309263 -0.396315 -0.138794 -0.415127 0.118756 -0.247321 -0.348658 -0.240949 -0.253847 -0.154448 0.025917 0.459338 0.296934 0.206025 -0.107362 0.483989 0.219134 -0.022988 -0.448137 -0.681420 0.087736 -0.228636 -0.027322 -0.123826 0.245166 -0.559128 0.251192 -0.434427 -0.472154 0.006220 0.156369 0.274832 -0.236195 -0.142879 0.038146 0.190942 -0.213104 -0.614729 0.342903 -0.004529 0.733578 -0.031138 -0.358537 -0.389727 -0.082357 0.097670 0.299191 -0.179320 0.264121 -0.038867 -0.399744 0.041278 -0.351355 0.334436 -0.239686 -0.057901 -0.117560 0.170108 -0.056561 -0.470442 0.668171 -0.299739 0.519575 0.162867 -0.254710 -0.022703 0.273485 -0.101038 0.089612 0.074326 -0.162900 0.374492 -0.278710 -0.324889 0.206334 -0.343564 -0.074903 -0.107433 0.317229 0.473484 0.213007 -0.140497 -0.276991 -0.226577 0.342885 0.605967 -0.292283 0.405807 -0.186735 0.133915 0.145986 -0.176867 0.203062 0.024156 -0.358097 
will 0.168789 -0.075023 0.168002 -0.034004 0.001877 -0.005118 -0.358356 0.666868 -0.845331 1.021746 0.235454 0.106214 0.512862 0.349029 0.162902 0.570128 -0.278944 0.281209 -0.577734 0.367468 0.564592 0.173808 -0.168120 -0.548191 0.016565 -0.150607 -0.250463 -0.461596 -0.131249 0.517861 0.471395 -0.178078 0.175651 0.109058 -0.015722 0.245383 0.092078 0.063051 0.100370 -0.304150 0.113435 -0.138175 -0.163775 -0.037726 0.372842 0.105577 -0.187237 -0.034820 0.193720 -0.088565 -0.082319 0.382807 -0.403694 -0.227913 0.199802 -0.546184 0.069260 0.350658 -0.086669 0.275831 0.316146 0.301520 -0.419053 -0.305488 0.009297 0.944250 -0.228509 -0.272332 0.451167 -0.065145 0.226790 -0.152433 0.299595 -0.069449 -0.630179 0.000236 -0.168149 0.096356 0.351156 0.189633 -0.051690 -0.029285 0.694015 0.051768 -0.231500 -0.226554 -0.062391 0.568611 0.873591 0.229764 -0.277923 0.480224 -0.092682 -0.445399 -0.240266 0.766367 0.062462 -0.232228 0.400837 -0.050830 
in 0.059225 -0.523582 0.464745 -0.284333 0.268792 0.275357 -0.062339 0.476716 -0.452486 1.074067 0.146798 0.249089 -0.277980 0.088227 0.126040 0.360703 0.177992 0.129152 0.117382 0.436063 0.042122 0.076100 -0.226568 -0.197994 0.232438 -0.398634 -0.060647 0.324772 0.016591 -0.178928 0.040900 -0.327301 -0.070865 0.043317 -0.008417 -0.056125 0.115251 0.213197 -0.050305 -0.163174 0.092757 -0.140064 -0.253695 -0.028407 0.188672 0.158327 0.170212 -0.182341 0.300584 -0.106418 -0.051620 -0.109159 0.093948 -0.119740 -0.590687 0.050028 0.591688 0.204081 -0.211631 0.113470 0.693770 -0.294813 -0.065920 0.408638 -0.333118 -0.011390 -0.288451 -0.315182 -0.208915 0.647547 0.183331 -0.003660 0.185444 0.366276 0.028314 -0.072337 -0.301187 0.010332 -0.297684 -0.110860 -0.107072 0.198680 -0.023043 0.092843 0.037615 0.056437 -0.253933 -0.278406 0.543181 0.465259 0.155965 0.243698 -0.310514 0.108928 -0.088451 0.363902 0.276736 0.041130 0.175679 -0.459700 
patient 0.033410 -0.301850 0.053302 -0.228194 0.329054 0.196610 -0.234880 0.049134 -0.216504 0.723344 0.067620 0.551873 -0.278468 0.092536 -0.086959 0.318739 0.211625 0.433622 -0.140929 0.505497 -0.028883 -0.063725 -0.144982 0.079778 0.287166 -0.362284 0.090713 0.404180 -0.187230 -0.121280 0.261505 -0.219327 -0.257187 0.294400 -0.111278 -0.225461 0.449607 0.709007 0.343311 0.113615 0.194945 -0.187000 -0.348321 0.176221 0.245403 -0.176879 0.323073 0.431249 -0.179866 0.088412 -0.084786 -0.477585 0.200592 0.575366 -0.107925 0.395260 0.288345 0.036329 -0.321032 0.041097 0.110904 0.068105 -0.317627 0.245501 -0.167281 -0.350820 0.016169 -0.426562 -0.095410 0.427185 0.048371 -0.139566 -0.106557 0.182868 0.086758 0.075910 -0.654064 0.244553 0.092549 -0.277812 -0.035259 0.278734 -0.106874 -0.209291 -0.099622 0.231295 -0.125706 0.049697 0.911691 0.225247 0.330585 0.353204 -0.461484 -0.216700 -0.140936 0.744699 0.703270 -0.337959 0.026622 -0.167205 
a -0.251221 -0.198822 0.442885 -0.480097 0.148256 -0.059027 -0.221997 0.288947 -0.507242 0.773902 0.126300 0.222918 -0.044186 -0.026851 -0.154209 0.283921 0.078267 0.425312 -0.423821 0.217682 0.316730 -0.060490 -0.459496 0.097171 0.412273 -0.075813 -0.078934 0.069286 -0.208778 -0.032065 0.145898 -0.277147 -0.107881 0.316002 -0.027867 -0.196051 0.387256 0.473576 0.043262 -0.058369 0.123966 -0.202455 -0.339552 -0.066118 0.081838 0.093840 0.176755 0.071765 0.142826 -0.013311 -0.175108 -0.164791 0.116341 0.051784 -0.071105 0.085352 0.098009 0.283164 -0.054406 0.138844 0.649884 0.077953 0.059274 0.475253 -0.059469 0.005100 -0.052493 -0.083940 -0.223886 0.358593 -0.071413 0.060486 0.067171 0.107817 0.161107 0.085203 -0.399173 -0.068064 -0.029883 -0.063806 -0.300377 0.037128 -0.119927 0.273620 -0.028772 -0.196540 0.017172 -0.379416 0.655756 0.324680 0.645587 0.169479 -0.280540 -0.074611 -0.147552 0.292444 0.258859 -0.100665 0.191333 -0.348333 
No -0.570989 -0.234208 0.504117 -0.687042 0.262189 0.067685 0.241813 -0.315272 -0.585225 0.466832 0.544144 -0.387781 -0.083142 -0.190256 -0.073510 -0.198698 0.356336 0.275150 0.279615 -0.208623 0.530793 0.428048 -0.200395 -0.110269 -0.376953 0.203303 0.031596 -0.296949 0.057823 0.446792 -0.579752 -0.141702 -0.407084 -0.083728 -0.513163 0.207614 0.143809 -0.425567 -0.390909 -0.094552 0.059116 0.399919 0.257666 -0.585248 0.006832 0.651754 -0.229028 -0.299781 0.230725 -0.395178 -0.148177 0.179348 0.156934 -0.131010 -0.230700 -0.947523 -0.038699 0.017564 0.384518 -0.211542 0.227019 0.064539 0.502933 -0.102738 -0.339019 0.544745 0.320215 0.156744 0.353850 -0.045064 -0.013237 0.125825 0.191782 0.382723 -0.242696 -0.264952 0.245969 0.032280 -0.868545 0.165733 0.195418 -0.307715 0.183003 0.102127 -0.039938 0.107511 -0.192271 -0.282946 0.458017 -0.063785 0.584320 0.002627 0.192046 0.129074 -0.103631 -0.027551 -0.337011 0.394323 0.558615 -0.552584 
Patient -0.312073 0.180189 0.379603 -0.166211 0.110504 0.371943 0.158053 -0.073056 -0.609757 0.082297 0.784100 0.232285 -0.205901 0.044543 -0.565056 0.506813 -0.018440 0.353759 -0.449822 0.175610 0.451954 0.526579 0.184305 -0.204701 0.434148 0.331466 0.757191 0.273461 -0.008733 -0.344581 -0.221403 -0.437102 0.054355 -0.059578 0.166582 0.228350 -0.509895 0.044197 -0.057413 -0.047789 0.245371 0.516467 0.645515 -0.736074 -0.072066 0.107921 0.088806 0.372213 0.203480 -0.362729 -0.447609 0.009145 0.263167 -0.199205 -0.421078 -0.384920 -0.118935 0.284191 -0.485280 -0.113029 -0.136118 -0.181302 0.394811 -0.544143 0.317021 -0.246272 0.630083 -0.656660 -0.520110 -0.128170 -0.013693 0.082118 -0.226111 0.791509 -0.129868 0.250290 0.440844 0.102262 -0.366815 0.021075 -0.226857 0.037473 -0.027151 -0.018817 -0.392515 -0.375992 -0.390584 0.260361 0.587109 0.175375 0.581322 0.169398 -0.421473 0.041426 -0.344420 0.203389 -0.232478 0.094311 -0.176539 -0.231671 
xxln 0.527515 0.075474 -0.017758 0.226954 0.308824 -0.223270 0.132300 0.011150 -0.103922 0.691129 -0.174981 0.260308 0.269523 -0.037876 0.712426 0.235449 0.317381 -0.507947 0.041228 0.782933 0.063157 -0.252803 -0.481764 -0.056457 0.187163 -0.867271 -0.476551 -0.067922 0.115564 -0.006655 0.240810 -0.266231 -0.060898 0.072127 -0.175925 -0.013426 0.294973 0.256910 0.170120 -0.621464 -0.206588 -0.009648 -0.484745 -0.151223 0.292447 -0.149433 0.019895 0.179547 0.617119 -0.541636 0.197927 -0.371862 -0.474267 -0.155387 0.031396 -0.451981 0.206779 -0.142121 0.037235 0.054883 -0.258823 0.142990 -0.262496 -0.176096 -0.156978 0.429130 -0.197321 -0.258273 0.341146 0.270573 0.472049 0.045734 0.214578 -0.208409 -0.825475 -0.119104 -0.252647 -0.040523 0.149124 -0.062886 0.001229 0.188695 0.248451 -0.098080 -0.132982 0.369899 0.235373 0.210014 -0.082724 0.306197 -0.614730 0.361477 0.124566 0.090523 0.018079 0.278145 0.143398 0.481211 0.227886 0.205127 
insurance: -0.133564 0.200757 -0.402052 0.143634 -0.037087 -0.351726 0.391778 -0.107776 1.007526 -0.464408 0.556094 0.110037 -0.329489 -0.431170 0.243589 0.168822 -0.409883 -0.397714 0.427180 -0.126854 -0.326045 -0.105188 0.231869 -0.112355 0.296289 0.232272 -0.117020 -0.066106 0.678637 -0.080603 -0.098177 0.015045 0.211466 0.496225 0.864281 0.013804 -0.280951 -0.368028 0.041759 0.084616 -0.365401 0.825650 -0.245418 -0.234827 -0.166083 0.040815 -0.156767 -0.080741 0.394928 0.073466 0.595111 -0.073231 -0.457252 -0.518496 0.220707 0.017638 0.231905 0.121769 0.259274 -0.174177 0.319523 -0.491502 0.275283 0.134906 0.091720 -0.417221 0.176002 -0.136920 -0.212546 0.216645 -0.272778 -0.110923 -0.201938 -0.431992 -0.342026 0.222207 0.297880 -0.116970 -0.319536 -0.239888 -0.196929 -0.114807 -0.351907 -0.071301 -0.005184 0.193931 0.339805 -0.025942 -0.986005 -0.215370 0.181703 -0.164878 0.071312 0.305835 -0.291274 -0.106121 -0.530663 0.596708 -0.108803 -0.298564 
application: 0.391780 -0.359078 -0.052483 -0.249819 -0.075541 0.136270 -0.057556 -0.429076 -0.961009 -0.446657 -0.271644 -1.051952 0.131679 0.219311 0.613465 0.794704 -0.115585 -0.251893 0.233910 -0.395276 0.283707 -0.187150 0.218900 -0.357456 -0.822728 -0.027477 -0.634966 -0.255630 0.212455 0.288748 0.127926 0.667920 -0.164115 0.112741 0.009073 0.831962 0.213086 -0.313336 0.101029 -0.057667 0.715777 0.414524 -0.564895 0.465924 -0.099155 0.592597 0.055417 -0.252730 0.215338 0.152426 0.151418 0.232014 -0.076202 0.223056 -0.185064 0.013957 0.482438 0.216474 -0.330576 -0.170813 -0.757622 -0.336437 0.068771 -0.481199 -0.777457 0.624505 -0.174122 0.599212 0.669412 -0.312014 -0.470472 -0.664236 -0.093752 0.251759 -0.315421 0.160519 0.838578 -0.367851 -0.158482 0.674265 0.124141 -0.397917 0.296103 -0.079296 0.206719 0.450040 0.166775 0.261433 -0.961187 0.288913 -0.311025 0.296459 0.669001 -0.152050 -0.094428 0.186710 -0.304385 -0.162880 -0.920832 0.327655 
I 0.007508 -0.301567 -0.571038 -0.266965 0.420447 0.330462 -0.414064 0.363039 -0.812666 1.133263 0.197010 0.285479 0.337438 -0.006120 0.783218 0.284630 -0.123568 0.256714 -0.543154 0.351997 0.588610 -0.338475 -0.436605 0.097867 0.370626 -0.295473 -0.436359 -0.372913 -0.222024 0.678643 0.562821 -0.009658 0.053635 -0.167391 -0.339106 0.181742 -0.092528 0.547406 -0.261097 -0.401824 -0.011231 -0.075812 0.328185 0.367479 0.043531 -0.340345 -0.170597 0.293806 0.328001 -0.115872 -0.265213 0.101049 -0.333064 0.416130 0.330346 -0.310066 0.020122 0.335813 -0.017642 0.346548 0.078971 0.425772 -0.210021 0.546581 -0.178245 0.247149 -0.200221 0.182442 0.540850 0.058720 0.053839 -0.296864 0.320539 -0.084327 -0.244806 0.042411 -0.402610 0.120664 0.782095 0.235582 -0.276238 -0.042435 0.176372 0.203856 -0.057592 -0.522217 0.485887 0.291889 0.371783 0.074480 -0.136565 0.571788 -0.108142 0.006913 -0.293743 0.338617 0.260999 -0.287763 0.172193 0.239998 
xxname 0.072097 0.090742 0.458757 0.123861 0.545711 -0.469296 0.139517 0.506981 0.665335 0.796917 -0.207458 0.715639 0.270472 -0.491459 -0.004777 -0.319214 0.194679 -0.557735 0.462390 0.769469 0.281299 0.076289 -0.498208 -0.494970 0.179006 -0.771162 -0.417654 0.555227 0.070893 -0.039790 -0.311061 -0.525776 -0.078982 0.095685 0.103652 -0.361803 0.662975 0.359506 -0.059979 -0.537509 -0.619235 -0.278900 -0.169653 -0.163812 0.277917 -0.137352 0.333526 -0.235524 0.588087 -0.476779 0.505698 -0.127190 -0.099658 -0.146409 -0.311416 -0.988113 -0.475816 0.034075 0.577831 0.116020 0.454419 0.044710 0.108497 0.392613 -0.182102 0.295345 -0.514302 -0.310981 0.029167 0.430856 0.295983 0.278604 0.390548 -0.132396 -0.533401 -0.340568 -0.734696 -0.081671 0.154584 -0.099250 -0.538729 0.233832 -0.051737 -0.012192 0.146598 0.148277 -0.245792 -0.206974 0.221757 0.408960 0.173894 0.370195 -0.224458 0.427801 -0.176047 0.008697 -0.235147 0.907181 0.149390 -0.433144 
- 0.159554 0.159647 0.469260 0.077473 0.201396 -0.734124 0.034992 0.163855 -0.076066 0.127894 -0.360737 -0.094475 0.264502 -0.259926 0.010553 0.138221 0.352396 -0.424969 0.440273 0.271639 0.251450 0.003146 -0.401662 -0.192218 -0.681897 -0.352949 -0.662727 0.324590 0.062122 -0.157637 -0.171889 -0.203911 -0.346769 0.064662 -0.308430 -0.017586 0.716247 -0.107624 -0.007747 -0.450717 -0.247317 0.019994 -0.623272 -0.224856 0.081975 0.408210 0.392896 -0.513170 -0.089315 -0.275231 0.327391 0.164408 0.087974 0.148153 -0.215964 -0.476233 -0.316961 -0.088616 0.454269 -0.081356 -0.154338 -0.093222 0.146992 -0.234247 -0.459922 0.877696 -0.422199 0.219959 0.372115 -0.005221 0.128205 0.107919 0.149251 -0.059354 -0.296895 -0.059700 -0.074265 -0.693108 -0.172727 0.174640 -0.139975 -0.207541 0.060308 -0.007104 0.247536 0.583791 -0.071597 -0.432899 -0.206899 0.232180 0.266051 0.037270 0.156295 -0.006035 0.171106 -0.303504 -0.492728 0.687366 -0.312511 -0.075989 
Family 0.162768 -0.179137 -0.081986 -0.136355 0.522605 0.655529 0.403512 -0.488456 0.165350 -0.199877 0.180949 -0.303856 -0.305168 -0.136901 0.019598 -0.205397 0.732087 -0.154543 1.304582 -0.125937 -0.372875 0.465711 0.558642 -0.428488 -0.653952 -0.031159 0.265809 -0.307871 1.022243 -0.071294 -0.900380 0.322363 0.269600 0.406882 -0.353229 0.474658 -0.168639 -1.084269 0.127763 0.217953 -0.027140 0.741310 0.614703 -0.223155 0.035105 0.143357 0.013801 -0.233024 -0.557253 0.376806 -0.321090 0.460898 -0.007784 -0.315037 -0.410582 -0.460183 0.580442 0.119280 -0.127440 -0.387655 -0.198082 -0.442091 0.380067 -0.001007 -0.697483 -0.148821 -0.010453 0.088935 0.570372 0.076321 0.024225 -0.499082 0.322801 -0.140802 -0.006529 -0.355787 0.777610 0.298941 -1.163072 -0.055099 1.104397 -0.316526 0.538545 -0.681892 0.131541 -0.119408 -0.429963 -0.597836 -0.422493 -0.084126 -0.042430 -0.111683 0.274332 0.409994 0.363756 -0.465236 -0.141720 -0.540758 0.257341 -0.414522 
Current 0.687183 0.057767 -0.367831 0.393968 0.077362 0.498130 0.196705 -0.863369 0.192752 -0.149560 -0.680392 0.063850 -0.478811 0.331880 0.902019 0.025131 -0.022820 -0.793062 0.629445 -0.091220 -0.475391 -0.294431 0.593100 0.104176 -0.591212 -0.988832 -0.036319 0.238142 0.737201 0.176088 -0.586133 0.252282 -0.608367 -0.272673 -0.254244 0.362650 -0.006144 0.159142 0.518164 0.401946 0.218855 -0.082471 -0.053682 0.214832 0.266179 0.153082 0.246210 0.308533 0.283270 -0.027721 0.229776 -0.650311 -0.285033 0.076651 -0.254907 0.206374 0.623975 -0.621421 -0.637815 -0.447839 -0.579147 0.216772 -0.416387 -0.167399 -0.668261 -0.517314 0.466067 -0.242918 0.174339 0.579656 0.251952 -0.526816 0.225795 -0.313856 -0.616359 -0.449843 -0.367929 0.410231 -0.532621 0.128016 1.141423 0.402591 0.259849 -0.479719 -0.539764 0.755047 0.198723 0.288654 -0.927513 0.158401 -1.037843 0.106951 0.563079 0.533139 0.557759 -0.126946 0.390143 0.093158 0.094578 0.093335 
Discharge: -0.137472 0.083870 0.771072 0.002807 -0.435027 -0.082670 0.343983 -0.394178 -0.546591 -0.308813 0.277096 -0.190308 -0.106366 -0.014915 -0.617022 -0.528688 0.386246 0.046472 -0.689712 -0.048615 -0.048519 0.006253 -0.254200 0.427173 -0.413500 0.610514 0.982963 0.358778 -0.351467 -0.369477 -0.152103 -0.418202 -0.763390 -0.831477 0.024856 -0.217870 -0.012582 -0.298049 -0.060819 0.219498 0.038903 -0.377778 0.102521 -1.080744 -0.133422 0.000030 -0.519046 -0.012996 -0.196576 -0.636770 -0.247984 -0.441019 0.645924 -0.550537 -0.141765 0.222372 -0.701050 -0.834011 0.281308 -0.599768 -0.277256 0.174555 0.044685 -0.463163 0.388613 0.559202 0.748867 -0.154210 -1.053645 -0.112941 0.345557 0.722923 -0.174717 0.919935 -0.276301 0.154039 -0.344102 0.131158 -1.002962 0.206231 0.147865 0.433661 -0.814420 0.366802 -0.446165 0.561443 -0.305836 0.105901 1.408070 0.359698 0.408347 -0.394210 0.031181 -0.265782 0.119326 0.440644 -0.072476 0.996533 0.338942 -0.056342 
her 0.399970 -0.081872 0.025624 -0.029613 0.189944 -0.070741 -0.300694 0.222828 -0.474202 0.919834 -0.125264 0.151644 -0.173630 0.037793 0.342455 0.486559 0.401117 0.283877 -0.263301 0.576533 -0.022411 -0.377440 -0.714157 0.135576 0.363088 -0.495701 -0.287173 0.150810 -0.309770 -0.208364 0.366181 -0.215468 -0.225800 0.128996 -0.312255 -0.197405 0.433995 0.681450 0.315868 -0.397121 0.056276 -0.254068 -0.631676 0.150823 0.189524 0.013810 0.058076 0.270691 0.120804 -0.234829 -0.189070 -0.528008 -0.040509 0.225170 -0.165308 0.145621 0.355001 -0.030943 -0.047984 -0.040276 0.196896 -0.040945 -0.192694 0.634762 -0.174350 -0.036516 -0.203827 -0.190430 -0.188091 0.406375 0.276622 0.176579 -0.011631 -0.061033 -0.109575 0.111447 -0.576512 -0.014955 0.045230 -0.386678 0.057241 0.318128 -0.085896 -0.064763 0.161046 0.203041 -0.026425 -0.300063 0.546241 0.549759 0.060875 0.324140 -0.189580 -0.126537 0.077696 0.468291 0.532669 -0.140326 0.072868 -0.041021 
Yes -0.355375 0.127211 0.793659 -0.153147 0.538257 -0.045127 -0.139917 -0.605459 -0.134006 0.400157 -0.007612 0.097345 -0.012471 -0.183640 -0.427760 -0.680845 0.912935 0.006219 0.519955 0.085982 0.519595 0.425598 -0.025165 -0.065719 -0.649337 -0.172895 0.399662 -0.188504 0.333641 0.154539 -1.201730 -0.278059 -0.605243 -0.600701 -0.425605 -0.191125 0.047253 -0.313970 -0.282433 0.183618 -0.173971 0.076185 0.090197 -0.455642 0.235543 0.336376 0.307432 -0.415497 -0.238072 -0.309867 -0.260316 0.079030 0.042338 0.056188 -0.098251 -1.069826 -0.318980 -0.350361 0.371363 -0.272054 0.077417 0.386009 0.293016 -0.346942 -0.336499 0.066076 0.234682 0.112992 0.030864 0.035596 0.387679 0.337817 0.406343 0.186874 0.122226 -0.711487 0.224023 -0.082759 -0.862199 0.219630 -0.016370 -0.140921 0.029234 0.194709 -0.325025 -0.160324 -0.038813 -0.657731 0.212406 -0.046296 0.549254 -0.365273 0.009393 0.189710 0.266072 -0.199095 -0.027770 0.429428 0.589711 -0.511142 
N/A -0.349150 -0.177983 0.163194 -0.232219 -0.391944 -0.027280 0.247527 -0.402885 -0.644487 -0.567702 0.537059 -1.396111 0.021126 -0.004391 0.535824 0.533158 -0.212367 0.213736 -0.203297 -0.252583 0.887618 0.078533 0.062278 -0.004543 -0.237643 0.075630 -0.709870 -0.260678 -0.623874 0.372968 0.049043 0.302176 -0.331248 -0.221967 -0.714914 0.845736 -0.282688 -0.083237 -0.005647 -0.572955 0.498284 0.551598 -0.159693 -0.050457 -0.054032 0.898549 -0.341487 -0.041052 0.552905 -0.703014 0.127111 0.011359 -0.270568 0.446828 -0.106378 -0.470665 0.453275 -0.074096 0.283958 -0.141865 -0.646355 -0.417058 0.155460 -0.718700 -0.068192 0.621402 0.085994 0.241227 0.639780 -0.953136 -0.451875 0.069865 -0.645102 0.177869 -0.807208 0.178515 0.456057 -0.181936 -0.304111 -0.108529 0.136580 -0.226647 0.345893 -0.006916 0.173117 0.756290 -0.125654 0.613568 -0.989384 0.254900 0.064605 0.067373 0.755731 -0.215300 -0.167895 0.299307 -0.244513 0.155638 -0.319584 0.058354 
Discharge 0.685993 0.117115 -0.579257 0.186902 -0.388047 0.099845 -0.006542 0.047816 -0.356440 0.523442 -0.283143 0.299692 0.059163 0.295122 1.101787 0.161750 -0.638449 -0.767716 -0.441992 -0.263920 -0.385585 -0.666731 -0.154219 0.395594 0.250308 -0.412392 -0.018709 -0.292810 0.519367 0.463667 0.293905 -0.061774 -0.303373 -0.277004 0.342031 0.134654 -0.100913 0.235618 0.004891 0.151142 -0.011953 -0.156390 -0.005207 -0.222076 0.122029 -0.070656 -0.318729 0.141928 0.822152 -0.146048 -0.045283 -0.518317 -0.353538 -0.873873 0.064216 0.191210 0.169396 -0.180620 -0.428463 -0.102477 0.362750 0.473490 -0.248626 0.430358 -0.058348 -0.022090 0.438463 -0.041217 -0.405419 0.706732 0.331417 -0.176455 0.465864 -0.195820 -0.697366 -0.083503 -0.465396 0.324971 -0.172984 0.365728 0.441651 0.425113 -0.184134 0.204335 -0.626488 -0.000208 0.760074 0.137288 -0.148676 0.208256 -0.964034 0.334828 0.318113 0.449032 0.231205 0.037157 0.082126 0.398031 0.350455 0.260927 
has -0.475478 -0.270952 0.481121 -0.423885 0.292208 0.063558 -0.128720 0.363346 -0.513352 0.593602 0.340599 0.006491 -0.243073 -0.136205 -0.220287 0.264230 0.175403 0.605548 -0.555212 0.383166 0.174169 0.018970 -0.362405 0.081661 0.169644 -0.162660 -0.044813 0.295969 -0.499692 -0.022443 0.243147 -0.491800 -0.433285 0.169274 -0.483752 -0.234257 0.659390 0.535544 0.115877 -0.300958 0.122725 -0.318134 -0.283453 -0.319020 0.030374 0.258828 -0.003225 0.264570 -0.242242 -0.243350 -0.331306 -0.149213 0.224518 0.602158 -0.132710 0.198850 0.275396 -0.105115 0.048439 0.094271 0.257156 0.116596 -0.018768 -0.036466 -0.005763 0.458719 0.085301 -0.327723 0.174440 0.022200 0.164593 0.349695 -0.098495 -0.059945 -0.010515 0.373632 -0.725859 -0.011382 -0.261665 -0.400208 0.148290 0.124470 -0.138218 0.098549 0.001636 0.516407 -0.350645 -0.191048 0.735047 0.497721 0.608270 0.044264 -0.304638 -0.483765 -0.066552 0.637612 0.382608 -0.268860 0.454208 -0.460303 
be -0.188154 -0.109565 -0.426679 0.020169 0.137541 -0.069140 0.045751 0.099608 -0.245818 0.265792 0.245340 0.207217 0.313101 -0.185516 0.036322 0.361731 0.220913 0.274288 0.040348 0.343487 0.028165 0.021301 0.026728 0.158638 -0.291795 -0.077076 -0.358991 -0.094848 -0.352747 0.210732 0.614440 -0.248638 -0.008444 0.292455 -0.702671 -0.001817 0.250345 0.132066 0.075648 -0.378429 0.013518 0.134570 -0.238259 0.141687 -0.111809 -0.251101 0.151898 0.227048 -0.504397 -0.091125 -0.007582 0.339095 -0.082387 0.968521 0.553232 0.059154 0.101047 0.278277 0.214431 0.281854 -0.428765 0.002874 -0.255259 -0.333046 -0.173331 0.330525 -0.213112 0.032457 0.580064 -0.311192 -0.074046 -0.202764 -0.004232 -0.187420 -0.218530 0.256638 -0.120031 -0.271890 0.270973 -0.140347 0.166298 -0.244207 0.354236 -0.245206 0.084013 0.193307 0.085231 0.304724 0.289432 -0.317494 0.014341 0.068499 -0.211067 -0.204778 -0.182887 0.326817 -0.025856 0.038704 -0.234612 0.108276 
xxph 0.634647 0.293142 0.134081 0.741918 0.319050 -0.597444 -0.252482 -0.099552 0.627354 0.238051 -0.838063 0.749865 -0.093633 -0.347008 -0.041836 -0.197944 0.555041 -0.615912 0.586344 0.731063 0.154304 -0.091234 -0.011869 -0.563523 -0.412582 -0.689031 -0.258645 0.698409 0.236255 -0.176074 -0.753452 -0.143118 -0.478805 -0.418906 0.266573 -0.136301 0.525169 0.265138 0.259225 -0.180500 -0.355849 -0.241184 -0.789872 0.131107 0.234357 0.006389 0.405738 0.011364 -0.180592 -0.243865 0.521017 -0.179523 -0.234528 0.094021 -0.105596 -0.645717 -0.449268 -0.448521 0.301688 -0.300051 -0.399195 0.054877 -0.069769 -0.078225 -0.497964 0.363426 -0.352597 -0.079948 -0.032025 0.279656 0.359287 0.202602 0.338202 -0.325765 -0.516573 -0.217899 -0.394922 -0.328757 0.135633 0.094447 -0.310329 0.354214 -0.281624 -0.039283 0.240455 0.465482 -0.060395 -0.050006 -0.173469 0.468059 0.225259 0.106176 0.097295 0.179799 0.237921 0.105152 -0.098815 0.763043 -0.146818 -0.201075 
discussed -0.477095 0.279403 0.088298 -0.122990 0.042630 0.581851 0.179468 -0.069085 -0.622977 -0.152028 0.050125 0.030325 0.055820 0.190396 -0.379793 0.168993 0.250957 0.411350 -0.373124 0.021240 0.279831 0.454127 0.136565 0.130451 0.161900 -0.322889 0.348574 0.127163 -0.673543 0.104434 -0.277724 -0.450553 -0.326250 -0.320424 -1.258930 0.203553 -0.021498 0.566650 -0.069266 -0.514968 0.288100 -0.270294 0.804705 -0.400815 -0.055533 -0.044368 0.218370 0.679285 -0.079787 -0.620143 -0.856111 0.145594 0.361716 0.942370 -0.195065 -0.555940 -0.228307 0.130561 -0.405468 0.414813 -0.505886 0.439424 0.249194 -0.707278 0.240921 0.244127 0.555416 -0.350305 0.308893 -0.739864 0.247669 0.271270 0.072034 0.095093 0.175708 0.168171 -0.014311 0.162498 -0.002746 -0.106854 0.309524 -0.024789 0.425432 -0.060676 -0.246599 -0.389473 -0.283906 0.054799 0.052322 0.124551 -0.009989 0.058983 -0.280887 0.058386 0.119654 -0.138009 0.232081 -0.555257 0.249997 0.066429 
on 0.000970 -0.320858 -0.071156 -0.417353 0.260142 0.157221 -0.076556 0.357696 -0.270791 0.763899 0.061410 0.347980 -0.276502 0.008530 0.051716 0.432121 0.227078 0.406390 -0.079442 0.356364 -0.368379 -0.106579 -0.281767 -0.102574 0.181605 -0.325350 0.053535 0.014716 0.052260 0.121092 0.318343 -0.210392 -0.128173 0.480064 -0.203381 -0.103134 0.528329 0.176683 0.281512 -0.123702 0.050587 -0.225618 -0.162749 0.036905 0.122046 -0.188099 -0.106824 0.381624 -0.350962 0.190049 -0.253520 -0.135419 0.051764 0.163504 0.013281 0.263360 0.228058 0.045693 -0.153181 0.017526 0.262963 -0.065769 -0.044051 0.405407 -0.143018 0.162712 0.070824 -0.138885 0.138460 0.205423 0.158569 -0.066783 0.120611 -0.242481 0.073136 0.213548 -0.390336 0.264549 -0.055219 -0.267148 0.348534 0.060915 0.001381 -0.236130 0.108386 -0.005843 -0.102429 -0.104934 0.551632 0.106275 0.189217 0.179774 -0.134056 -0.067505 0.005733 0.287787 0.247471 -0.308707 0.381238 -0.186055 
Plan: 0.614047 -0.035759 -0.509491 0.054241 -0.151682 0.020876 -0.018261 -0.031818 0.338319 -0.029602 -0.478473 0.824566 -0.626323 0.023189 0.097652 -0.054927 -0.165023 -0.486957 0.189767 -0.236780 -1.337310 -0.435805 0.200131 0.131789 -0.285449 0.029404 0.680202 0.397538 0.981103 -0.258725 -0.086774 0.018765 -0.311583 0.195306 1.075139 -0.398617 0.404082 -0.153709 0.289406 0.809507 -0.156389 -0.140623 -0.123225 0.011188 -0.117660 -0.510349 -0.192717 0.325727 -0.366496 0.746199 0.254108 -0.546899 0.262346 -0.957305 0.095001 1.089070 -0.036255 -0.506656 -0.571743 -0.484581 0.100384 0.118990 -0.181792 0.672661 -0.319469 -0.458900 0.595402 -0.073781 -0.804011 1.054411 0.232144 -0.297131 0.349597 -0.068183 0.172360 0.172331 -0.277389 0.296768 -0.298352 0.283205 0.476805 0.549657 -0.885242 -0.047034 -0.240790 0.205305 0.384078 -0.140445 0.410910 0.024062 -0.366381 -0.015107 0.179131 0.173405 0.238163 0.221495 0.100410 0.234745 0.237963 -0.062556 
have -0.734465 -0.160315 -0.227906 -0.434886 0.475988 0.559193 0.068437 0.143056 -0.207133 0.487291 0.328852 0.646153 -0.194672 -0.435867 -0.379902 -0.137250 0.125232 0.496086 -0.327763 0.259278 -0.306735 0.086593 -0.206599 -0.268029 0.149701 0.034048 0.274825 0.402127 -0.270478 0.250633 0.166955 -0.272768 -0.115632 0.234025 -0.229052 -0.275991 0.780335 0.357233 -0.161884 -0.168730 -0.049368 -0.153931 0.736038 -0.217973 -0.055909 -0.346779 -0.333805 0.744203 -0.317625 0.073560 -0.425460 -0.077120 0.332656 0.559030 0.065183 -0.111962 -0.273549 0.077220 0.028505 -0.023613 0.123688 0.372468 0.247458 0.466696 -0.069687 0.204235 0.323554 -0.328477 0.362173 -0.005344 0.018824 0.012924 0.330422 -0.075516 0.084073 0.268094 -0.581068 0.570681 -0.008508 0.053120 0.192874 0.051853 -0.174164 0.024755 -0.086963 -0.363722 -0.217467 0.016056 0.986346 0.097695 0.361515 0.315540 -0.394142 -0.115157 -0.446414 0.573742 0.072507 -0.254401 0.581357 -0.433687 
Hospital 0.228250 -0.148691 -0.343284 -0.226330 0.385476 -0.042338 -0.437066 0.370594 -0.042122 0.316169 -0.320135 0.446770 -0.146077 -0.173287 -0.146299 0.074232 0.052912 0.083740 0.225740 -0.013809 -0.682868 -0.234048 0.160885 -0.371177 -0.648855 0.283771 0.046473 0.014693 0.626438 0.109944 -0.022603 0.163467 -0.027018 0.151096 0.573551 -0.245730 0.455958 -0.086663 -0.047100 0.346543 0.029310 -0.045539 -0.381317 0.357302 -0.318634 -0.188593 0.105734 -0.012838 -0.963339 0.880054 -0.000881 0.583939 0.022385 0.137349 0.297278 0.378800 -0.017270 0.129660 -0.127985 -0.039059 0.080354 0.102657 0.025743 0.265693 -0.787135 0.346424 -0.075584 0.397466 0.386619 0.394318 0.007871 -0.558690 0.675909 -0.528158 0.517245 0.110033 0.262572 -0.354739 0.136628 0.643187 0.166251 -0.215092 -0.262605 0.096130 0.147506 -0.393774 0.272820 -0.474663 0.113544 0.015057 0.317752 -0.146047 -0.135205 -0.103551 -0.001559 0.068786 -0.063049 -0.238849 0.226297 -0.310995 
this -0.161336 -0.330126 -0.058371 -0.170580 0.449681 0.532933 -0.360730 -0.336009 -0.694151 0.774687 -0.066133 0.607673 -0.245897 -0.116178 -0.032667 0.148088 0.473304 0.453113 -0.075743 0.382665 0.259980 -0.053336 -0.125743 -0.293714 -0.105898 -0.243123 0.011300 0.444878 -0.197777 0.186244 0.010570 0.084756 -0.384523 -0.100658 -0.207927 0.132160 0.544260 0.490704 -0.073086 0.061075 0.167349 -0.027326 0.243451 0.028136 0.154645 0.041191 -0.124532 0.490346 0.088994 -0.075052 -0.183493 -0.365239 0.252914 0.501530 -0.130727 -0.119207 -0.111978 0.084684 -0.104060 -0.259485 -0.167915 0.358041 -0.111296 0.382543 -0.277629 -0.047042 0.071156 -0.247607 0.113358 0.171497 -0.209322 -0.283887 0.140848 0.249169 -0.170395 0.066198 -0.518746 0.353529 0.061073 0.145376 -0.041843 0.158338 -0.102260 0.029863 -0.136331 -0.090046 -0.063287 0.215895 0.791095 0.253384 0.256017 0.418026 -0.107430 -0.051207 -0.227173 0.518956 0.186417 -0.029311 0.009219 -0.180172 
Health -0.134340 0.285990 0.767863 0.268987 0.147557 -0.366049 -0.089694 0.062454 -0.129033 0.268076 0.050843 -0.426752 0.303491 -0.049412 -0.033495 0.004167 -0.099824 -0.360160 0.260572 0.057967 1.474775 0.514022 -0.000336 -0.718733 -0.121246 -0.376366 -0.608278 -0.110003 -0.111299 0.567479 -0.866323 -0.187070 -0.187465 -0.413344 -0.200187 0.617246 -0.108541 -0.100372 -0.225843 -0.424021 0.123109 0.110941 -0.202739 -0.003736 0.523316 0.981287 0.282739 -0.594611 0.811186 -0.685607 0.358090 0.432228 -0.563137 -0.082629 -0.358440 -1.915842 -0.484754 0.136355 0.317375 -0.093201 -0.012286 -0.062537 0.396556 -0.679424 -0.061470 0.825028 -0.348003 0.002264 0.488493 -0.605131 -0.087534 0.417506 -0.023191 0.053559 -0.798857 -0.464237 0.307760 -0.285983 -0.048207 0.200385 -0.470429 -0.223372 0.593882 0.111302 0.023075 0.142350 -0.403173 0.227620 -0.565877 0.281083 0.361001 0.240440 0.326498 0.134340 -0.024073 -0.168788 -0.595631 0.539877 -0.014144 -0.405680 
information -0.051817 0.086552 0.061318 0.027420 0.313868 -0.034438 0.114344 0.105016 0.111250 0.092872 0.131931 0.252961 0.333642 -0.197485 -0.071056 -0.144155 -0.053867 -0.220464 0.034283 0.084306 -0.074581 -0.014125 -0.229246 0.062808 0.058889 0.089503 0.027106 0.010357 0.106286 -0.322995 0.237429 -0.056098 0.311365 0.028109 0.265724 -0.321918 -0.005534 0.071799 -0.302721 -0.073702 -0.348120 0.038377 0.294719 -0.056125 -0.130504 -0.340034 0.255908 -0.253711 0.159236 0.037425 0.051793 0.107588 0.199981 -0.133590 -0.134557 0.047814 -0.193648 0.198918 0.156292 0.280491 0.173285 0.144439 -0.002850 0.207710 0.063960 -0.183563 -0.213064 -0.081954 -0.181398 0.262556 0.116025 -0.124014 0.069105 0.317635 0.211746 -0.082473 0.020553 -0.139645 0.183502 0.142323 -0.586426 -0.091222 -0.036089 0.169741 -0.009213 -0.356298 0.050533 -0.293562 0.178323 -0.114584 -0.013977 -0.007149 -0.339130 0.032953 -0.264082 -0.091299 -0.053371 0.124707 -0.131074 0.109142 
xxfn 0.111909 0.182850 0.261747 0.300805 0.088643 -0.708772 0.017791 0.386340 0.289243 0.271008 0.067187 0.188500 -0.031503 -0.304697 -0.174902 0.315028 0.249081 0.066275 -0.307327 0.683495 -0.067784 -0.098610 -0.350026 -0.165204 0.307301 -0.042134 -0.170903 0.005723 -0.028297 -0.307011 0.222759 -0.372245 0.206414 0.425359 0.370586 -0.341151 0.178557 -0.005016 0.335262 -0.451891 -0.206932 0.112411 -0.811440 -0.261996 0.002481 0.092678 -0.097529 0.083179 -0.099484 -0.123414 0.246681 -0.053497 -0.540707 -0.360342 0.392363 0.024298 0.068772 -0.077013 0.232597 0.021018 0.217015 -0.282572 0.000394 -0.125697 0.262832 0.286650 -0.228326 -0.167518 -0.269077 0.035044 0.223723 0.414178 -0.235085 -0.575195 -0.256487 0.357816 -0.073283 -0.318105 0.190485 -0.572645 -0.242607 0.107427 -0.268801 0.092689 0.199426 0.306820 0.096544 -0.085070 -0.160631 0.329301 0.308247 -0.232471 -0.058844 -0.229030 -0.032985 0.125532 -0.185456 0.230820 0.191403 -0.237628 
Medicaid -0.061392 0.005388 -0.012979 -0.271676 -0.355784 -0.089136 0.064720 0.131579 0.163010 -0.440025 0.276853 -0.405356 -0.212985 0.078622 -0.101937 0.407272 -0.648015 -0.087623 0.127226 -0.556222 0.199267 0.191086 0.475112 -0.475035 0.017996 0.283993 -0.075468 -0.152500 0.340394 0.379162 -0.306083 0.107965 -0.002383 0.439620 0.517646 0.572101 -0.099058 -0.351964 0.219017 0.258952 0.363173 0.472533 -0.215740 -0.072849 0.036364 0.486299 -0.094994 -0.080060 0.241227 0.241447 0.242780 0.284802 -0.259037 -0.441616 -0.114226 -0.351265 0.045654 0.391376 -0.230297 -0.193928 0.247013 -0.494625 0.467956 -0.266075 0.007868 0.187969 0.301955 0.059104 0.093062 -0.368615 -0.561412 -0.196799 -0.106749 -0.166530 -0.303189 0.162261 0.521432 -0.040235 -0.255945 0.194648 0.074916 -0.264312 0.130196 -0.147467 -0.008857 -0.025387 -0.131648 0.261845 -0.688876 0.015516 0.400903 0.118090 0.331498 0.147497 -0.148919 -0.064280 -0.498385 -0.033148 -0.184690 -0.328841 
services 0.013321 -0.570148 -0.166797 0.067914 -0.200318 -0.006013 -0.572758 0.230206 -0.796390 0.777507 -0.405385 0.531437 0.340011 0.030014 0.211163 -0.057768 0.114568 0.132481 0.004474 -0.207728 0.206262 0.169835 -0.415739 -0.047159 -0.440040 0.010686 -0.418502 0.115518 -0.150692 0.669325 0.496872 -0.012065 -0.111645 -0.380847 -0.161887 0.023455 0.460493 -0.270720 -0.610961 -0.095150 -0.131796 -0.605137 -0.089332 0.419335 0.218267 -0.235147 -0.462582 -0.074425 -0.141017 -0.018138 0.387437 0.241469 0.279824 0.134748 0.468296 0.078421 -0.373529 -0.010067 0.128453 0.064965 -0.088393 0.356675 -0.403869 0.459337 -0.391307 1.105825 -0.716035 0.533573 0.611888 0.241948 -0.022962 -0.075737 0.271020 0.283157 -0.289142 0.115392 -0.433441 -0.309696 1.027370 0.554714 -0.135515 0.056146 -0.159175 0.192111 0.432584 0.213041 0.467022 0.505449 1.345651 -0.445650 -0.407130 0.315547 0.275658 -0.137257 0.072439 -0.061172 -0.571799 0.934536 -0.254645 0.460638 
Assessment: 0.390835 0.271603 -0.169549 0.970006 0.491047 0.466553 -0.498465 -0.755732 0.513773 -0.085998 -0.619493 0.969007 -0.844847 -0.309044 -0.697525 -0.383332 1.161007 0.084949 0.738577 0.605334 0.094533 0.153301 0.649908 -0.856115 -0.202874 -0.367441 0.621955 0.790124 0.376691 -0.279333 -1.325349 0.184479 -0.378072 -0.311131 0.206014 0.344052 0.131787 -0.057066 0.510380 0.414981 0.014306 0.210608 0.029313 0.089162 0.372163 -0.035871 0.056295 0.646027 -0.888227 0.286771 -0.217826 -0.285541 -0.235338 0.082776 -0.218560 -0.637604 -0.413339 -0.302550 -0.166665 -0.965409 -0.548332 -0.270648 0.250645 0.345714 -0.329621 -0.503867 -0.040213 -0.254232 -0.333119 -0.173931 -0.074026 0.131956 0.199821 -0.299986 -0.180356 -0.118403 -0.040779 0.397141 -0.336728 -0.181770 0.441393 0.343671 -0.257088 -0.452789 0.202488 -0.104425 -0.551665 0.013866 0.055694 0.427094 0.680901 0.001618 0.043415 0.467432 0.466850 -0.202735 -0.169742 -0.050107 -0.111000 -0.577317 
plan: 0.852245 0.383207 -0.472160 0.648918 0.174116 -0.023677 -0.426702 -0.426874 0.317583 -0.412328 -0.818895 0.986939 -0.442054 0.022636 -0.142691 0.153465 -0.079226 -0.624407 0.044403 -0.046496 -0.510363 -0.351317 0.350960 -0.328122 0.009414 -0.282951 0.561148 0.491756 0.912420 -0.320714 -0.526154 0.179036 -0.163937 0.011445 1.388152 -0.023498 0.282808 0.340201 0.339524 0.717492 0.053853 0.018037 -0.236660 0.242307 -0.009241 -0.401574 0.307600 0.602636 -0.052067 0.623760 0.249324 -0.509430 -0.091878 -0.640674 -0.045846 0.367509 -0.414090 -0.168907 -0.839888 -0.359159 -0.323247 0.281973 0.055063 0.240754 -0.107932 -0.630744 0.412857 -0.176434 -0.800230 0.524249 0.061330 -0.336163 0.249848 -0.192378 0.137272 0.258627 0.064242 0.145153 0.403770 0.408630 -0.290578 0.373735 -0.668219 0.041358 -0.324651 -0.258580 0.396868 0.105207 -0.342991 0.308624 -0.053784 0.066727 0.045668 0.182453 0.166039 0.094899 -0.126685 0.039894 -0.418702 0.122011 
xxloc 0.009388 0.180225 0.098008 0.046518 0.376926 -0.444147 -0.304717 -0.332802 -0.433566 0.206945 -0.251643 0.150459 -0.104491 -0.446381 0.049753 0.126589 0.589984 -0.002726 -0.089553 0.388580 0.072172 -0.296836 -0.453476 0.008331 -0.452957 -0.071494 -0.252519 0.144260 0.054089 -0.090065 -0.163099 -0.011111 -0.473565 -0.065938 0.016788 -0.190844 0.711556 0.403284 0.006279 -0.197796 -0.039389 0.094088 -0.514114 -0.146102 -0.156113 0.358171 0.042285 0.175965 -0.175763 -0.120293 0.058754 -0.158922 -0.047551 0.321559 0.218169 -0.094014 -0.172510 -0.285650 0.242548 -0.213380 -0.420685 0.398200 0.038807 -0.044277 -0.343248 0.414933 0.026347 0.113003 0.152175 0.148997 0.136010 0.061580 0.009716 -0.260226 -0.153467 0.203396 -0.130568 -0.253322 -0.063390 0.088131 -0.117131 -0.002481 -0.385239 0.306224 -0.068657 0.298617 0.343968 -0.356203 -0.027879 0.504360 0.423877 -0.117384 0.115220 -0.477462 0.069321 0.609051 0.104919 0.231755 0.067592 -0.199873 
None -0.279712 0.013258 0.136491 0.286158 0.226403 0.362503 -0.526155 -0.702091 -0.464413 0.310497 0.149116 0.628247 -0.580025 -0.338481 -0.547232 -0.245890 0.900979 0.794214 -0.062408 0.350110 0.500779 0.223779 0.066774 -0.320245 -0.209461 0.336104 0.687656 0.539818 -0.201747 -0.208660 -0.854564 0.215234 -0.487907 -0.769968 -0.039092 0.273526 -0.143474 0.056194 -0.002000 0.400866 -0.133751 0.330271 0.679749 -0.325919 0.026763 0.142157 -0.433463 0.559428 -0.661145 -0.110344 -0.318254 -0.355336 0.217559 0.114157 -0.198516 -0.281105 -0.404288 -0.430130 0.270240 -0.943155 -0.576469 0.075652 0.142192 0.376253 -0.140391 -0.195879 0.270508 -0.230052 -0.287326 -0.126681 -0.113696 0.020631 -0.116357 0.462562 -0.359549 0.093214 -0.184799 0.401548 -0.438061 -0.050109 0.147805 0.339710 -0.418759 -0.100315 0.009378 -0.012359 -0.498680 0.271127 1.064252 0.365166 0.991628 0.075226 0.009047 -0.061327 0.110029 0.351069 -0.207866 0.374986 -0.090018 -0.338987 
Free 0.299747 -0.134274 -0.300193 -0.308223 -0.429107 -0.207522 -0.181781 0.368281 0.036965 0.174886 0.284573 -0.589187 -0.174732 0.327511 0.581099 0.776525 -0.774914 -0.020532 0.285679 -0.619425 0.501641 0.037361 0.264343 -0.380308 0.400616 0.030744 -0.622868 -0.645644 0.430992 0.808287 -0.168836 0.265373 0.111731 0.593417 0.334095 0.913494 -0.439922 -0.328804 0.337236 0.195299 0.432759 0.561580 -0.523471 0.362602 0.331938 0.688200 -0.160422 -0.246453 0.459909 0.331784 0.331078 0.234708 -0.687500 -0.634363 -0.053083 -0.424099 0.466131 0.529753 -0.280914 -0.225090 0.563943 -0.703166 0.323869 0.207423 -0.210804 0.157230 -0.037764 0.311927 0.388419 -0.157810 -0.598687 -0.393412 -0.155537 -0.476765 -0.531660 0.047949 0.518075 -0.101250 0.033111 0.023685 0.272010 -0.319047 0.394309 -0.383180 0.225337 0.017048 0.115631 0.272728 -0.920377 -0.072590 0.263945 0.409994 0.571831 0.358002 0.091177 -0.357023 -0.529082 -0.124056 -0.230607 -0.213567 
services: -0.582711 -0.383468 0.121708 0.012558 0.164392 0.000035 -0.253375 -0.520906 -0.134826 0.433969 0.262665 0.246231 -0.449182 -0.280131 -0.180073 -0.241691 0.493143 0.607517 0.468179 -0.125726 0.538790 0.505261 -0.244115 -0.353657 -0.257214 0.387051 0.045658 0.248680 -0.043618 0.524639 -0.790984 0.269651 -0.364362 -0.174812 -0.142418 0.490362 0.163313 -0.604818 -0.291883 0.355467 -0.404518 0.381484 0.527649 -0.331977 0.261358 0.492806 -0.802438 0.091522 -0.368937 -0.041336 0.528130 -0.183302 0.176545 0.010379 -0.019340 -0.320556 -0.412183 -0.321200 0.708192 -0.793784 -0.344618 -0.098942 0.208349 0.308200 -0.206177 0.677886 0.026184 0.131991 0.695779 -0.042350 -0.389867 -0.210519 -0.125112 -0.000630 -0.633287 0.177165 -0.665327 0.308818 -0.130989 -0.185378 0.491681 -0.094871 -0.186619 -0.529806 0.295233 0.945129 -0.352893 0.496760 1.083008 -0.355716 0.912841 0.088086 0.340227 -0.009658 0.270133 -0.129217 -1.077674 1.247959 0.026357 -0.415141 
that -0.148563 -0.225902 -0.158141 -0.256527 0.050692 0.178816 -0.235422 0.284488 -0.106614 0.694210 0.009455 0.438244 -0.210816 0.114728 -0.126122 0.056350 0.041046 0.398117 -0.188302 0.099791 -0.107175 0.027198 -0.013739 0.007375 0.286964 -0.113737 0.100223 -0.060199 -0.040040 0.517729 0.024832 -0.281609 -0.196403 0.207868 -0.076063 -0.117614 0.407513 0.226321 0.109521 0.171935 0.267762 -0.373452 -0.235471 0.123145 0.282850 -0.027508 -0.174196 0.407629 -0.160194 0.109193 -0.247418 -0.025414 -0.194532 0.293721 0.428598 -0.037897 0.072267 -0.022049 -0.235375 0.093529 0.378757 0.194464 -0.095766 0.081103 -0.005468 0.172372 0.194705 -0.088638 0.230300 0.123269 0.041726 0.093462 0.179364 -0.508016 0.035403 0.115318 -0.442397 0.316134 0.087908 -0.124934 0.311996 0.156361 -0.029870 -0.048133 -0.205951 -0.110027 0.145870 0.106718 0.627588 0.002928 0.182886 0.212214 -0.199187 -0.092322 -0.008272 0.389339 0.345460 -0.203667 0.665094 -0.311309 
She -0.093792 -0.357519 0.676181 -0.895132 0.499514 0.350902 -0.418319 0.515107 -0.566255 1.205120 -0.138596 0.673837 -0.146831 0.221231 -0.071946 0.975314 -0.263815 0.063406 -0.171936 0.604812 0.280643 -0.196968 -0.265255 -0.589513 0.465204 -0.710926 -0.237682 0.634769 0.331441 -0.258021 0.317610 -0.224402 0.058097 0.771988 0.330179 -0.098560 0.667458 0.758181 0.277983 0.071743 0.128200 0.152202 -0.314981 -0.223155 0.258014 0.011189 0.632884 0.093787 0.696021 0.192370 -0.049999 -0.522686 0.301983 0.089318 -0.762800 0.038195 0.372195 0.883567 -0.585604 0.030771 0.793468 -0.081448 -0.071116 0.394684 -0.348790 -0.288407 -0.131678 -0.758457 -0.004743 0.850141 -0.352391 -0.532721 0.353231 0.409602 -0.151413 0.053618 -0.763264 0.016794 0.150285 0.114411 -0.345386 -0.004737 0.216746 -0.044529 -0.307198 -0.056888 -0.349511 -0.032436 0.561476 0.571764 0.388785 0.794051 -0.620919 -0.057264 -0.405561 0.627700 0.340273 -0.254023 -0.524297 -0.414563 
xxname(s) 0.008257 0.257631 -0.025616 0.315638 0.234337 0.284625 -0.033215 -0.594693 -0.778883 -0.924924 -0.188268 0.290714 0.153706 -0.209097 -0.678349 0.073372 0.297062 -0.120105 -0.610447 -0.069102 -0.299839 0.005471 -0.094133 0.129821 -0.471164 0.411153 0.839049 0.650707 -0.146804 -0.730414 0.187493 0.004714 -0.226121 -0.606900 0.438618 -0.305693 0.231028 0.220696 -0.267931 0.061021 0.019607 -0.001552 0.496579 -0.360910 -0.464752 -0.639141 0.120076 0.500154 -0.452225 0.010402 -0.308463 -0.210807 0.793453 0.180936 -0.111574 0.624242 -0.793471 -0.280989 -0.469956 -0.070986 -1.083454 0.479096 0.183309 -0.489264 0.208089 -0.033717 0.442798 -0.063495 -0.689854 -0.222979 0.238829 0.016719 -0.168498 0.875333 0.500630 0.517586 0.428771 -0.111947 0.175248 0.612935 -0.609323 0.082957 -0.799739 0.350057 -0.251078 -0.266480 0.128098 0.016507 0.490280 0.143255 -0.023884 -0.161952 -0.284646 -0.292540 -0.182041 0.259774 -0.218075 0.152178 -0.753163 0.604513 
Referrals -0.949339 0.012686 0.996982 -0.725468 -0.034422 0.049529 0.098600 0.591832 -0.405289 1.161531 0.478554 -0.102895 0.677202 0.428975 -0.577272 -0.420959 0.026648 0.842542 -0.297468 -0.001152 0.971929 0.885731 -0.086912 0.075074 0.538750 -0.012782 0.041250 -0.930111 -0.797642 0.854077 -0.220081 -0.594172 0.241625 -0.058596 -1.273642 -0.203529 -0.416158 0.145404 -0.557180 -0.129666 0.175832 -0.696915 0.595729 -0.108367 0.274086 0.579223 0.251057 -0.570635 0.174470 -0.409429 -0.711187 0.942406 -0.094506 0.506380 0.113217 -1.371477 -0.190260 0.502949 0.331263 0.901611 1.157893 0.562547 0.050700 -0.450314 0.562631 0.318304 0.047440 -0.153835 0.488881 -0.498558 0.058745 0.636670 0.304996 -0.017275 0.490862 -0.863060 -0.027292 0.087753 -0.095125 -0.285230 -0.165247 -0.432228 1.335278 0.325418 -0.176229 -1.105764 -0.467140 -0.390910 0.910917 -0.470758 0.434634 -0.129398 -0.615923 -0.091132 -0.153346 -0.358074 0.429573 -0.602074 1.435215 -0.554648 
Secondary -0.195596 -0.039806 0.004210 -0.121149 -0.357610 -0.251796 0.646742 0.238316 0.686758 -0.159424 0.613623 -0.105985 -0.296680 -0.192207 0.083013 -0.013755 -0.320075 -0.186140 0.119310 0.072345 -0.349979 0.125405 0.210831 0.084507 0.231125 0.090445 0.057230 0.031195 0.261151 0.041012 0.011148 -0.395097 0.045870 0.354628 0.120732 -0.029287 -0.031106 -0.357981 0.158049 -0.136342 0.005296 0.169204 -0.184407 -0.439145 -0.039671 0.191745 -0.286183 0.063401 0.247244 -0.308451 0.272630 -0.006327 -0.274347 -0.384879 0.225775 -0.003868 0.306217 -0.134744 0.157974 -0.071258 0.261210 -0.442374 0.098002 -0.341103 0.227099 0.028964 0.318625 -0.238542 -0.134895 0.079336 0.011440 0.237826 -0.205307 -0.236331 -0.475135 0.169979 0.017080 0.103104 -0.570082 -0.410496 0.384949 0.191105 -0.106058 -0.152134 -0.105469 0.439707 -0.074805 0.227304 -0.273671 -0.171350 -0.066294 -0.202852 0.115282 0.103218 -0.142941 0.064962 -0.076241 0.408182 0.439196 -0.342289 
Status: 0.004835 -0.002090 0.003208 -0.000827 -0.002460 0.003768 0.003867 -0.000473 -0.004119 -0.001185 0.001178 -0.000226 -0.002488 -0.002418 -0.000956 -0.004305 0.002591 -0.002898 0.003874 -0.004429 0.003773 -0.003095 0.004573 0.000184 -0.003785 -0.000978 0.002547 0.002814 -0.002427 -0.002015 0.001703 -0.000757 -0.001996 0.000825 -0.001553 -0.002248 0.000162 -0.002927 0.001685 -0.000878 -0.000794 -0.001239 0.002823 -0.003365 0.002791 0.000419 -0.004232 -0.003929 0.001072 -0.000921 -0.003074 -0.004287 -0.003292 0.004273 -0.004797 -0.003659 0.004853 -0.001969 0.002005 0.001237 0.003164 0.004884 0.001239 -0.003819 0.001797 0.001865 -0.000689 -0.000544 0.003409 -0.001496 -0.004873 0.001842 0.003156 -0.003168 0.000094 -0.003380 -0.001306 0.001381 -0.001883 -0.000428 0.000179 -0.000818 -0.004397 -0.001020 0.000267 -0.000234 0.001458 -0.004377 0.004116 -0.004835 -0.002912 0.002785 -0.000620 -0.000091 -0.003600 -0.003755 -0.003784 0.001030 -0.004200 0.004285 
Pre-Hospitalization -0.585247 -0.669181 0.585460 -0.568798 0.608883 0.678318 0.064170 -1.151222 -1.623819 0.241687 -0.012353 -0.645154 0.023937 -0.402285 0.186095 -0.151751 1.103562 0.537831 0.157432 0.069927 0.611802 0.220205 -0.458149 -0.065575 -1.144306 0.183656 -0.192567 0.076773 -0.146084 0.053012 -0.286090 0.574143 -0.369663 -0.537348 -0.833648 0.247314 0.580744 -0.192330 -0.654767 -0.243203 0.205392 0.127686 0.589259 -0.139243 -0.394173 0.580111 -0.281832 0.075293 -0.019492 -0.470658 -0.203761 0.071763 0.614854 0.742674 -0.141610 -0.230234 0.240582 -0.237706 0.374700 -0.354604 -1.046398 0.459984 0.011942 -0.050684 -0.944259 0.803387 -0.101898 0.323392 0.775676 0.005330 -0.180454 -0.363146 -0.049750 0.869051 -0.211487 0.012408 0.156535 -0.016110 -0.546302 0.412225 0.137065 -0.129635 0.083806 0.283710 0.106943 0.369225 -0.130718 -0.110859 0.655295 0.314095 0.077707 -0.046486 0.357301 -0.434480 -0.237155 0.515648 -0.045031 0.237521 -0.206818 0.062564 
DME -0.192107 -0.195061 -0.294804 0.215666 0.038345 0.172830 0.440277 -0.473512 0.657789 -0.768895 -0.186316 0.338846 -0.625442 -0.297719 -0.517433 -0.138096 0.580713 0.160420 1.112609 -0.137789 -0.704237 0.409508 0.491529 -0.332860 -0.589068 0.220800 0.273460 0.890466 0.379935 -0.536095 -0.501525 0.374262 0.059863 0.381319 0.115941 0.277826 0.332856 -0.926021 0.280982 0.413561 -0.290130 0.329827 0.375034 0.054073 -0.056311 -0.223003 -0.313974 0.271523 -0.980271 0.507181 0.188987 -0.097710 0.487604 -0.073122 -0.244410 0.681190 -0.115087 -0.345644 0.069291 -0.739743 -0.658283 -0.695097 0.337779 0.349099 -0.259327 -0.290668 -0.064122 0.121207 -0.023107 -0.082817 -0.301238 -0.326116 -0.408421 0.014960 0.062503 0.431492 0.299834 0.185150 -0.406898 -0.351978 0.663088 0.008792 -0.518393 -0.750534 0.621114 0.653476 -0.559173 0.043668 0.002558 -0.511269 0.273771 -0.214713 0.349694 0.173582 0.186839 -0.541770 -0.655413 0.300793 -0.520917 0.037082 
O[2]: -0.377832 -0.455356 0.482455 -0.120211 0.380931 0.023649 0.000050 -0.533843 -0.178130 -0.199783 0.243728 0.012820 -0.558708 -0.282928 -0.757773 0.051098 0.973425 0.677961 0.661714 0.173079 0.244228 0.679703 0.036182 -0.476814 -0.724082 0.581289 0.218448 0.461880 0.148413 -0.285342 -0.601932 0.299753 -0.199794 0.140009 0.036009 0.211942 0.234780 -0.722820 -0.053856 0.328810 -0.035562 0.270709 0.136754 -0.007271 0.025990 0.312843 -0.140567 -0.017688 -0.983756 0.278242 0.235141 0.076165 0.643773 0.117006 -0.157986 0.203200 -0.191611 -0.396416 0.244001 -0.819776 -0.790869 -0.590186 0.232088 -0.175248 -0.500256 0.331274 -0.108954 0.102215 0.292171 -0.168896 -0.395432 -0.157674 -0.458120 0.546342 0.110531 0.252973 0.040992 -0.017478 -0.415022 -0.250086 0.261477 0.000487 -0.418959 -0.549043 0.607027 0.771323 -0.651978 0.037158 1.027684 -0.111425 0.860061 -0.044651 0.067636 -0.097087 0.148165 0.050089 -0.537637 0.385611 -0.457908 -0.333521 
Functional 0.381905 0.093956 -0.098374 0.882432 1.056607 0.898577 -0.022137 -1.146215 0.108969 -0.221706 -0.875902 0.641416 -0.284077 -0.339509 -0.365635 -0.458089 1.572456 -0.313653 1.310073 0.730298 -0.021162 0.372351 0.660164 -0.833013 -0.886158 -0.855771 0.354199 0.715189 0.427785 -0.415838 -1.314400 0.342185 -0.185613 -0.394517 -0.658197 0.384808 0.316658 -0.210902 0.206240 -0.041028 -0.102883 0.208778 0.613443 0.169973 0.198418 -0.261442 0.505153 0.395368 -0.805588 0.027178 -0.346756 0.106215 0.122067 0.730926 -0.529108 -0.847712 -0.177104 -0.228336 -0.196002 -0.454314 -1.315155 0.035472 0.113061 -0.220055 -0.808749 -0.236379 -0.347407 -0.140203 0.491751 -0.246299 0.238443 -0.266155 0.474843 0.063892 -0.051830 -0.454547 0.275812 0.303704 -0.452643 0.089323 0.563505 0.042435 0.426103 -0.628676 0.266528 -0.090885 -0.636295 -0.213980 -0.224665 0.323618 -0.105022 0.054909 0.028814 0.499900 0.457606 -0.322788 -0.023772 -0.354583 -0.314691 -0.189717 
Status 0.700049 0.257215 -0.359495 1.167210 0.189836 0.449627 -0.233409 -1.230623 0.634504 -0.995047 -0.479229 0.150666 -0.862138 -0.250005 -0.081083 -0.277939 0.830712 -0.434955 0.880182 0.194382 -0.125646 -0.127335 0.879367 -0.524039 -0.489851 -0.115998 0.508443 0.611918 0.764825 -0.542125 -1.259480 0.645210 -0.257480 -0.471255 0.533933 0.706401 -0.450378 -0.567629 0.585846 0.490431 0.095821 0.769819 -0.042546 0.022485 0.190416 0.095634 -0.165982 0.389141 -0.585393 0.196679 0.151086 -0.455590 -0.341993 -0.277839 -0.289542 -0.111910 0.103679 -0.528756 -0.211371 -1.151889 -1.032429 -0.628403 0.116361 0.034321 -0.389738 -0.717469 0.007981 -0.039496 -0.390372 -0.141369 -0.160949 -0.164559 -0.205108 -0.075411 -0.452627 -0.045576 0.453538 0.282634 -0.644894 -0.034806 0.622259 0.318873 -0.386863 -0.539301 0.119149 0.448803 -0.302559 0.282978 -0.920554 0.384794 0.152148 -0.191923 0.576243 0.465227 0.543072 -0.348829 -0.376853 0.241568 -0.717314 -0.158863 
Contact(s): 0.485982 0.094059 0.542336 0.403261 0.238497 -0.902813 -0.014616 0.298460 0.590710 0.382495 -0.232234 0.463363 0.323108 -0.404871 0.294705 -0.012528 -0.249505 -1.029154 0.182751 0.759082 0.199485 -0.448316 -0.428715 -0.502779 -0.276820 -0.345470 -0.436408 0.560893 0.460546 -0.379527 0.100704 -0.185008 -0.133053 -0.064608 1.170856 -0.416357 0.562251 0.194491 0.031338 -0.191042 -0.555367 0.099455 -0.997602 -0.210739 0.063573 0.035951 0.319043 -0.579299 0.742840 -0.314576 1.032729 -0.302196 -0.216246 -0.598896 -0.209859 -0.327983 -0.276581 -0.069855 0.592255 -0.043911 0.318429 -0.026278 -0.322428 -0.012625 -0.334920 0.457693 -0.516988 -0.289178 -0.396708 0.849301 0.196184 -0.025039 0.227539 0.261988 -0.772401 -0.111490 -0.519184 -0.536691 0.126583 0.387661 -1.096840 0.301361 -0.536524 0.389152 -0.189373 0.643038 0.166705 0.159936 0.079529 0.615468 0.065554 0.234039 -0.114028 -0.163384 -0.412118 0.651068 -0.227481 1.410711 -0.386914 -0.154491 
Proxy: -0.141951 0.245074 0.447693 0.423612 0.181385 -0.217275 -0.981159 -0.093161 -0.546531 0.059217 -0.771495 -0.722249 0.466709 0.271279 0.245828 0.095248 0.032575 0.122785 -0.341561 0.033976 1.557758 -0.177546 0.009019 -0.149812 -0.444990 -0.579588 -1.031051 -0.222631 -0.918449 0.582671 -0.332381 0.283112 -0.379516 -1.177587 -1.001680 0.326076 -0.181052 0.802389 -0.218870 -0.499685 0.311306 -0.468794 -0.632273 0.884089 0.245366 0.869083 0.780046 -0.519002 -0.036167 -0.557088 -0.192887 0.468563 -0.496098 1.646023 -0.032976 -1.054573 -0.111253 -0.002887 0.330555 0.383804 -0.478165 0.506511 -0.234103 -0.735152 -0.248285 0.493530 -0.737050 0.484339 0.919250 -0.886948 0.030484 0.289843 0.023582 -0.149780 0.104820 -0.559015 -0.012092 -0.632034 0.765729 0.317190 -0.711291 -0.271549 0.674530 0.502831 0.041678 -0.051174 0.036325 0.102032 -1.240207 0.313448 0.085793 -0.104230 0.150420 -0.384773 0.338918 -0.116357 0.359704 -0.431988 -0.490171 0.191697 
Dialysis: 0.280273 0.121028 0.120263 0.238427 0.245668 0.368660 0.008701 -0.489294 -0.183361 -0.518633 -0.239641 -0.252122 0.119961 0.104184 0.008444 0.127348 -0.025838 -0.480718 0.350142 -0.078355 0.217717 0.057707 0.435670 -0.448653 -0.522973 -0.083833 0.036135 0.165950 0.420532 -0.197991 -0.425593 0.337247 0.087685 -0.152128 0.201112 0.415308 -0.122082 -0.219723 0.005974 0.144085 0.168186 0.416114 0.181582 -0.020876 -0.051395 0.141529 0.361807 -0.208163 0.133575 0.057177 0.041179 0.212387 0.095476 0.034902 -0.439211 -0.367174 -0.046710 0.225267 -0.298112 -0.120376 -0.651179 -0.068276 0.098369 -0.623585 -0.356613 0.064004 -0.015969 -0.068256 0.242292 -0.172766 -0.157457 -0.429050 0.122513 0.417633 -0.142991 -0.130082 0.532152 -0.106263 -0.222756 0.559396 -0.041526 -0.202757 0.304592 -0.144413 -0.195211 0.005450 -0.249080 0.188077 -0.537125 0.213754 -0.205553 0.100042 0.057575 0.033898 -0.049578 -0.045053 -0.192414 -0.091409 -0.635086 0.138796 
Recommended: -0.743789 -0.302196 0.487869 -0.840927 -1.063247 -0.457705 -0.327460 0.950308 -0.167205 0.822450 0.820239 -0.780744 -0.189158 0.581752 -0.034354 0.144795 -0.690931 1.291125 -1.005856 -0.463215 0.752096 0.169706 -0.136361 0.499998 1.051545 0.656969 -0.186182 -1.056434 -0.763523 0.961386 0.351950 -0.225648 0.086666 0.214199 -0.393772 0.091867 -0.798902 0.079025 0.071882 0.212025 0.500403 -0.473870 -0.449187 0.060719 0.274238 1.008566 -0.646549 -0.284800 0.181893 -0.084813 -0.258135 0.195546 -0.614738 -0.202150 0.582135 -0.054962 0.532527 0.120831 0.322229 0.171438 1.622566 -0.164181 -0.207836 0.240248 0.815929 0.117514 0.181710 0.086663 -0.097379 -0.214752 -0.401067 0.637175 -0.442992 -0.663925 0.105717 -0.096468 -0.455992 0.146754 0.127323 -0.849536 0.265737 0.004994 0.417746 0.305188 -0.089909 -0.228959 0.028695 0.226318 0.410058 -0.303750 0.749494 -0.225198 0.095780 -0.454778 0.078064 0.072287 0.427136 -0.432242 1.188945 -0.546196 
multidisciplinary -0.518436 0.020043 0.782388 -0.246294 0.849370 0.861659 0.516651 -0.714235 -1.085783 -0.207557 0.238084 0.003042 0.415875 -0.042151 -0.680436 -0.005473 0.643596 -0.133167 0.156003 0.306107 0.407746 0.575945 0.003496 -0.207864 -0.708074 0.035577 0.702261 0.587891 -0.078291 -0.772439 -0.302067 -0.224340 0.009757 -0.362826 -0.539274 0.037825 0.027775 -0.193467 -0.455499 -0.278009 0.001086 0.458372 1.256979 -0.941968 -0.253102 -0.216242 0.593987 -0.095728 0.176644 -0.574158 -0.592937 0.194571 1.051137 0.529101 -0.945633 -0.590767 -0.411981 0.263111 -0.245416 0.083099 -0.997547 0.266694 0.370408 -0.994243 -0.269403 0.153163 0.323387 -0.514623 0.103022 -0.192789 0.223577 -0.261661 0.183666 1.530333 0.169315 -0.108535 0.331369 0.060908 -0.730896 0.547005 -0.231107 -0.350938 0.371084 -0.081580 -0.438557 -0.109010 -0.733633 -0.078117 0.867988 0.168824 0.027359 0.220171 -0.636854 -0.007152 -0.432365 0.190983 -0.196198 0.149615 -0.534845 0.106834 
team: -0.509028 0.161565 0.811771 -0.229377 0.490919 0.832371 0.706654 -0.630028 -0.581448 -0.829839 0.424168 -0.573266 0.752073 0.242852 -0.650010 -0.237496 0.055370 -0.279547 0.250053 -0.221005 0.293321 0.742849 0.522621 -0.100724 -0.590423 0.478373 0.791962 -0.062366 0.168965 -0.645342 -0.335650 0.136964 0.612179 -0.300599 -0.226037 0.104113 -0.762501 -0.628576 -0.636811 0.153228 0.099568 0.499862 1.461692 -0.661218 -0.432195 -0.083549 0.638086 -0.682251 0.188541 -0.152689 -0.473352 0.789833 0.825049 0.156434 -0.816127 -0.474953 -0.271785 0.449873 -0.311982 0.493855 -0.689598 0.134826 0.313564 -1.328974 0.128783 -0.259554 0.384275 -0.261000 0.004838 -0.429812 -0.023038 -0.364088 0.074505 1.406404 0.622389 -0.451706 1.135095 -0.001115 -0.750393 0.699116 -0.363573 -0.621437 0.750961 0.052145 -0.491467 -0.696510 -0.600548 -0.188909 0.029763 -0.242639 -0.250309 -0.252192 -0.568540 -0.069032 -0.470905 -0.251614 -0.093042 -0.336278 -0.360782 0.249759 
was -0.064097 -0.291982 -0.048141 -0.262359 0.468232 0.042498 -0.032859 0.340635 -0.263470 0.938358 0.399107 0.386870 -0.368111 -0.122942 -0.012208 0.791592 0.570319 0.613283 0.124007 0.649293 0.162302 0.339787 -0.405347 -0.167840 0.566926 -0.512561 -0.249048 0.067682 -0.068095 0.058051 0.136034 -0.499132 -0.021836 0.661029 -0.470032 0.021026 0.472605 0.258470 0.295035 -0.550900 -0.015538 0.201081 -0.378162 0.044715 0.307134 -0.030770 0.118164 0.500120 -0.169297 -0.099266 -0.100749 -0.142578 -0.203122 0.275229 0.045630 -0.168264 0.484421 0.243026 -0.222453 0.092321 0.041086 -0.348750 0.162489 0.159177 -0.207193 0.102722 -0.210467 -0.326489 0.402222 0.114856 0.192214 0.084689 -0.191824 -0.355679 -0.213258 0.384586 -0.171777 -0.011439 0.160885 -0.711183 0.232233 0.082091 0.060593 -0.476647 0.358413 0.296528 -0.067023 -0.072526 0.312953 0.058785 0.334384 0.304625 -0.172932 -0.041714 0.030766 0.259812 0.137533 -0.329636 0.202173 -0.273734 
rehab 0.105158 -0.204996 -0.582836 -0.224359 -0.052569 0.267373 0.084969 0.204293 -0.323727 0.430807 -0.141184 0.369172 -0.264263 -0.024021 0.329918 0.383639 0.012256 0.113798 0.110373 -0.041862 -0.689756 -0.200441 -0.029355 0.076305 -0.262031 -0.239110 -0.212193 0.164820 0.073948 0.231073 0.429497 -0.117381 -0.214223 0.246558 -0.330056 -0.239996 0.460736 0.235023 0.003612 -0.107978 0.135768 -0.199300 -0.133367 0.236684 -0.131939 -0.237799 -0.053067 0.283047 -0.214220 0.208379 -0.239896 -0.059611 0.184140 0.371572 0.266517 0.589984 0.431758 0.045024 -0.220372 0.016689 0.087010 0.092879 -0.105300 0.446378 -0.586183 -0.077935 0.066351 0.058651 0.258736 0.447735 0.096240 -0.285219 0.352186 -0.252900 0.034219 0.077206 -0.289516 0.043905 -0.014525 0.044322 0.588045 0.087873 -0.134205 0.016459 -0.036281 0.018916 0.272123 -0.217798 0.323077 -0.004377 -0.352790 0.203254 -0.098255 0.153916 -0.021042 0.324712 0.241147 -0.180039 0.157717 -0.132427 
reviewer:: 0.036879 0.125160 -0.019940 0.053100 0.122417 -0.138154 0.198292 0.102952 0.229890 -0.211841 0.124847 0.050624 0.450599 -0.148398 -0.029029 -0.290810 -0.242825 -0.359260 0.003425 -0.146108 -0.271782 -0.150424 -0.240287 0.272704 0.017924 0.365288 0.074506 -0.097729 0.163117 -0.464222 0.386661 0.069658 0.488450 0.022447 0.497069 -0.422587 -0.197770 -0.145589 -0.374368 0.066089 -0.390515 0.062808 0.289572 -0.013200 -0.267913 -0.438530 0.203654 -0.484306 0.209006 0.179084 0.152892 0.143884 0.293083 -0.375082 -0.067767 0.384247 -0.214593 0.173249 0.186609 0.305143 0.225762 0.095420 -0.026136 0.247583 0.190447 -0.337580 -0.226793 0.083806 -0.397684 0.329433 0.061908 -0.146344 -0.011439 0.406133 0.422940 -0.077437 0.195887 -0.210762 0.175783 0.223644 -0.667359 -0.136402 -0.193368 0.258962 -0.011897 -0.386160 0.184045 -0.363504 0.107119 -0.232758 -0.176811 -0.133336 -0.312897 -0.017523 -0.291700 -0.202337 -0.078940 0.155603 -0.253505 0.304908 
To 0.173455 -0.114225 0.041174 0.013915 0.215754 0.073451 0.030057 -0.164130 -0.956287 0.244260 -0.009297 0.791171 -0.245474 -0.307304 -0.293033 -0.024092 0.677046 0.136976 -0.752628 0.170994 -0.942134 -0.078028 -0.659099 0.414517 -0.278730 0.135691 1.098534 0.364379 0.181761 -0.568264 0.332834 -0.456394 -0.629196 -0.395213 0.398364 -0.557367 0.762761 0.171169 -0.121260 -0.018537 -0.266821 -0.542264 0.293056 -0.756458 -0.299925 -0.744896 -0.603759 0.814683 -0.641225 -0.067219 -0.401814 -0.598572 0.667713 -0.598983 0.113596 0.982436 -0.423255 -0.859953 -0.331703 -0.285379 -0.379239 0.587514 -0.067451 0.300545 0.132100 0.562214 0.738590 -0.222691 -0.950265 0.436974 0.802087 0.329025 0.143569 0.312110 0.103047 0.724253 -0.402519 0.238927 -0.338149 0.165417 0.114920 0.568311 -1.005458 0.328631 -0.211392 0.088597 0.379159 -0.308556 1.471502 0.382689 -0.077303 -0.214457 -0.033060 -0.329286 0.139151 0.588299 -0.029868 0.498449 0.551909 0.277734 
home 0.172536 -0.185052 0.373547 -0.346200 -0.004619 0.308706 0.279211 0.167184 -0.456789 0.626414 0.392418 -0.274438 -0.003459 0.199171 0.288178 0.347454 0.168024 0.230942 -0.199898 0.419165 0.048483 -0.101176 -0.546659 0.113877 0.470914 -0.116918 -0.132755 -0.078609 -0.137856 -0.329483 0.397093 -0.103406 0.208095 0.342313 -0.283483 0.032351 -0.044626 0.171513 0.203233 -0.247681 0.142867 0.082211 -0.035785 -0.342726 0.115255 0.175098 -0.093501 -0.086088 0.461604 -0.328635 -0.341520 -0.296462 0.178799 -0.301819 -0.517642 0.059863 0.503903 0.199760 -0.094452 -0.018089 0.310129 -0.280434 -0.077146 0.369764 -0.046105 0.047698 -0.071603 -0.369308 -0.176860 0.319740 0.047513 0.003600 -0.151647 0.463029 -0.360895 0.027127 -0.306677 0.203857 -0.543294 -0.348805 0.347558 0.145496 0.278467 -0.137446 -0.070295 0.211737 -0.452939 -0.201349 0.721378 0.565971 -0.037924 0.351096 -0.282857 -0.110232 -0.141816 0.463099 0.464462 -0.241531 0.144180 -0.119036 
Rehab -0.074092 -0.037106 -0.307469 0.094058 -0.012289 0.206967 -0.185732 -0.121886 -0.206576 0.092897 -0.225388 0.301284 -0.352492 -0.139389 0.203951 0.127176 -0.036604 -0.046861 -0.122946 0.006063 -0.283813 -0.200666 0.198602 -0.065294 -0.428692 -0.174380 0.005511 0.278275 0.172332 0.200101 -0.182978 -0.022827 -0.404084 -0.223488 -0.186810 0.035385 0.230848 0.137784 -0.033995 -0.001665 0.050484 0.015903 0.083552 -0.072008 -0.169349 0.088928 -0.149288 0.381418 -0.244395 0.041014 -0.041063 0.005962 -0.133127 0.299310 0.189359 0.128885 0.101744 -0.211326 -0.172233 -0.204029 -0.329980 0.277757 -0.046509 -0.048009 -0.342556 0.175172 0.307361 -0.073062 0.204539 0.105742 0.095520 -0.113200 0.302706 -0.183343 -0.227299 0.084700 -0.218259 -0.040043 -0.079905 0.246602 0.454503 0.047932 -0.075355 0.153434 -0.226861 0.191499 0.147539 0.107763 -0.202494 0.071610 -0.161364 -0.121506 0.135436 0.072234 0.146665 0.005664 -0.138468 0.146164 0.119597 -0.107427 
xxdate 0.611437 -0.032563 -0.009583 -0.317009 -0.006587 -0.123384 0.101549 -0.067161 0.268809 0.670807 -0.506942 0.205642 0.315557 0.546910 0.394508 -0.487385 0.139684 -0.276960 0.069425 0.127259 -0.717074 -0.599423 -0.592583 1.030072 0.572604 -0.335929 0.188066 -0.575514 0.381303 -0.288099 0.519858 0.077065 0.304338 0.412786 0.090534 -0.798868 -0.032447 0.233149 0.314999 0.574023 -0.229611 -0.535291 -0.447066 0.122338 0.309216 -0.648177 0.278934 -0.315871 0.211302 0.336861 -0.125431 -0.744686 0.165772 -0.618668 0.087188 0.884642 0.281035 -0.199350 -0.248919 0.217503 0.778342 0.388278 -0.589535 0.744086 0.189753 -0.950687 0.095265 0.007643 -0.690675 1.153731 0.487949 -0.083905 0.203808 -0.108872 0.629419 -0.505598 -0.663100 0.470924 -0.123572 -0.281105 0.222945 0.270307 0.015853 -0.178590 -0.316054 -0.251869 0.469545 -0.658478 0.773910 -0.265974 -0.688592 0.130779 -0.402316 0.073103 0.247130 0.045395 1.263197 -0.457000 0.561990 0.456352 
Case -0.501777 0.042379 0.701805 -0.009280 0.161865 -0.170686 -0.204456 0.005174 -0.698605 0.731406 0.396371 -0.223641 0.533514 0.202424 0.193473 0.113104 -0.045653 0.317492 -0.782834 0.630053 0.926941 0.004668 -0.235321 0.132547 0.102470 -0.012345 -0.098779 -0.577888 -0.347041 0.072144 0.395759 -0.147791 0.135862 -0.267413 -0.285809 -0.198569 -0.571716 0.236916 -0.108225 -0.299194 -0.126683 0.161298 -0.037024 -0.414520 0.021407 0.315828 0.018631 -0.308190 0.438398 -0.431616 -0.066410 0.038017 -0.499622 0.114340 0.288749 -0.279410 0.355407 0.100182 0.384865 0.415576 0.330189 0.498216 -0.600438 -0.523469 0.344874 0.063097 -0.026786 -0.312237 0.015821 0.095267 0.281312 0.057211 0.025310 0.016692 -0.271819 -0.278092 -0.325352 -0.078393 0.073953 -0.210850 -0.358218 -0.104540 0.468538 0.432696 -0.587523 -0.062553 0.262604 0.303174 0.208117 0.002340 -0.220453 -0.222842 -0.275219 -0.501952 -0.302507 0.532677 0.267773 0.122464 0.449234 -0.074214 
follow -0.829638 0.215875 -0.155792 -0.355230 -0.978641 -0.270221 -0.592716 0.829292 -0.123643 -0.574344 0.519029 -0.287435 -0.427476 0.050527 -0.430432 0.947461 -1.122838 1.036427 -1.501016 -0.249254 0.626315 0.118849 0.221143 -0.411848 0.804179 0.422848 -0.309833 0.191968 -1.089729 0.546003 0.785131 -0.122237 -0.095347 0.301296 0.125443 0.184651 0.101013 0.791239 0.431456 -0.392424 0.461932 -0.034398 -0.233927 0.019731 -0.079616 0.428825 -0.527480 0.853728 0.009502 -0.078482 -0.212701 -0.073795 -0.360453 0.540923 0.624320 0.194492 -0.071524 0.357148 -0.110174 0.097430 0.226447 -0.077807 0.144998 -0.420328 1.004722 0.224210 0.354712 -0.320674 0.131015 -1.159989 -0.639826 0.501400 -0.648014 -0.597024 -0.267404 0.865901 -0.179859 0.072474 1.044388 -0.365781 -0.308198 0.053592 -0.130340 0.285168 -0.028795 -0.090627 -0.027770 1.095475 -0.344830 0.128262 0.496578 0.130330 0.038551 -0.782596 -0.409802 0.837903 0.041307 -0.731788 -0.270731 -0.083945 
DC -0.093118 -0.312556 0.031677 -0.255536 -0.798268 -0.357273 -0.398138 0.692193 0.125631 0.242670 0.023370 -0.428648 -0.387087 0.368287 0.060002 0.410513 -0.467700 0.724266 -0.705831 0.090490 0.138646 -0.130199 -0.002894 -0.260714 0.370773 0.011816 -0.398370 -0.089557 -0.593062 0.699193 0.539868 -0.036882 -0.226206 0.426274 -0.078964 0.181946 0.016120 0.101227 0.752683 -0.096193 0.370727 -0.432052 -0.873744 0.283975 0.393067 0.403572 -0.733536 0.349828 -0.228381 0.163182 0.357881 -0.259933 -0.556568 -0.121863 0.578861 0.318019 0.236054 -0.253061 0.084931 -0.364407 0.346606 -0.401640 -0.410713 -0.028493 0.439601 0.552097 0.057904 0.027342 0.268843 -0.532723 -0.324704 0.365563 -0.446011 -0.779107 -0.538212 0.315435 -0.770745 0.284202 0.644615 -0.727915 0.655840 0.275758 -0.095501 -0.171600 0.176911 0.844427 -0.206930 1.008013 0.280038 0.115246 0.178836 0.074453 0.553191 -0.571068 0.147339 0.569161 0.065789 -0.095413 0.483871 -0.247772 
insurance -0.088857 -0.082836 -0.282134 0.292053 0.899417 -0.214258 0.309712 -0.350024 0.041480 0.812953 0.792454 0.638646 0.005302 -0.663906 0.398341 -0.243256 0.964764 -0.020545 0.257938 0.896661 -0.343982 -0.022655 -0.382829 0.340659 -0.143906 0.264962 0.434555 -0.538277 0.752072 -0.313817 0.288991 -0.273204 0.076935 -0.053151 0.403946 -0.622712 -0.214324 -0.400604 -0.399841 -0.229732 -0.755113 0.685713 0.059704 -0.534786 -0.218515 -0.368012 -0.364584 0.133338 -0.506082 -0.193807 -0.089745 0.060302 -0.662018 -0.184621 0.703137 -0.070563 0.484469 -0.452993 0.521957 -0.033592 -0.008878 0.261491 -0.248516 0.224965 -0.252387 -0.178001 0.025209 -0.203493 -0.222152 0.772699 0.771755 -0.109533 0.292491 -0.410110 -0.235928 0.087317 0.080958 -0.008382 -0.588687 -0.344186 -0.093246 0.001814 -0.384953 0.154855 -0.355185 -0.140795 0.814324 -0.486597 0.259192 -0.234521 -0.038174 -0.467111 -0.292086 -0.087330 -0.110914 0.517850 0.218348 0.579664 0.915397 -0.283284 
The -0.666860 -0.112468 0.263820 -0.479899 0.076596 -0.058024 -0.369001 0.401930 -0.166392 0.877839 0.461224 0.340404 -0.046982 0.051676 -0.272450 0.092103 0.040337 0.742998 -0.422956 0.227411 0.378711 0.083784 -0.258255 0.203450 0.428624 0.050719 -0.009858 -0.083315 -0.387146 0.335878 0.238883 -0.452703 -0.226036 0.132131 -0.438631 -0.325935 0.204955 0.477006 0.033406 0.005010 -0.046430 -0.156462 -0.189556 -0.202136 0.272397 0.071641 -0.023925 0.130311 -0.228737 -0.148396 -0.302434 -0.146897 -0.066771 0.475832 0.329800 -0.133906 0.108806 0.094351 0.229075 0.020075 0.715085 0.186766 -0.157330 0.235447 0.102891 0.021046 0.082824 -0.310119 0.140714 0.176519 0.034069 0.288597 0.001699 -0.254265 -0.034188 0.003011 -0.732342 0.126235 0.056751 -0.380570 0.082121 0.070891 0.081949 0.054823 -0.232030 -0.077542 -0.028404 0.049401 0.946336 -0.047372 0.687107 0.180254 -0.476721 -0.283570 -0.092693 0.479487 0.396550 -0.063895 0.521689 -0.507779 
days -0.612076 -0.195624 -0.005207 -0.715663 0.169347 -0.164977 0.468426 0.296021 0.462233 1.005678 0.779853 -0.170969 -0.032880 -0.038301 0.453728 -0.585234 0.299537 0.525227 0.379385 0.040116 -0.487792 0.102126 -0.222668 0.858231 0.213376 0.195829 0.056278 -1.168245 0.353266 0.355606 0.110747 -0.287384 0.217370 0.293708 -0.730809 -0.640063 -0.575193 -0.503972 -0.216547 0.046733 -0.505528 -0.018771 0.094024 -0.247578 -0.070470 -0.034082 -0.223141 -0.470188 -0.386605 0.085233 -0.332801 0.305193 -0.368163 -0.163572 0.558170 0.194692 0.968193 -0.232467 0.635543 0.331225 1.185217 0.070257 -0.205686 0.515126 -0.012307 -0.472149 0.228551 0.211518 0.257383 0.645106 0.532387 0.077091 0.349662 -0.817479 0.397915 -0.588217 -0.151005 0.179412 -0.805640 -0.710493 0.791466 -0.141998 0.345724 -0.043946 -0.121017 -0.349025 0.402790 -0.931698 0.024931 -0.814604 -0.020062 -0.646820 -0.164199 0.234589 0.300059 -0.401489 0.649571 -0.193325 1.704841 -0.464801 
not -0.027243 -0.202659 -0.257866 -0.311043 0.252992 0.125057 -0.365269 0.360402 -0.358859 0.736711 -0.094269 0.507061 -0.144394 0.041235 0.008943 0.343759 0.010692 0.458233 -0.235479 0.266814 0.030484 -0.060564 -0.246336 -0.074067 0.284833 -0.334041 -0.090121 0.287459 -0.158805 0.275976 0.227610 -0.166754 -0.191217 0.165170 -0.141893 -0.107903 0.519741 0.613034 0.106175 -0.081190 0.046188 -0.268672 0.014107 0.239974 0.151388 -0.217946 0.067090 0.478380 -0.156335 0.132182 -0.114237 -0.138030 0.138631 0.458317 0.051715 0.044140 -0.049889 0.070472 -0.271524 0.043289 0.034538 0.205161 -0.059192 0.341013 -0.155104 0.067124 0.073602 -0.153996 0.281326 0.155670 0.009971 -0.146952 0.138812 -0.275401 -0.007113 0.245403 -0.574100 0.245364 0.509870 -0.083524 0.108067 0.163005 -0.081072 -0.181230 0.041220 -0.066569 0.015147 0.176198 0.603653 0.106881 0.199797 0.483860 -0.198966 -0.124699 -0.085395 0.459370 0.317240 -0.296140 0.148126 -0.060312 
care 0.097507 -0.007640 0.124954 0.190379 0.129628 0.024016 -0.679562 -0.134251 -0.675903 0.302393 -0.307935 -0.035825 0.084765 0.034095 0.048346 0.393874 0.209412 0.325923 -0.373633 0.377620 0.844380 -0.231371 -0.233636 -0.205473 -0.115520 -0.198042 -0.432378 0.282770 -0.549200 0.034132 0.176404 0.128849 -0.202950 -0.308398 -0.205277 0.213194 0.075997 0.557673 0.078597 -0.202078 0.296734 -0.019224 -0.455394 0.352570 0.134250 0.179298 0.229479 0.190962 0.083869 -0.246135 -0.018654 -0.196975 -0.044759 0.776419 -0.007863 -0.268365 -0.131348 0.116374 0.005691 -0.274542 -0.594227 -0.028723 -0.117661 -0.103591 -0.330294 0.263877 -0.370330 -0.018382 0.300137 -0.312908 -0.298334 -0.025650 -0.176882 0.311387 -0.354527 0.085710 -0.237027 -0.353259 0.583248 0.153269 -0.358473 -0.053571 0.089798 0.079892 0.123291 0.276778 -0.169208 0.440604 0.338626 0.498135 0.409860 0.418883 -0.082821 -0.357423 -0.111611 0.519382 0.017237 0.106007 -0.684346 0.090233 
Planned 1.327062 0.193949 -0.519827 -0.038511 -0.414837 -0.260674 -0.145102 -0.076633 0.471621 -0.568655 -1.038613 -0.121234 0.191826 0.673338 0.369951 0.143839 -0.814270 -1.008663 0.180623 -0.619195 -0.901016 -0.843420 0.193425 0.252188 0.200830 -0.049524 -0.068029 -0.374142 1.009367 -0.114183 0.306874 0.625967 0.343146 0.778988 1.322287 0.019282 0.169772 -0.060476 0.654672 0.974124 0.341366 -0.060393 -0.961849 0.468838 0.125381 -0.391268 0.333346 -0.302730 0.387905 0.993218 0.398689 -0.424679 -0.014291 -1.152994 -0.001845 0.948069 0.005938 0.312157 -0.882668 -0.073219 0.275978 -0.050502 -0.162124 0.298349 -0.068782 -0.617451 0.138375 0.319848 -0.608065 0.718304 -0.263982 -0.667042 0.236770 -0.294382 0.395151 -0.000790 0.255804 0.130572 0.144343 0.577345 0.054128 -0.009230 -0.138717 -0.210664 -0.255997 -0.234704 0.571739 -0.169167 -0.585324 -0.045329 -0.751005 0.303573 0.166939 0.145991 0.150969 -0.121702 0.532468 -0.606338 -0.523850 0.612069 
Date: 1.052080 -0.159324 -0.558578 -0.538594 -0.456521 -0.184268 -0.315423 0.587974 -0.249720 0.321486 -0.825847 -0.027969 -0.030440 0.674331 0.680168 1.048711 -0.872001 -0.484884 -0.101507 -0.476598 -0.749843 -0.826522 -0.011166 -0.133727 0.162065 -0.413819 -0.652842 -0.386578 0.818684 0.487468 0.827683 0.233178 0.065971 1.377576 0.832102 0.130278 0.922552 0.260740 0.870209 0.525820 0.580348 -0.162332 -1.492248 0.610542 0.265979 -0.091661 0.270122 0.091012 0.200613 1.081301 0.157859 -0.233618 -0.233161 -0.636079 0.149861 0.924577 0.410171 0.637733 -1.030011 -0.000330 0.731809 -0.200630 -0.105499 0.545045 -0.425059 0.115389 0.018476 0.251034 0.069327 0.709485 -0.384751 -0.766704 0.368092 -0.663056 0.112748 0.341514 -0.172572 -0.102805 0.385404 0.456760 0.472623 -0.039959 -0.020190 -0.299078 -0.118804 0.083600 0.561068 -0.114314 -0.299392 0.288690 -0.506965 0.677318 0.082588 -0.001060 0.156498 0.286341 0.423418 -0.868546 -0.345449 0.241370 
Update 0.022423 0.113459 -0.024201 0.051826 0.093397 -0.124165 0.195867 0.096846 0.253762 -0.221461 0.123661 0.049342 0.410293 -0.141455 -0.019624 -0.292609 -0.249887 -0.351878 -0.002818 -0.145446 -0.271808 -0.142782 -0.213690 0.268816 0.036909 0.347621 0.090369 -0.087977 0.150431 -0.432738 0.343441 0.055282 0.459282 0.009790 0.466373 -0.399010 -0.205101 -0.136672 -0.355777 0.061720 -0.374438 0.056450 0.301148 -0.031946 -0.253519 -0.415839 0.170214 -0.436635 0.184164 0.155758 0.137720 0.129148 0.270320 -0.368864 -0.065300 0.366001 -0.207839 0.157095 0.184444 0.303737 0.224396 0.090576 -0.023743 0.236866 0.198227 -0.328958 -0.199849 0.074776 -0.388951 0.304233 0.063958 -0.117766 -0.013143 0.391336 0.393846 -0.067823 0.182877 -0.182706 0.168269 0.204030 -0.626098 -0.117552 -0.182871 0.247241 -0.015151 -0.359676 0.169459 -0.335935 0.092441 -0.228169 -0.166289 -0.134696 -0.291556 0.003724 -0.265182 -0.208993 -0.082724 0.153722 -0.232938 0.283113 
reviewer: 0.792993 -0.204323 -1.077203 0.907890 0.746550 -0.255474 -0.130111 0.086687 0.373886 -0.251250 0.069202 1.040027 -0.609447 -0.789674 0.321033 1.377431 0.311762 -0.386746 0.542770 0.980639 -0.500566 -0.203384 0.208635 -0.950969 -0.086404 -0.406049 -0.488575 0.828965 0.858925 -0.547431 0.547926 0.031607 0.220744 0.723331 1.200912 0.426795 0.538060 0.049936 0.476850 -0.607944 -0.302841 1.066175 -0.850061 0.373878 -0.211445 -0.494364 0.049562 0.915031 -0.440731 0.324334 0.816935 -0.045495 -0.640103 0.142801 0.326677 0.464515 0.518012 0.305770 -0.416521 -0.380606 -1.044710 -0.911554 -0.043897 0.089169 -0.758046 0.100171 -0.674776 -0.436474 0.106382 0.367150 -0.086013 -0.761663 -0.247961 -0.600095 -0.783643 1.243172 0.349031 -0.591612 0.830190 -0.180061 -0.428224 0.150655 -0.601534 -0.526843 0.651371 0.680734 0.491196 0.620866 -0.981667 0.352621 -0.011427 0.325622 0.082804 0.007636 -0.351435 0.526480 -0.832579 0.531305 -1.323955 0.014316 
authorized 0.230224 -0.265165 -0.349709 -0.493290 0.187402 -0.219200 -0.617605 0.269119 0.343587 0.762849 -0.518082 -0.123055 -0.604331 0.260033 0.273939 -0.134528 0.465366 0.702752 0.733725 -0.117580 -0.428987 -0.148920 0.370756 -0.023030 -0.505959 -0.300053 -0.404495 -0.811086 0.497030 0.850538 -0.599253 0.186157 -0.349814 0.254786 -0.727558 -0.041748 0.106177 -0.178071 0.552811 0.445330 0.188377 -0.335780 -1.079844 0.879245 0.247596 0.354514 0.207502 -0.194143 -1.408369 0.955697 -0.183587 0.362841 -0.472525 0.499751 0.520041 0.191251 0.880204 -0.241937 0.000227 -0.186730 0.636483 -0.106228 -0.204142 0.494757 -0.881436 -0.163067 -0.069902 0.778428 0.786872 0.292354 0.146279 -0.259186 0.523168 -1.485145 0.726640 -0.518400 0.084297 -0.161280 -0.169469 -0.319814 1.184605 -0.161561 0.376161 -0.324139 0.468704 -0.140234 0.276960 -0.820349 -0.756401 -0.389771 0.381748 -0.465219 0.440837 0.094333 0.836712 -0.617524 0.606447 -1.053413 0.968793 -0.573767 
to: 0.401572 0.096289 -1.113427 0.173791 -0.184779 -0.547176 -0.257936 0.516307 1.137866 0.084106 -0.311626 0.324959 -0.428962 -0.040408 0.545413 0.119609 -0.234536 0.055946 0.257506 -0.083732 -0.986061 -0.611049 0.260771 0.439092 0.395651 -0.051045 -0.352451 -0.554949 0.471909 0.268409 0.339560 0.132368 0.123092 0.626244 0.390478 -0.414115 -0.064392 0.168477 0.421291 0.155207 -0.138729 -0.066450 -1.014139 0.834311 -0.142693 -0.353143 -0.033415 0.331413 -0.860866 0.770141 0.147721 0.137848 -0.851152 0.168378 0.987003 0.888850 0.755495 -0.029385 0.014913 0.288095 0.650473 -0.236566 -0.264198 0.854870 -0.159327 -0.702453 -0.153661 0.494521 0.054700 0.507831 0.099574 -0.260410 0.338270 -1.657067 0.536092 0.153365 -0.096644 -0.239034 0.462641 -0.412597 0.416936 0.047587 -0.308378 -0.159944 0.292585 -0.252900 0.887010 -0.500226 -1.241706 -0.447348 -0.172293 -0.424296 0.086668 0.288592 0.467908 -0.299955 0.518321 -0.583998 0.485248 -0.096092 
Meeting: 0.681808 0.292832 0.154068 0.372404 0.267628 0.545004 -0.840693 -0.581409 -0.576826 -0.395209 -0.736115 0.166581 -0.083996 0.237086 -0.401607 0.329386 0.036610 -0.508975 0.121882 -0.194921 0.540338 -0.119778 0.708302 -1.066378 -0.629707 -0.072648 0.265078 0.384779 0.758918 -0.049480 -0.988277 0.456755 -0.245086 -0.256231 0.941487 0.799573 0.178683 -0.038737 0.303719 0.625654 0.614424 0.520040 -0.221773 0.047214 0.179012 0.199304 0.423564 0.024984 -0.027156 0.486940 -0.107558 0.069396 0.071166 -0.275850 -0.501792 -0.665913 -0.558830 0.516280 -0.780320 -0.644064 -0.627224 -0.045902 0.313204 -0.368168 -0.642231 0.212962 0.039430 -0.001812 -0.028783 -0.259505 -0.523193 -0.526534 0.460649 0.453317 -0.219753 -0.022933 0.582707 -0.142541 -0.127939 1.189310 -0.136797 -0.125819 0.095334 -0.018540 -0.375670 -0.367893 -0.300145 0.305291 -0.210311 0.822728 0.345469 0.484683 0.103669 0.125743 -0.005640 0.138458 -0.441393 -0.187697 -1.123345 -0.097354 
Referrals: -0.010514 0.026559 0.036812 0.055489 0.054007 0.017620 0.041189 -0.121753 -0.053900 -0.095286 -0.013545 0.031043 0.021061 -0.068868 -0.064163 -0.026561 0.090585 -0.060333 0.006069 0.029514 -0.016999 -0.005751 -0.032603 -0.020741 -0.120816 0.040093 0.064688 0.110671 0.010539 -0.117051 -0.020007 0.009526 -0.046339 -0.071758 0.047413 -0.028993 0.057687 -0.019284 -0.039811 -0.010130 -0.034867 0.038291 0.045653 -0.081417 -0.050522 -0.046066 0.013740 0.007047 -0.017372 -0.040874 0.014792 -0.042150 0.109213 0.011764 -0.047787 0.026582 -0.107854 -0.041424 0.031003 -0.050847 -0.147917 0.028757 0.025408 -0.045606 -0.021254 0.018177 0.016946 -0.020459 -0.074980 -0.008539 0.007772 -0.003103 -0.013175 0.130426 -0.006456 0.035911 0.023944 -0.031561 -0.052001 0.077500 -0.072293 0.005677 -0.104089 0.028885 -0.013442 0.043310 -0.017393 -0.007560 0.063006 0.045198 0.025516 -0.025020 -0.018715 -0.030750 -0.023743 0.049875 -0.054857 0.106186 -0.108786 0.035030 
Narrative 0.615784 -0.350578 -0.547307 0.690640 -0.117337 -0.027098 0.202841 0.268957 0.839827 -0.477607 -0.640262 -0.072117 -0.540440 0.043053 0.242369 0.615375 0.300174 -0.170643 1.015933 0.234510 -0.785764 0.122580 0.447648 -0.635592 -0.190085 -0.843486 -0.613274 0.593717 -0.015185 -0.228463 0.100275 0.185856 0.095483 0.533688 -0.229136 0.303915 0.442107 -0.295673 0.637389 -0.564023 0.115374 -0.092833 -0.723004 0.794242 0.353467 -0.085428 0.116151 0.239960 -0.603687 0.220396 0.526508 -0.052449 -0.090719 0.431358 -0.305042 0.499826 0.741259 -0.074766 -0.216774 -0.059368 -0.547478 -0.956563 -0.137743 0.090503 -0.421101 -0.114448 -0.917119 0.055084 0.360607 -0.121066 0.100428 -0.128750 -0.346861 -0.548889 -0.110357 0.315314 0.050845 -0.114362 0.333743 -0.774639 0.633669 0.164437 0.041690 -0.860516 1.039489 1.010248 -0.469158 0.159531 -1.042132 0.046119 -0.532125 0.020668 0.500410 0.232739 0.597746 -0.327650 -0.073209 -0.344405 -0.746454 0.135780 
Acute 0.852122 0.350696 -0.842378 0.506238 -0.523927 -0.209879 -0.960373 0.320267 0.196267 0.162545 -1.163778 0.539140 -0.447231 0.279558 0.637908 0.440015 -0.699643 -0.354457 -0.353462 -0.134750 0.009892 -0.820725 0.281086 -0.099568 0.215144 -0.816993 -0.576656 0.354853 -0.082315 0.592583 -0.095976 0.176177 -0.688944 -0.386821 0.184941 0.194385 0.343461 1.225447 0.554156 0.185044 0.370791 -0.611923 -0.897622 0.940310 0.280349 0.148992 0.314282 0.625979 0.131742 0.210308 0.152032 -0.546609 -0.527338 0.492642 0.176078 0.102790 -0.046475 -0.112757 -0.531315 -0.158440 -0.004051 0.390520 -0.356561 0.492231 -0.319711 -0.344764 -0.029510 0.117291 -0.081367 0.207024 -0.126312 -0.094915 0.331464 -0.857029 -0.279740 0.000300 -0.647739 -0.087181 0.911680 0.277561 0.084933 0.494318 -0.221275 0.159784 -0.089196 0.009149 0.535200 0.305188 -0.952510 0.568736 -0.214297 0.457478 0.382883 0.246644 0.467204 0.131190 0.386891 -0.244953 -0.417689 0.066207 
Barrier(s) 0.743841 0.387736 -0.016229 0.802619 0.155056 -0.028297 -0.619400 -0.816473 -0.708888 -0.818206 -1.223103 0.558106 0.012895 -0.185939 -0.537681 0.108623 0.543449 -0.598034 -0.332592 0.105536 -0.036288 -0.455385 0.025967 -0.436373 -1.028652 -0.090888 0.356686 1.049998 0.030150 -0.476490 -0.409383 0.153831 -0.818320 -0.898155 0.696601 -0.010927 0.851325 0.420262 0.169407 0.217634 0.294580 -0.255073 -0.589585 0.003807 -0.174279 -0.419392 0.297955 0.505746 -0.554002 -0.003252 0.074469 -0.405777 0.558456 0.250704 -0.087756 0.179678 -1.176977 -0.464323 -0.467128 -0.579440 -1.457595 0.551078 0.093650 -0.503574 -0.402663 0.543954 0.116639 0.166082 -0.537653 -0.225669 0.112603 0.040257 0.212026 0.621601 -0.100269 0.408184 0.094451 -0.436285 0.356308 1.119852 -0.562379 0.275307 -0.973189 0.433663 -0.091251 0.270143 0.158676 0.234133 0.369344 0.823799 0.171458 0.106593 0.117070 -0.319068 0.200765 0.596865 -0.219127 0.513596 -1.152584 0.474815 
she -0.052687 -0.329560 0.146789 -0.335708 0.179407 -0.053534 -0.120628 0.045880 -0.407327 0.553921 0.036018 0.009415 -0.006148 0.150980 0.175573 0.324818 0.055584 0.393813 -0.284684 0.284355 -0.031373 -0.205402 -0.353365 0.257727 0.130824 -0.189716 -0.216133 -0.108635 -0.043568 0.009719 0.652883 -0.061416 0.005262 0.432594 -0.099308 -0.347083 0.415094 0.298817 0.182516 0.043117 0.072441 -0.106260 -0.543470 0.082367 0.132200 0.082376 0.095403 0.076738 -0.062637 0.074930 -0.063654 -0.284748 -0.061076 0.371254 0.199044 0.468094 0.530554 -0.001495 -0.059710 0.075199 0.263555 0.064111 -0.342702 0.148597 -0.134525 -0.087607 -0.088844 -0.148832 0.082090 0.435980 0.042853 -0.131248 -0.076844 -0.066282 0.044488 0.054171 -0.446889 0.087182 0.017582 -0.299723 0.091236 0.072005 0.073719 -0.060559 -0.076904 0.300886 0.147348 -0.026929 0.459359 0.033814 -0.014687 0.103901 -0.262863 -0.363395 -0.073942 0.562527 0.550892 -0.221824 0.201326 -0.095550 
by 0.068229 -0.318180 -0.423361 0.034360 0.245027 0.214352 -0.304385 0.324329 -0.407149 0.387163 -0.105921 0.399909 -0.251583 -0.004645 0.212175 0.503090 0.161427 0.269266 -0.276424 0.197627 -0.505325 -0.083051 -0.042744 -0.087104 0.075060 -0.277768 0.105862 0.147818 0.129625 0.179538 0.357668 -0.213186 -0.184939 -0.005835 -0.002467 -0.033082 0.331386 0.100763 0.074127 -0.209186 0.042612 -0.148093 -0.036924 0.087275 0.032280 -0.242104 -0.315236 0.576808 -0.505297 0.139065 -0.136876 -0.012540 -0.183580 0.186162 0.320466 0.447346 0.283738 -0.280076 -0.411847 0.005182 -0.337368 0.050875 -0.200813 -0.026694 -0.143988 0.380250 0.025757 -0.088414 0.334139 0.061510 0.356444 -0.005264 0.017383 -0.440843 -0.110557 0.497701 -0.190173 0.133457 0.388766 -0.152446 0.405798 0.235210 -0.294603 -0.140456 0.073286 0.275823 0.274116 0.290384 0.162838 0.113191 -0.297418 0.101101 0.120693 -0.210610 0.203600 0.238937 -0.010063 -0.078594 0.206774 0.145221 
his 0.345687 -0.059526 0.097673 0.142002 -0.161492 -0.186415 0.046866 0.140500 0.233152 0.452575 0.064487 0.320715 -0.426494 0.056138 0.015072 0.146323 0.298477 0.299999 -0.273343 0.614384 -0.086310 -0.321736 -0.546245 0.276423 0.745924 -0.332938 -0.009553 0.390353 -0.333558 -0.323016 0.345641 -0.350978 -0.229922 0.326712 -0.017188 -0.160846 0.276439 0.457450 0.526268 -0.095840 -0.037302 -0.258133 -0.643566 -0.186117 0.321893 -0.126728 -0.165836 0.353974 0.217462 -0.307050 -0.084306 -0.822422 0.010977 -0.092378 -0.122849 0.383877 0.214823 -0.246378 0.037953 -0.372891 0.242817 -0.426377 -0.169479 0.500091 0.178523 -0.170326 -0.015062 -0.482455 -0.516235 0.309967 0.087786 0.402748 -0.354673 0.044791 -0.341887 0.235133 -0.864752 0.252709 -0.182485 -0.736849 0.178555 0.502773 -0.360549 -0.314774 0.029128 0.636099 -0.284783 0.107082 0.924745 0.501997 0.271053 0.306432 -0.312116 -0.070195 0.062924 0.599890 0.526404 0.222416 0.140455 -0.125441 
lives -0.145999 -0.362875 1.169738 -0.197065 0.166375 0.176318 -0.047057 0.277279 0.152158 0.348707 0.044064 -0.510271 0.076276 0.147912 -0.282540 -0.099627 0.339379 0.317282 0.037997 0.672392 0.334022 -0.188811 -0.320077 0.015157 0.225854 -0.097447 -0.315378 0.341362 -0.620927 -0.909029 0.325719 0.038593 0.402942 0.107793 -0.345010 -0.356700 -0.188665 0.183470 0.269891 -0.217118 -0.094843 -0.066606 -0.468623 -0.002410 0.045315 0.046859 0.497583 -0.791900 0.146290 -0.163289 -0.151737 -0.239758 0.467273 0.348688 -0.753115 0.432523 0.584168 0.387468 0.419632 0.219559 0.527319 -0.606135 -0.370709 0.326962 -0.061692 -0.400083 -0.892872 -0.255578 -0.365668 0.291861 -0.114972 0.269123 -0.250130 0.945880 0.435054 -0.358296 -0.473541 -0.237973 -0.341260 -0.425509 -0.420472 0.084562 0.206387 0.087160 0.299079 0.398032 -0.969167 -0.339237 0.450113 0.668424 0.292019 -0.052982 -0.612519 -0.279595 -0.179723 0.312373 0.733130 -0.321274 -0.553786 -0.223748 
as 0.305199 -0.016845 0.253932 -0.017811 0.261266 0.142553 -0.299048 0.224164 -0.357057 1.046845 -0.433067 0.330532 0.425060 0.279935 0.146975 -0.410737 0.332992 0.053353 -0.152042 0.364282 0.104000 -0.212222 -0.421470 0.240052 -0.077632 -0.414002 0.039288 -0.109844 -0.240926 0.115707 0.014292 -0.211662 -0.196145 -0.435629 -0.622589 -0.390314 0.154408 0.333804 0.009964 0.017258 -0.123422 -0.688825 -0.127820 0.013930 0.335169 -0.314464 0.215983 -0.241926 -0.131104 -0.174023 -0.374381 -0.118284 0.188437 0.196564 -0.054583 -0.143080 -0.148344 -0.209087 0.090209 0.102947 0.247459 0.514137 -0.407691 0.229181 -0.257280 0.301689 -0.207263 -0.051395 0.130211 0.368665 0.568411 0.206459 0.534398 0.113964 -0.043485 -0.507583 -0.885948 0.184649 -0.049159 0.101356 0.307158 0.282726 0.266735 0.008399 -0.156963 0.006421 -0.182823 -0.226786 1.251404 0.378622 -0.167188 0.322671 -0.382580 -0.036261 0.288054 0.256673 0.728365 -0.139067 0.535303 -0.039124 
or 0.043284 0.017070 0.310448 0.042452 0.357911 -0.164065 -0.147724 0.003227 -0.014430 0.482521 -0.326072 0.307936 -0.031129 -0.241234 -0.097931 -0.083541 0.539817 0.064037 0.269498 0.628345 0.198487 0.003649 -0.168860 -0.378561 -0.319978 -0.364183 -0.243931 0.304038 -0.052117 0.000868 -0.241086 -0.051879 -0.276681 0.071187 -0.289144 -0.118946 0.649876 0.266138 0.162744 -0.200360 -0.131142 -0.174651 -0.378538 -0.110632 0.062805 0.208203 0.140945 0.021758 -0.184900 -0.115388 -0.048645 0.019269 -0.063461 0.336493 -0.001304 -0.400040 -0.095132 -0.151172 0.355514 -0.140794 -0.104430 0.124026 -0.063499 -0.066941 -0.347448 0.514074 -0.104973 -0.136859 0.340338 0.064979 0.105316 0.087872 0.244644 -0.242986 -0.250539 -0.134967 -0.427833 -0.030294 -0.165873 -0.086287 0.023545 0.040886 0.120152 -0.009629 0.041673 0.221183 -0.241562 -0.172057 0.354424 0.457040 0.358844 0.107326 -0.148747 -0.184617 0.004685 0.422083 0.233060 0.137188 0.305059 -0.349172 
Mr. 0.011721 0.060070 0.147674 -0.172933 -0.198741 -0.462897 -0.345806 0.206428 0.331870 0.371698 -0.065424 0.274757 -0.373070 -0.081284 -0.021593 0.044966 -0.209443 0.060183 -0.464081 0.297771 0.153382 -0.356856 -0.220198 -0.146551 0.396734 -0.067813 0.036038 0.025341 0.170192 0.338217 -0.236544 -0.166982 -0.352244 0.168123 0.682065 -0.200556 0.404293 0.359666 0.417364 0.230852 0.079526 -0.112751 -0.840354 -0.062871 0.224238 0.207521 -0.228802 0.355985 0.219196 0.021448 0.315089 -0.493867 -0.514518 -0.398566 0.420932 -0.160382 -0.121342 -0.165924 0.064938 -0.207432 0.530999 0.112882 -0.058486 0.202385 0.184610 0.084292 0.327607 -0.108918 -0.294510 0.267996 -0.050713 0.243293 0.007367 -0.448905 -0.275936 0.135773 -0.461775 0.214760 0.115036 -0.098789 -0.243450 0.325991 -0.530409 0.228728 -0.332092 0.125367 0.268281 0.259988 0.200880 0.309704 0.420250 0.068225 0.011268 -0.246292 -0.126672 0.706149 0.283593 0.252876 0.382234 -0.293871 
