364 100
</s> 0.004003 0.004419 -0.003830 -0.003278 0.001367 0.003021 0.000941 0.000211 -0.003604 0.002218 -0.004356 0.001250 -0.000751 -0.000957 -0.003316 -0.001882 0.002579 0.003025 0.002969 0.001597 0.001545 -0.003803 -0.004096 0.004970 0.003801 0.003090 -0.000604 0.004016 -0.000495 0.000735 -0.000149 -0.002983 0.001312 -0.001337 -0.003825 0.004754 0.004379 -0.001095 -0.000226 0.000509 -0.003638 -0.004007 0.004555 0.000063 -0.002582 -0.003042 -0.003076 0.001697 0.000201 0.001331 -0.004214 -0.003808 -0.000130 0.001144 0.002550 -0.003170 0.004080 0.000927 0.001120 -0.000608 0.002986 -0.002288 -0.002097 0.002158 -0.000753 0.001031 0.001805 -0.004089 -0.001983 0.002914 0.004232 0.003932 -0.003047 -0.002108 -0.000909 0.002001 -0.003788 0.002998 0.002788 -0.001599 -0.001552 -0.002238 0.004229 0.003912 -0.001180 0.004215 0.004820 0.001815 0.004983 -0.003111 -0.001532 -0.002107 -0.002907 0.002815 0.001579 0.000425 -0.002194 0.001524 0.003059 0.000194 
to 0.037428 0.026831 0.001692 -0.282829 -0.035704 0.017124 -0.253698 -0.209009 -0.203104 0.252948 0.076580 0.218136 -0.437744 -0.175894 -0.215521 0.214132 0.266644 0.326914 -0.207226 0.313171 -0.040627 -0.097147 -0.096352 0.066705 0.200670 -0.065982 0.124842 0.087249 -0.070552 0.165322 0.008030 -0.155948 -0.437579 -0.037133 -0.157123 0.017239 0.094486 0.158732 -0.046573 -0.084352 -0.036783 0.163398 -0.141848 -0.185921 0.134076 0.114537 -0.225346 0.492270 -0.209746 -0.001376 -0.223830 -0.320469 -0.011977 0.050349 -0.053621 0.027972 0.002668 -0.207032 -0.152907 -0.280400 -0.109770 -0.068138 -0.130601 0.086415 0.056306 0.034926 0.388725 -0.013335 0.046060 0.065269 0.156772 0.024541 0.159596 -0.258336 -0.039376 0.241187 -0.241928 0.238341 -0.040222 -0.358972 0.173269 0.153736 -0.234660 -0.117131 -0.020487 0.101724 -0.033575 0.003140 0.489415 -0.088019 0.318899 -0.003883 0.043982 -0.126520 0.151283 0.398823 0.084906 0.007182 0.089079 -0.101407 
the 0.066007 -0.137314 0.088386 -0.505347 0.067386 0.049227 -0.351900 -0.107944 -0.376549 0.452797 0.053144 0.297458 -0.310068 -0.138049 -0.236049 0.385821 0.269418 0.369691 -0.245994 0.462448 -0.019318 -0.125211 -0.127022 0.002217 0.231127 -0.146370 -0.079762 0.178792 -0.143420 0.284141 0.235610 -0.214310 -0.480289 0.056617 -0.346791 -0.106427 0.404714 0.352141 -0.130695 -0.278039 0.014619 0.010994 -0.271801 -0.058069 0.147400 0.151238 -0.130296 0.501279 -0.017559 -0.056112 -0.281065 -0.242166 -0.084387 0.240434 -0.108621 -0.069327 -0.069161 -0.093395 -0.152982 0.000593 -0.047054 0.116947 -0.270316 0.031484 -0.075523 0.137773 0.222637 -0.005523 0.317556 0.107881 0.143529 -0.040343 0.296851 -0.284292 0.012225 0.254736 -0.323750 0.211403 0.039898 -0.431152 0.044043 0.036514 0.082966 -0.112230 0.002580 0.183418 -0.028214 0.043979 0.632176 -0.046029 0.313031 0.129273 -0.030577 -0.289572 0.089001 0.545666 0.155339 -0.072487 0.106394 -0.045224 
/ -0.050538 -0.060137 -0.123191 0.614631 0.407018 0.045536 0.267395 -0.224405 0.839716 0.119696 -0.174601 0.618205 -0.549809 -0.340232 0.017352 -0.125677 0.791353 -0.361114 1.127829 0.191589 -0.259621 0.283387 0.322918 -0.296126 -0.071288 -0.438734 0.134945 0.073615 0.482700 -0.296536 -0.754530 0.099609 -0.088006 0.254514 0.284778 0.390792 -0.119897 -0.255967 0.458473 0.268999 -0.277689 0.370010 0.084250 -0.159828 0.295369 -0.010830 0.222206 -0.081249 -0.179818 0.160252 0.330615 -0.238329 -0.044142 -0.206404 0.004313 -0.310945 0.383390 0.131483 0.039337 -0.377866 0.049952 -0.810629 0.319094 0.278321 -0.397332 -0.212113 -0.053642 -0.259398 -0.201434 0.215667 -0.043203 0.131401 0.138687 -0.347986 -0.476623 -0.249250 0.016976 0.135093 -0.633952 -0.169348 0.385395 0.087434 -0.227483 -0.449008 0.471903 0.320720 -0.209970 -0.249854 -0.484672 0.017531 -0.140043 0.042489 -0.156184 0.762756 0.082287 -0.187932 -0.255794 0.111306 -0.002724 -0.497023 
with 0.052544 -0.042014 0.135984 -0.266024 0.152780 0.156011 -0.125290 0.068069 -0.203623 0.187434 0.099778 0.323663 -0.045877 0.081168 -0.335593 0.378313 0.121637 0.119833 -0.034539 0.219072 0.083052 0.070223 0.066517 -0.174537 0.291785 -0.235204 -0.043165 0.161138 0.040450 0.057719 0.142148 -0.292069 -0.165336 0.251996 -0.253352 -0.042494 0.296918 0.287502 0.053040 -0.234986 -0.024374 -0.070225 -0.097176 -0.125467 0.175345 0.032562 0.267799 0.160073 0.152126 -0.004745 -0.375538 -0.033605 0.059581 0.202363 -0.306182 -0.277743 -0.180475 0.320201 -0.213678 0.100650 0.010833 -0.054492 0.054662 -0.208197 -0.106523 -0.008226 0.081578 -0.220750 0.239016 0.014165 -0.062375 -0.113320 0.320286 -0.024136 -0.055729 0.108542 -0.158806 0.067991 -0.048502 -0.175270 -0.030763 -0.149073 0.297903 -0.309344 -0.055465 0.014837 -0.154830 -0.022503 0.469013 -0.027713 0.128044 0.255821 -0.302839 -0.050686 0.017455 0.294156 0.118950 -0.140865 -0.064930 -0.008314 
and 0.047217 -0.264930 0.088438 -0.520987 0.133640 0.084211 -0.304322 0.005702 -0.422928 0.400188 0.079980 0.186751 -0.215157 -0.013875 -0.130748 0.474861 0.157889 0.338640 -0.204526 0.356642 -0.007399 -0.124267 -0.125564 -0.047233 0.105972 -0.097403 -0.176419 0.105379 -0.041558 0.220402 0.331770 -0.152265 -0.335915 0.202775 -0.369792 -0.103604 0.390777 0.272187 -0.105521 -0.296356 0.051655 -0.021169 -0.289561 0.013411 0.060267 0.177597 -0.060757 0.312586 -0.035722 -0.042675 -0.293066 -0.078136 -0.071494 0.297465 -0.115882 0.044625 0.045193 0.016463 -0.138298 0.091020 -0.037580 0.085769 -0.286703 -0.063172 -0.186644 0.127195 0.037404 0.049149 0.431878 0.133441 0.076884 -0.154265 0.195869 -0.159743 0.041417 0.251969 -0.280023 0.080374 0.065115 -0.368393 0.061809 -0.069003 0.220604 -0.195065 -0.009698 0.253719 -0.013594 0.059694 0.520017 -0.029640 0.210289 0.132795 -0.052366 -0.309601 0.103114 0.502559 0.176657 -0.114330 0.045288 0.003605 
xxhosp -0.060331 -0.009450 0.117535 -0.119055 0.055346 -0.143660 -0.204671 -0.157092 -0.020923 0.246377 -0.022675 0.225789 -0.152593 -0.164583 -0.146963 -0.084256 0.299401 0.256837 -0.076508 0.380851 0.130493 -0.140673 -0.148811 0.104916 0.051763 -0.000728 -0.077217 0.244833 -0.290203 0.073641 -0.018352 -0.072582 -0.270104 -0.234015 -0.219971 -0.116366 0.086687 0.292929 -0.097937 -0.138269 -0.127841 -0.022644 -0.167712 -0.028362 0.052784 0.133673 -0.104410 0.193040 -0.018133 -0.167504 -0.087053 -0.205041 -0.161321 0.262128 0.018099 -0.156150 -0.107241 -0.213852 0.188821 0.004962 -0.096462 0.242439 -0.175500 0.007589 -0.049938 0.106494 0.055346 -0.002342 0.148984 -0.006364 0.135681 0.141611 0.108047 -0.238686 -0.052938 -0.031882 -0.288749 -0.009771 0.078012 -0.324741 -0.120367 0.016744 -0.087727 0.172217 0.005942 0.148843 0.019510 -0.008999 0.268338 0.015109 0.377794 -0.079895 -0.068139 -0.218108 0.051239 0.317447 0.110595 0.148387 0.101823 -0.098226 
Home -0.103679 -0.126991 -0.000323 0.355782 0.170435 0.145452 -0.058122 -0.417926 0.124444 -0.060362 -0.036623 0.099236 -0.376554 -0.055300 0.144681 0.003968 0.488775 0.045046 0.474449 0.021007 0.103771 0.214888 0.129248 -0.025306 -0.176958 -0.068338 0.089167 0.166630 0.068841 -0.148548 -0.549889 0.237052 -0.156715 -0.136808 -0.079005 0.451956 -0.326411 -0.097281 0.251236 0.182257 -0.032041 0.277637 0.262591 -0.045468 0.137735 0.241772 -0.121914 0.044113 -0.158367 -0.095473 0.097925 -0.225321 -0.200175 0.082195 -0.099414 -0.117779 0.239970 -0.174728 -0.020466 -0.329572 -0.353530 -0.345299 0.121654 0.084674 -0.241780 -0.100794 0.026764 -0.014304 -0.014080 -0.136311 0.015233 0.124176 -0.378972 0.036773 -0.387726 -0.108613 -0.028272 0.083639 -0.311612 -0.260084 0.271793 0.090148 -0.082387 -0.287353 0.266503 0.367810 -0.155585 0.158795 -0.263277 0.108621 0.166879 0.091450 0.191868 0.260252 0.109701 -0.056820 -0.190561 0.097909 -0.087418 -0.091923 
Insurance 0.376450 0.039656 0.258222 -0.104231 -0.034809 -0.000269 -0.043487 -0.516556 -0.286538 0.260082 -0.523441 -0.065410 -0.029455 0.283661 0.476956 -0.124704 0.169201 -0.433649 0.154906 -0.028480 -0.016706 -0.325363 0.047265 0.133592 -0.227038 -0.121475 0.296315 -0.201349 0.484768 -0.043933 -0.328028 0.385573 -0.135074 -0.054248 0.319978 0.173292 0.026874 -0.050506 0.162069 0.612093 0.219148 -0.048566 -0.144307 -0.205664 0.115709 0.143392 -0.078189 -0.107962 0.417637 -0.085648 0.108827 -0.482101 -0.077085 -0.496972 -0.019887 0.003546 0.160683 -0.231531 -0.368078 -0.126894 0.018655 0.161180 -0.305621 -0.004350 -0.089606 0.006393 0.426061 -0.041023 -0.352247 0.343840 0.132425 -0.055725 0.186599 0.174869 -0.354216 -0.299035 -0.027263 0.296106 -0.480593 0.333880 0.251207 0.026915 0.114902 0.178368 -0.225980 0.063004 0.154424 0.163153 -0.001258 0.395038 -0.348698 0.072218 0.229331 0.065642 0.046703 0.235173 0.141581 0.195390 0.113361 0.081545 
Primary 0.075463 -0.104509 -0.097040 0.114373 0.251126 -0.134630 -0.196262 -0.085555 0.479077 0.298973 -0.166432 0.535120 -0.663551 -0.382077 -0.108549 0.183415 0.526287 -0.173352 0.554499 0.354022 -0.253950 0.148918 0.317452 -0.420658 -0.094475 -0.418269 -0.026954 0.006043 0.384766 0.266681 -0.465446 -0.061994 -0.491698 0.200959 0.142059 0.337397 0.058195 0.080631 0.291625 -0.068593 -0.107183 0.244146 -0.334457 -0.206981 0.282721 0.245917 -0.069734 0.272001 -0.169539 0.205996 0.311079 -0.232821 -0.554914 -0.199173 0.206321 -0.180984 0.391786 -0.021801 -0.154063 -0.254440 0.160892 -0.559522 0.105457 0.138054 -0.563285 0.138695 0.203550 -0.036896 0.114534 0.262971 0.215602 -0.029264 0.382591 -0.825743 -0.616503 0.034067 0.037869 0.158435 -0.495655 -0.376193 0.429211 0.056042 0.020475 -0.315199 0.231534 0.374841 -0.077372 -0.007086 -0.351873 0.098776 0.201801 0.004913 0.138695 0.395698 0.012292 0.307102 -0.314398 0.122015 0.183198 -0.607377 
at 0.027165 -0.312830 0.106332 -0.479143 0.065821 0.046128 -0.419609 -0.113023 -0.374473 0.411986 -0.059961 0.249474 -0.348621 -0.038483 -0.103112 0.440965 0.245748 0.350695 -0.049210 0.396220 0.197813 -0.159653 -0.058578 -0.182927 -0.076927 -0.086802 -0.276241 0.252283 -0.121876 0.306679 0.205858 -0.035992 -0.479232 0.134155 -0.368172 0.117755 0.360247 0.358041 -0.017922 -0.228167 0.099083 -0.004143 -0.458552 0.031232 0.149304 0.351397 -0.126350 0.253089 0.041415 -0.104552 -0.217805 -0.203186 -0.199810 0.372335 -0.164714 -0.099609 0.023916 0.054314 -0.070903 -0.044411 -0.081464 0.002942 -0.268171 -0.048074 -0.447951 0.257674 -0.040347 0.109659 0.521845 -0.013522 -0.042434 -0.100291 0.247113 -0.235614 -0.282275 0.141157 -0.416772 0.025197 -0.053713 -0.397879 0.153774 -0.112126 0.258415 -0.182278 0.086444 0.457456 -0.082181 0.161262 0.454360 0.079220 0.363119 0.201977 0.011189 -0.297359 0.124878 0.691455 0.207840 -0.008468 -0.063157 -0.129417 
is 0.094348 -0.292021 0.027281 -0.747759 -0.122439 -0.040549 -0.335042 0.010007 -0.423580 0.344425 0.120269 0.090829 -0.478049 -0.117620 -0.123780 0.709296 0.016126 0.440671 -0.289021 0.406402 0.055085 -0.197348 -0.242915 -0.071155 0.176867 -0.061187 -0.262094 0.121570 -0.152297 0.323452 0.490045 -0.128157 -0.551045 0.436353 -0.267208 0.115879 0.450651 0.356008 -0.055512 -0.325734 0.187101 0.208560 -0.642664 -0.080282 0.138239 0.318813 -0.270817 0.515004 0.087161 -0.067343 -0.149773 -0.318614 -0.067473 0.142725 -0.189212 0.205301 0.212586 0.023228 -0.223418 -0.132309 -0.003039 -0.137186 -0.282902 -0.015963 -0.216406 0.221891 0.136981 0.047590 0.399155 0.064372 -0.002276 -0.161278 0.059902 -0.298729 -0.214000 0.482044 -0.394650 0.117518 0.028926 -0.640989 0.118651 -0.000726 0.048006 -0.267560 0.034728 0.528967 -0.060446 0.128410 0.562008 -0.054150 0.384442 0.154203 0.082596 -0.348837 0.100892 0.811269 0.228824 -0.051160 -0.124544 -0.070177 
of -0.062641 -0.429654 0.307751 -0.431541 0.249726 -0.098251 -0.228387 -0.100218 -0.181229 0.419429 -0.217177 0.346721 -0.326902 -0.212060 -0.198146 0.140223 0.548330 0.067294 0.380573 0.269549 -0.041899 0.012606 -0.032358 -0.147467 -0.448408 -0.179945 -0.196861 0.386105 0.010024 0.203067 -0.041426 -0.078682 -0.438473 0.002074 -0.419310 -0.129090 0.595369 -0.120527 -0.125821 0.028457 0.009076 -0.034100 -0.572876 -0.114246 0.047503 0.293584 0.125454 -0.077996 -0.256002 -0.215012 -0.056439 -0.064259 0.161479 0.390260 0.100630 -0.157065 0.073334 -0.118796 0.088129 0.010454 -0.019460 0.017055 -0.267098 -0.253772 -0.444359 0.491256 -0.173207 0.218377 0.618388 0.083223 -0.013516 0.181037 0.238025 -0.078969 -0.077168 -0.131099 -0.285183 -0.229903 -0.096135 -0.080286 0.222566 -0.155038 0.057550 -0.095550 0.170101 0.722427 0.029033 0.004870 0.542149 -0.006366 0.058753 -0.007043 -0.194830 -0.149532 0.275652 0.371735 0.071288 0.229034 -0.116116 -0.262313 
for 0.064302 -0.163260 -0.042124 -0.824154 -0.294600 -0.119108 -0.526527 0.262950 -0.479209 0.289036 0.014485 0.008299 -0.268651 -0.020873 -0.278587 0.558042 -0.366734 0.424490 -0.619247 0.119626 0.011911 -0.162134 -0.132678 -0.276503 0.018079 0.060714 -0.263812 -0.106206 -0.074983 0.652304 0.623947 -0.126094 -0.455006 0.380683 -0.162962 -0.129321 0.494509 0.212784 -0.207497 -0.307583 0.227249 -0.077679 -0.627487 -0.016841 0.089715 0.299073 -0.342946 0.375260 -0.152361 0.155009 -0.192094 0.019030 -0.085383 0.031852 0.052930 0.232077 -0.030773 0.028945 -0.193199 -0.079385 0.264223 0.133243 -0.318710 -0.045431 -0.049149 0.362169 0.134982 0.236170 0.517389 0.029100 -0.016386 -0.229223 0.337542 -0.433470 0.002659 0.501785 -0.301666 0.120289 0.236393 -0.311829 0.192431 -0.041602 0.165985 -0.079263 -0.199247 0.217627 0.049675 0.137382 0.612300 -0.180749 0.236857 0.014800 0.169696 -0.515408 0.124197 0.617043 0.142154 -0.151297 0.056911 -0.084622 
Care -0.254003 -0.384391 0.153652 -0.104305 0.175286 -0.089945 -0.157343 0.177260 -0.279394 -0.360771 0.055894 -0.477636 0.207730 0.114298 -0.082743 0.122279 -0.184830 0.014686 0.194403 -0.604436 0.212316 0.305525 0.108636 -0.309455 -0.565963 0.228320 -0.334618 -0.087730 -0.109708 0.209678 -0.113014 0.136809 -0.058542 0.086436 -0.370563 0.179560 0.118567 -0.208086 0.002430 -0.127216 0.233234 -0.096941 -0.197438 0.090203 -0.214242 0.401182 0.076609 -0.595535 -0.175528 -0.065585 -0.126247 0.574277 -0.175504 0.217537 0.020626 -0.137342 0.002870 0.162394 0.214942 0.161739 -0.005928 -0.018512 0.380575 -0.421702 -0.522934 0.568905 -0.389875 0.423006 0.669798 -0.422949 -0.246984 0.069549 -0.233954 0.049361 -0.160181 -0.110996 0.228686 -0.518042 -0.174374 0.179990 0.058548 -0.442699 0.372261 -0.174114 0.137359 0.436792 -0.015192 0.016190 -0.198582 0.144643 0.250469 0.099120 0.111824 -0.008087 0.023279 -0.103436 -0.225177 0.004980 -0.122778 -0.089360 
will -0.014539 -0.332662 0.029119 -0.730226 -0.094685 0.046251 -0.396234 0.203263 -0.668707 0.388178 0.180538 0.228464 -0.034787 -0.006747 -0.285308 0.643792 -0.267121 0.345827 -0.444758 0.192551 0.123149 0.038118 -0.143057 -0.367710 0.048563 -0.002502 -0.275650 0.133013 -0.041500 0.530543 0.623973 -0.219046 -0.298371 0.294037 -0.363778 -0.083525 0.562624 0.215662 -0.243665 -0.510117 0.101633 -0.061095 -0.234825 -0.151106 0.106840 0.283249 -0.235313 0.297705 0.152823 -0.109763 -0.250922 0.145448 -0.101102 0.128834 -0.167384 -0.175080 -0.204737 0.208555 -0.202768 0.074150 0.031212 0.223326 -0.236755 -0.272710 0.007552 0.560165 0.022094 0.049041 0.651977 -0.076818 -0.009082 -0.190097 0.303127 -0.051060 -0.217026 0.426254 -0.255949 0.121092 0.190775 -0.277281 -0.012134 -0.183115 0.417293 -0.149902 -0.183731 0.196818 -0.050317 0.366977 0.879945 -0.137062 0.105111 0.223198 0.002798 -0.477558 -0.056299 0.660541 -0.063498 0.021595 0.041940 0.091851 
in -0.019650 -0.426828 0.201538 -0.614216 0.114084 -0.011059 -0.025358 0.206480 -0.158425 0.400114 0.041172 0.385140 -0.350855 -0.354445 -0.320712 0.354145 0.276299 0.210374 0.146876 0.460197 -0.108853 -0.054554 -0.187486 -0.170886 -0.080878 -0.157072 -0.262089 0.467937 -0.173643 0.024438 0.407029 -0.236255 -0.340371 0.310979 -0.326343 -0.154610 0.875556 0.095352 -0.182350 -0.210473 0.048439 0.036972 -0.587619 -0.142693 0.004451 0.122112 0.169030 0.135316 -0.047030 -0.187204 -0.156455 -0.069220 0.514216 0.310385 -0.220501 0.018639 0.117636 0.122990 0.091013 0.055905 0.032159 -0.140928 -0.213160 -0.150142 -0.283633 0.424554 -0.238403 -0.044583 0.497086 0.122607 -0.183693 0.066148 0.282616 0.037761 0.020078 0.219991 -0.391522 -0.118212 -0.024247 -0.171048 -0.028568 -0.081043 -0.070741 -0.094105 0.209959 0.600212 -0.154309 -0.113102 0.740957 -0.080189 0.015023 0.055336 -0.413922 -0.168707 0.073722 0.514158 0.206395 0.065886 -0.300095 -0.215813 
patient 0.118038 -0.306393 0.079680 -0.538108 0.112142 0.025500 -0.222896 0.030596 -0.281341 0.532687 0.046894 0.297377 -0.326664 -0.138665 -0.025232 0.490820 0.246943 0.339542 -0.085772 0.615748 -0.075028 -0.193479 -0.233604 0.031726 0.144065 -0.224840 -0.273526 0.307527 -0.165977 0.134173 0.476133 -0.146502 -0.390621 0.164253 -0.348991 -0.137321 0.507209 0.340349 -0.134464 -0.312328 -0.027906 0.033710 -0.424975 0.115944 0.099212 0.043119 -0.007857 0.428121 0.043234 -0.115256 -0.069871 -0.273112 0.069525 0.410361 -0.154146 0.157890 0.138675 -0.065490 -0.065455 0.104672 -0.054646 0.019242 -0.466723 0.082675 -0.180272 0.091074 -0.073664 -0.006274 0.376070 0.188961 0.099469 -0.129780 0.105259 -0.132447 0.118465 0.249861 -0.409332 0.081628 0.210151 -0.479089 -0.058777 0.060150 0.079476 -0.165464 0.146029 0.414626 -0.021688 0.050469 0.495849 -0.075130 0.099534 0.134805 -0.131853 -0.311077 0.098793 0.579200 0.319445 -0.076609 -0.078615 0.015888 
a -0.045423 -0.300292 -0.003226 -0.663742 -0.032044 0.029561 -0.096119 0.108665 -0.239962 0.398713 0.341869 0.195669 -0.169631 -0.124488 -0.215067 0.458088 -0.049211 0.400414 -0.185202 0.307537 0.072737 -0.069980 -0.280085 -0.007732 0.392253 0.014421 -0.271206 0.109059 -0.117241 0.169093 0.447570 -0.206153 -0.245811 0.467758 -0.288206 -0.080037 0.417390 0.273236 -0.090571 -0.330496 0.008467 0.167055 -0.268283 -0.146156 0.123905 0.209568 -0.124512 0.296599 0.229973 -0.082280 -0.241457 -0.072428 0.023103 0.100083 -0.250831 -0.079597 0.023575 0.193294 -0.028858 0.007494 0.126229 -0.016170 -0.108637 0.008435 0.037310 0.181613 0.050096 -0.114581 0.354076 0.102092 -0.099459 -0.105042 0.120082 -0.160792 -0.127610 0.356383 -0.389709 0.133560 -0.005762 -0.506096 -0.089424 -0.058572 0.073460 -0.191341 -0.029293 0.228942 -0.070358 0.003125 0.739820 -0.207020 0.306079 0.175218 -0.139986 -0.209462 -0.082290 0.524769 0.163438 -0.020881 0.103710 -0.031095 
No -0.278470 -0.476143 0.217382 -0.170978 0.465899 0.279224 -0.089493 -0.253100 -0.321842 0.270198 0.382126 0.082804 0.075894 0.121955 -0.183185 0.012238 0.474788 0.225606 0.326210 -0.163902 0.130754 0.377433 0.054499 0.067242 0.046651 0.053554 -0.039138 0.027617 0.116765 0.052153 -0.451420 -0.103422 -0.171098 -0.032659 -0.674230 -0.022198 -0.107005 -0.007776 0.012377 -0.124102 -0.095427 0.021497 0.396659 -0.229017 -0.013727 0.427665 0.032522 -0.187401 0.013498 -0.216586 -0.502487 0.308717 -0.318462 0.289073 -0.157814 -0.627705 -0.089377 0.069707 0.084034 0.199044 -0.077124 0.143310 0.258204 -0.254268 -0.158733 0.220865 0.043233 0.036776 0.491057 -0.079699 0.045795 0.137954 -0.007129 0.081486 -0.248344 -0.203303 0.000317 -0.074561 -0.460085 -0.252133 0.093017 -0.301067 0.384696 -0.273044 -0.005894 0.186894 -0.040488 0.016565 0.475284 -0.009892 0.386019 0.170117 -0.053459 0.151383 -0.034017 -0.023143 -0.232175 0.099156 0.531643 -0.075154 
Patient -0.340698 0.067215 0.255269 -0.173162 -0.037982 0.270339 0.232355 -0.105776 -0.275451 -0.392911 0.583569 0.091441 -0.038899 -0.043052 -0.635462 0.155150 -0.052252 0.236698 -0.314604 -0.147670 0.231303 0.458381 0.096801 -0.015662 0.288703 0.288633 0.482663 0.277127 -0.152380 -0.359822 -0.259762 -0.360004 -0.021659 0.054831 -0.236489 0.200641 -0.136130 0.043752 0.019904 -0.167792 0.133512 0.247124 0.613026 -0.749041 -0.099704 0.204012 0.045527 0.160413 0.166740 -0.345668 -0.478107 0.094796 0.310011 -0.099984 -0.495876 -0.414591 -0.185968 0.246277 -0.196629 -0.176991 -0.424737 -0.019292 0.490292 -0.691906 0.322649 0.187559 0.471256 -0.518274 -0.063999 -0.331003 -0.123686 0.198274 -0.214393 0.564343 -0.365839 0.241808 0.066526 -0.034402 -0.360935 -0.064717 -0.172791 -0.100690 -0.081000 -0.096199 -0.360338 -0.072350 -0.381726 0.249160 0.736032 -0.089683 0.403654 0.044710 -0.248850 0.101686 -0.306257 0.145358 -0.342250 0.214303 -0.158575 0.000466 
xxln 0.248167 -0.288047 0.097684 -0.125070 0.353617 -0.035469 0.046980 -0.202558 -0.182197 0.681874 -0.065891 0.353412 0.013431 -0.146939 0.481125 0.253355 0.415558 -0.227294 0.443177 0.582155 -0.032070 -0.202332 -0.303383 0.076408 0.029349 -0.375711 -0.275286 0.262759 0.183798 -0.070066 0.189957 -0.004093 -0.112836 0.015850 -0.155226 -0.013956 0.391937 0.204953 -0.027154 -0.217634 -0.246361 0.094603 -0.192161 0.046868 0.167421 0.021061 0.081247 0.135374 0.518667 -0.329332 0.163508 -0.349396 -0.221702 0.124520 -0.114500 -0.199884 0.161613 -0.066994 -0.040615 0.198871 -0.112670 0.064896 -0.384639 0.135338 -0.203954 0.203818 -0.174353 -0.102029 0.187440 0.341666 0.261240 -0.021336 0.110023 0.079004 -0.279035 -0.127614 -0.190670 0.079327 -0.023304 -0.281828 -0.187967 -0.014233 0.157932 -0.049298 0.174008 0.335072 0.096260 0.103386 0.195073 0.172546 -0.283493 0.266789 -0.104159 -0.076676 -0.042482 0.420595 0.107513 0.273483 0.062858 0.145868 
insurance: -0.092665 0.217573 -0.339961 0.234592 -0.244977 -0.135193 0.186017 0.097880 0.527116 -0.323882 0.024221 -0.085969 -0.104216 -0.196915 0.165471 -0.083345 -0.461302 -0.212567 0.088010 -0.273873 -0.082511 0.017111 0.085496 -0.224977 -0.047532 0.145286 0.041759 -0.229169 0.187392 0.007238 -0.091844 0.207437 0.156356 0.179114 0.653009 0.269411 -0.292028 -0.172378 0.146756 0.189716 0.000542 0.349609 0.025870 -0.102592 0.046818 -0.026666 -0.198047 -0.101443 0.128799 0.223489 0.557347 -0.021185 -0.128597 -0.451038 0.147420 0.183270 0.225931 0.107744 0.036119 -0.306013 0.240271 -0.304180 0.240900 0.209018 0.021381 0.033521 0.110791 -0.077498 -0.269139 0.005476 -0.104414 -0.070761 -0.135463 -0.241678 -0.312379 0.121931 0.150746 0.050312 -0.177735 0.108985 0.009791 0.083291 -0.293477 0.088069 -0.047540 -0.060627 -0.007361 0.046206 -0.597125 -0.019668 -0.077316 -0.086980 0.181474 0.257019 -0.265325 -0.116544 -0.289751 0.111961 -0.057677 -0.219682 
application: 0.187250 -0.192885 -0.065774 -0.206499 0.010154 0.074310 -0.192739 0.090472 -0.691738 -0.488098 -0.451970 -0.532003 0.058475 0.267613 0.593098 0.743090 -0.480809 -0.410658 0.076975 -0.401456 0.083460 -0.171094 0.304728 -0.418122 -0.915810 -0.034804 -0.250980 -0.090543 0.207570 0.175668 0.406569 0.460352 -0.046147 0.283273 0.123921 0.599152 0.372071 -0.094038 0.045628 0.008999 0.634365 0.011363 -0.443806 0.474657 -0.238455 0.058856 0.198203 -0.255336 0.141512 0.111694 0.269801 0.058614 0.068376 0.146925 -0.034626 0.596309 0.345781 0.315376 -0.409847 0.044818 -0.386682 -0.251227 -0.018228 -0.301671 -1.027536 0.304716 -0.343305 0.482667 0.470644 -0.178633 -0.319063 -0.510524 -0.108703 0.369037 -0.168931 0.082798 0.433028 -0.421608 0.018179 0.669545 0.168187 -0.394911 0.518325 -0.238052 0.236990 0.465030 0.079613 0.416608 -0.798458 0.489387 -0.410554 0.444970 0.265980 -0.188020 0.031190 0.342645 0.029160 -0.231897 -0.977857 0.155395 
I 0.245146 -0.121595 -0.110181 -0.665842 -0.074970 0.048068 -0.455489 -0.001830 -0.671589 0.684198 0.012555 0.243863 -0.114884 0.024960 0.144043 0.555694 -0.066659 0.331871 -0.473440 0.486097 0.027895 -0.372548 -0.278775 0.160784 0.375157 -0.324990 -0.301702 0.099218 -0.049855 0.537557 0.719521 -0.212661 -0.393146 0.000262 -0.304944 -0.185092 0.487681 0.545650 -0.354680 -0.427002 -0.035940 -0.134100 -0.308641 0.260120 0.206950 -0.014499 -0.226651 0.654703 0.289231 -0.067962 -0.195156 -0.321037 -0.221542 0.268278 -0.092406 0.065350 -0.120912 -0.076122 -0.315743 0.197703 0.027637 0.329076 -0.536390 0.274481 0.008898 0.081375 0.126710 0.110281 0.311273 0.227620 0.257749 -0.247999 0.439280 -0.266244 0.145800 0.329406 -0.320598 0.291675 0.464813 -0.398765 -0.164488 0.064137 0.227915 0.014106 -0.041193 -0.077844 0.212045 0.208688 0.553526 -0.052047 0.091262 0.275638 0.109121 -0.589817 0.121912 0.693179 0.363273 -0.086652 0.112325 0.212104 
xxname 0.098329 -0.156352 0.105911 0.140091 0.307761 -0.211714 0.013363 0.030706 0.447379 0.451381 0.097155 0.433908 0.044998 -0.293397 -0.083552 -0.059298 0.341489 -0.115434 0.513888 0.526790 0.142351 0.129671 -0.147622 -0.287225 0.248325 -0.324107 -0.412875 0.371572 -0.133902 0.063880 -0.149533 -0.188466 -0.090346 -0.029304 -0.181943 0.007978 0.184545 0.271186 0.167860 -0.437612 -0.399908 0.036547 -0.140594 -0.090350 0.346990 0.153977 0.131697 -0.055749 0.440539 -0.210606 0.206558 -0.103844 -0.476678 0.094685 -0.125444 -0.692737 -0.110725 0.065505 0.292673 0.139832 0.144028 -0.124387 0.071693 0.062000 -0.122159 0.331794 -0.230860 -0.208218 0.294661 -0.005833 0.132330 0.192150 0.102794 -0.346608 -0.473061 -0.245768 -0.207056 0.072707 -0.090557 -0.507294 -0.259580 -0.036762 0.192598 -0.106401 0.214242 0.266629 -0.179885 -0.014912 0.146218 0.044293 0.234907 0.221021 -0.199710 0.157279 -0.216909 0.165495 -0.159800 0.266369 0.244258 -0.144091 
- -0.101464 -0.426117 0.327398 -0.039866 0.348547 -0.327465 0.064588 0.132495 0.126080 0.121947 -0.122605 -0.015327 -0.023908 -0.300260 -0.032570 -0.055372 0.391159 -0.218751 0.693724 0.050635 -0.087348 0.200602 -0.158253 -0.246985 -0.639903 -0.070129 -0.370849 0.315195 -0.040328 -0.048045 -0.117408 0.058763 -0.152739 0.029072 -0.324814 -0.043259 0.522946 -0.358694 0.003493 -0.074710 -0.095214 0.012105 -0.517464 -0.111590 -0.078936 0.285489 0.225832 -0.511717 -0.222486 -0.274781 0.225680 0.228097 0.112817 0.235957 0.145503 -0.171588 0.123735 -0.131464 0.404926 0.089468 -0.024758 -0.138405 -0.007182 -0.311608 -0.407451 0.734666 -0.476355 0.268363 0.595461 -0.075780 -0.021904 0.283936 -0.153649 0.043052 -0.126599 -0.229629 -0.032112 -0.478417 -0.190578 0.006610 0.083454 -0.217837 -0.013926 -0.088036 0.295619 0.866676 -0.035128 -0.157533 0.109124 0.067432 -0.126411 -0.093191 -0.223371 0.053615 0.143883 -0.000069 -0.170144 0.331829 -0.138760 -0.198807 
Family -0.098388 -0.265815 -0.089286 0.612842 0.567809 0.373853 0.131331 -0.269810 0.304404 -0.107654 -0.126449 0.023269 -0.127870 0.059904 0.265479 -0.267057 0.572873 -0.411189 0.988500 -0.479913 -0.248403 0.372019 0.506617 -0.224536 -0.570187 -0.045660 0.246597 -0.361602 0.817893 -0.262120 -0.898926 0.365002 0.190890 0.182670 0.054000 0.318477 -0.382580 -0.638997 0.442461 0.539157 0.012895 0.175848 0.468029 -0.054137 -0.041855 0.119791 0.231085 -0.569023 -0.484642 0.335807 -0.065403 0.347595 -0.172565 -0.151878 0.160251 -0.140801 0.423603 0.141865 -0.032817 -0.214633 0.023395 -0.509792 0.413270 0.088204 -0.599519 -0.203513 -0.129585 0.136961 0.028288 0.181134 -0.123909 -0.090726 -0.000865 0.022483 -0.268642 -0.439387 0.412914 -0.029149 -0.840083 0.432212 0.712905 -0.233175 0.194367 -0.452758 0.218398 0.076943 -0.036484 -0.273955 -0.623342 0.178105 -0.273154 0.026444 0.070475 0.765787 0.120712 -0.642508 -0.383275 -0.123073 0.246990 -0.330029 
Current 0.327800 0.024547 -0.008121 0.255538 0.158299 0.109527 -0.154148 -0.332847 0.051301 0.296794 -0.641615 0.179720 -0.452554 0.120352 0.704059 0.121991 0.321482 -0.420826 0.498784 0.056677 -0.228453 -0.189126 0.287617 0.010360 -0.509445 -0.475833 0.152265 -0.004540 0.559637 -0.014092 -0.367420 0.376274 -0.244289 -0.132056 0.361965 0.264224 -0.097949 0.027867 0.262473 0.540777 0.068853 -0.054350 -0.127445 0.307756 0.193334 -0.029275 0.111345 0.072051 0.024007 0.152367 0.487342 -0.513498 -0.166141 -0.045355 0.141835 0.377730 0.508684 -0.298900 -0.431891 -0.169246 -0.009876 -0.216385 -0.402770 0.383094 -0.555057 -0.283005 0.151378 0.014971 -0.288074 0.450852 0.231354 -0.204633 0.040276 -0.074961 -0.187238 -0.287874 -0.019280 0.129552 -0.150449 0.231769 0.441426 0.169366 0.065645 -0.060854 0.172813 0.254870 0.166616 0.122656 -0.755201 0.366596 -0.476790 0.092305 0.267522 0.202207 0.228239 0.044763 0.122829 -0.004008 -0.116042 -0.153958 
Discharge: -0.249144 -0.104497 0.506528 -0.121836 -0.122432 0.029638 0.155716 -0.473098 -0.395619 -0.052811 0.207998 0.030354 -0.470113 -0.378308 -0.427018 -0.229754 0.675337 0.196373 0.000082 -0.014670 -0.001833 0.266736 -0.145726 0.240167 -0.239992 0.353115 0.600631 0.389830 -0.264680 -0.342648 -0.579831 -0.159557 -0.480534 -0.376873 -0.365032 0.175734 0.090999 -0.291260 -0.084422 0.263487 0.159971 0.213259 0.087934 -0.906482 -0.175119 0.399578 -0.352795 0.114958 -0.254904 -0.644416 -0.385087 -0.201015 0.467952 -0.254917 -0.179066 -0.310368 -0.068217 -0.508270 0.069216 -0.516485 -0.497320 0.003990 0.162814 -0.457712 0.295113 0.673932 0.559885 -0.173983 -0.209357 -0.250923 0.112194 0.725810 -0.236503 0.533340 -0.467767 0.092330 -0.158761 -0.061625 -0.676159 -0.002737 0.241855 0.100874 -0.697691 0.228621 -0.097632 0.515979 -0.207093 0.036467 1.039513 0.126083 0.331361 -0.342985 -0.094196 0.107151 0.115227 0.263653 -0.274100 0.664897 0.019945 -0.239132 
her 0.292176 -0.191760 0.124654 -0.531683 -0.028907 -0.032781 -0.252275 -0.051497 -0.406343 0.586093 -0.105187 0.138665 -0.242589 -0.006066 0.084304 0.410034 0.235358 0.177495 -0.105843 0.420149 -0.098572 -0.304353 -0.269132 0.115265 0.232124 -0.267072 -0.202352 0.060399 -0.022097 0.252431 0.375091 -0.114189 -0.414411 0.201920 -0.259317 -0.142683 0.505261 0.334734 -0.085990 -0.167893 0.049272 -0.093138 -0.572473 0.077275 0.151531 0.113329 -0.096254 0.381458 0.173349 -0.077337 -0.205365 -0.331159 -0.036954 0.093777 -0.118342 0.066668 0.041213 -0.113466 -0.215793 0.085830 0.132203 0.062835 -0.388461 0.207037 -0.100178 0.097928 0.100376 0.064882 0.171900 0.266406 0.145325 -0.047593 0.296069 -0.208551 0.027114 0.169515 -0.324085 0.196236 0.034849 -0.383196 0.094478 0.063109 0.091983 -0.108479 0.097942 0.254523 0.078304 -0.080984 0.534503 0.066495 0.052093 0.174151 0.003679 -0.264047 0.201647 0.554692 0.353459 -0.078796 0.115828 0.054194 
Yes -0.211629 -0.284711 0.433279 0.125490 0.676189 0.042770 -0.154332 -0.311563 0.005166 0.142945 0.080068 0.092052 0.121241 0.043287 -0.355139 -0.368707 0.812844 -0.041020 0.638573 -0.199719 0.151080 0.408288 0.174527 -0.026151 -0.277767 -0.089577 0.022904 0.056014 0.131684 -0.010238 -0.876128 -0.137524 -0.263944 -0.247136 -0.680526 -0.131578 -0.081857 -0.135233 0.165788 0.035080 -0.178477 -0.111578 0.153850 -0.242354 0.069760 0.398878 0.369378 -0.506657 -0.249914 -0.177032 -0.510870 0.307935 -0.349328 0.364880 0.060846 -0.846558 -0.198676 -0.072012 0.272201 0.202834 -0.002661 0.160754 0.369573 -0.390125 -0.391395 0.290008 -0.033396 0.141230 0.492700 -0.153368 0.104792 0.366653 0.117579 -0.109097 -0.189361 -0.587706 0.104206 -0.310320 -0.576469 -0.102849 0.189993 -0.421414 0.330877 -0.201332 0.012605 0.310355 -0.042771 -0.295445 0.285509 0.104407 0.456158 0.007501 -0.177818 0.308172 0.116764 -0.254066 -0.282026 0.136879 0.502175 -0.277545 
N/A -0.180835 -0.541856 -0.047986 -0.078276 0.060942 0.223375 -0.211875 -0.147710 -0.597978 -0.457395 0.375333 -0.695765 0.079195 0.396303 0.426220 0.732532 -0.378131 0.265821 -0.035431 -0.364160 0.407035 0.245323 0.091199 -0.212651 -0.383940 0.309982 -0.367891 0.001819 -0.210260 0.128434 0.077772 0.322680 -0.062576 0.057002 -0.381662 0.717754 -0.496231 0.015665 0.147160 -0.389973 0.377385 0.303489 0.169208 0.269376 -0.140175 0.453601 -0.313096 -0.172180 0.171437 -0.223686 0.151325 0.258420 -0.640775 0.426731 -0.216891 0.217676 0.330423 0.135163 -0.130864 0.064622 -0.558354 -0.255015 0.125063 -0.400390 -0.570681 0.275625 -0.316159 0.390635 0.611393 -0.626478 -0.114267 -0.245074 -0.946351 0.367274 -0.485903 0.159064 0.238960 -0.344126 -0.016261 -0.329376 -0.014759 -0.304675 0.598816 -0.496108 0.207631 0.605775 -0.094490 0.735745 -0.533060 0.261262 0.415312 0.403838 0.589197 -0.183091 -0.181216 0.269729 -0.231629 0.003220 -0.334809 0.294753 
Discharge 0.505350 0.343779 -0.125954 -0.200953 -0.417557 -0.171179 -0.138544 -0.093785 -0.236631 0.486005 -0.539550 -0.046498 0.018621 0.176258 0.663751 0.043119 -0.269370 -0.415513 -0.183540 -0.055435 -0.148269 -0.561193 -0.171948 0.319272 0.136285 -0.300039 0.026831 -0.360051 0.490032 0.320351 0.276981 0.195006 -0.096551 0.046426 0.511753 -0.153007 0.173094 0.188441 -0.053170 0.424940 0.059937 -0.175899 -0.461404 0.176627 0.245120 -0.104191 -0.134496 0.195263 0.465082 0.147460 0.199402 -0.544853 -0.064526 -0.579259 0.156435 0.275595 0.022515 -0.224373 -0.465658 -0.072586 0.461276 0.241743 -0.426517 0.561412 0.189140 -0.175850 0.400806 0.048669 -0.560140 0.543794 0.230480 -0.144700 0.458554 -0.170912 0.004457 -0.064241 -0.088252 0.363796 0.081503 0.257616 0.136541 0.239871 -0.126563 0.338076 -0.224246 -0.369880 0.415413 -0.116045 -0.104810 0.180945 -0.543251 0.089700 0.226778 -0.124432 0.211092 0.189663 0.369175 0.020646 0.196005 0.142796 
has -0.074858 -0.432620 0.100677 -0.764014 -0.041333 0.044064 -0.322660 0.032599 -0.542723 0.386097 0.206125 0.089953 -0.405472 -0.193919 -0.190426 0.569607 0.068000 0.504331 -0.303783 0.307319 -0.068067 -0.065999 -0.247006 -0.035642 0.002254 0.066179 -0.213845 0.210515 -0.206320 0.331903 0.450201 -0.138410 -0.508818 0.219578 -0.417944 -0.025153 0.517318 0.154117 -0.253185 -0.286696 0.163612 0.117928 -0.411177 -0.124435 -0.018494 0.335775 -0.340139 0.412915 -0.148531 -0.141567 -0.194875 -0.072120 0.084666 0.260079 -0.117804 0.199717 0.159019 -0.108131 -0.091928 -0.057725 -0.083392 0.036272 -0.328144 -0.104295 -0.093341 0.413334 0.073121 0.148536 0.563497 0.039401 0.032236 -0.052004 0.016969 -0.114396 -0.037482 0.484941 -0.358209 0.032275 0.071351 -0.435642 0.106862 -0.009750 -0.030232 -0.136663 0.029269 0.533805 -0.030631 0.169076 0.739958 -0.128617 0.274139 0.022770 0.049330 -0.405654 0.110836 0.636010 0.096963 0.047490 -0.040391 -0.079144 
be -0.057567 -0.576593 0.098304 -0.598177 0.182717 0.110905 -0.209696 0.086190 -0.612376 0.543958 0.203781 0.225619 -0.059399 -0.064088 0.000508 0.537308 0.181339 0.317872 -0.054993 0.376793 -0.027471 -0.024181 -0.231786 0.055226 -0.064198 -0.106376 -0.348999 0.320289 -0.112803 0.241379 0.592659 -0.202102 -0.248746 0.073524 -0.607896 -0.198786 0.542374 0.112713 -0.323647 -0.404211 -0.027449 -0.049524 -0.264581 0.118172 -0.060489 0.119004 -0.036668 0.225330 0.013380 -0.293079 -0.164891 0.091848 0.048915 0.541032 -0.081687 0.031106 0.022448 0.012714 -0.013048 0.276527 -0.145886 0.185128 -0.444722 -0.146569 -0.162677 0.387822 -0.275532 0.187240 0.690386 0.084103 0.062057 -0.083613 0.059099 0.147468 0.127720 0.217399 -0.261955 -0.134258 0.269203 -0.289061 -0.090959 -0.120400 0.271082 -0.171127 0.130476 0.444131 0.097941 0.227072 0.673685 -0.141638 -0.049739 0.161931 -0.139379 -0.422460 0.129661 0.519466 0.160289 0.088382 -0.022689 0.142721 
xxph 0.160596 0.126747 0.239954 0.192640 0.121348 -0.300163 -0.212348 -0.148453 0.247473 0.079141 -0.351793 0.286734 -0.178303 -0.251301 -0.137852 -0.120854 0.366297 -0.186974 0.270930 0.432020 0.186047 -0.041275 0.057686 -0.296474 -0.199291 -0.267982 -0.127597 0.436598 -0.262920 0.057353 -0.301156 -0.034797 -0.315491 -0.326182 -0.033526 0.169811 0.167914 0.302079 0.170002 -0.159465 -0.097580 -0.057503 -0.361820 -0.078220 0.224852 0.156686 0.133959 0.031587 0.163443 -0.179871 0.224615 -0.346668 -0.305028 0.096087 -0.028344 -0.390092 -0.122711 -0.169944 0.121701 -0.062111 -0.157709 -0.027033 -0.000500 -0.124373 -0.361409 0.331916 0.014365 -0.063668 0.116953 -0.134698 0.141448 0.203720 0.156259 -0.306128 -0.428226 -0.272057 -0.109106 -0.049245 -0.076757 -0.172384 -0.080688 -0.017070 0.044309 0.108013 0.156028 0.344455 -0.158683 0.086102 -0.105062 0.290355 0.277390 0.066002 -0.079294 -0.017451 -0.035886 0.333605 -0.082174 0.226964 -0.190716 -0.216431 
discussed -0.300178 -0.313355 0.395785 -0.107674 0.432799 0.518179 -0.182892 -0.229106 -0.704750 -0.016747 0.378233 0.079868 0.146450 0.373996 -0.377013 0.300365 0.358911 0.367064 -0.153789 -0.024576 0.218730 0.455234 0.214278 0.055249 0.064521 0.035148 0.177898 0.322981 -0.183021 -0.069811 -0.242564 -0.248624 -0.137095 -0.310280 -0.834569 0.025867 -0.164388 0.221045 -0.087892 -0.322390 0.065541 -0.182668 0.689077 -0.136691 -0.128923 0.235794 0.171720 0.097810 -0.061047 -0.344697 -0.628344 0.312883 -0.166219 0.669030 -0.377196 -0.438139 -0.290098 0.082365 -0.199937 0.389060 -0.550252 0.338075 0.112301 -0.654391 -0.085018 0.047640 0.115608 -0.111273 0.452672 -0.312154 0.121647 0.013990 -0.224057 0.483253 0.049673 -0.019091 0.073045 -0.134979 -0.112182 -0.189377 -0.082630 -0.249172 0.593401 -0.307471 -0.135020 0.047479 -0.188433 0.368297 0.474152 0.069214 0.381097 0.234178 -0.127728 -0.142312 -0.015223 0.082388 -0.177858 -0.053799 0.121525 0.204756 
on 0.059097 -0.252658 0.077047 -0.678701 0.062244 0.038361 -0.323925 -0.018559 -0.430020 0.532317 -0.025501 0.380687 -0.449176 -0.230625 -0.214334 0.467881 0.259730 0.316707 -0.159052 0.441986 -0.144400 -0.153763 -0.139017 -0.037144 0.078718 -0.228552 -0.101934 0.204439 -0.020804 0.317669 0.355403 -0.187132 -0.552604 0.206178 -0.298924 -0.109025 0.679835 0.274335 -0.206925 -0.198609 0.067850 0.024589 -0.409876 -0.086964 0.094536 0.173386 -0.110957 0.508076 -0.065655 -0.031000 -0.211961 -0.253759 0.145750 0.181588 -0.115372 0.059974 0.076676 -0.075168 -0.193277 -0.034699 0.012302 0.053576 -0.336931 0.045851 -0.185016 0.252443 0.187427 0.021718 0.385792 0.235245 0.073386 -0.089853 0.408048 -0.271342 0.016749 0.326096 -0.332521 0.176966 0.011351 -0.304522 0.105332 0.008443 0.006889 -0.104716 0.052608 0.320135 0.011901 0.015578 0.689961 -0.066040 0.157719 0.091797 -0.071408 -0.299952 0.134704 0.638473 0.172586 -0.019772 -0.004955 -0.133993 
Plan: 0.247245 0.434100 -0.062167 0.078449 -0.224500 -0.203856 0.145898 -0.086221 0.398857 0.192674 -0.726679 0.350543 -0.501571 -0.322875 0.222659 -0.343755 0.162990 -0.528169 0.289021 0.003974 -0.491086 -0.349015 0.137512 0.064115 -0.278688 -0.318238 0.436511 -0.137912 0.456637 -0.049689 -0.264182 0.174810 -0.208146 0.037663 0.754385 -0.088726 0.365817 -0.175604 0.039864 0.765046 0.021620 -0.010245 -0.371019 -0.080736 0.096972 -0.244864 0.048834 0.139480 -0.115835 0.318481 0.393549 -0.565592 0.535487 -0.675449 0.287678 0.330625 0.239128 -0.304637 -0.221164 -0.405201 0.341666 -0.157829 -0.197131 0.509876 -0.043555 -0.103612 0.506964 -0.130863 -0.690321 0.573082 0.064407 0.095360 0.623225 -0.236725 0.056655 -0.136085 -0.044138 0.242781 -0.276040 0.553888 0.345769 0.335250 -0.643692 0.425983 0.030886 -0.088312 0.170680 -0.362714 -0.226730 0.118037 -0.593084 -0.285299 -0.020693 0.256186 0.196485 -0.010232 0.106119 0.107692 -0.058647 -0.425272 
have -0.027276 -0.249696 0.027839 -0.591692 0.093493 0.161671 -0.426480 -0.028284 -0.455953 0.384775 0.061334 0.298053 -0.336818 -0.114514 -0.310969 0.444607 0.150045 0.385493 -0.266044 0.281789 -0.068121 -0.013574 0.017940 -0.173086 0.066412 -0.099319 -0.080333 0.128509 -0.019512 0.406602 0.228241 -0.158773 -0.466218 0.164798 -0.334944 -0.057128 0.473775 0.230322 -0.177719 -0.238897 0.128244 0.004894 -0.166111 -0.066242 0.093490 0.237233 -0.154998 0.435176 -0.146865 0.073314 -0.277272 -0.047796 -0.043396 0.252598 -0.083952 -0.030425 -0.023281 0.027119 -0.206447 -0.014909 -0.021810 0.093898 -0.201882 -0.043772 -0.186128 0.227157 0.201417 0.074772 0.514999 0.094573 0.032645 -0.160305 0.372724 -0.280403 -0.003530 0.319915 -0.239169 0.197818 -0.006350 -0.266104 0.173440 -0.066649 0.191103 -0.171500 -0.038697 0.181832 -0.056833 0.140963 0.602148 -0.082574 0.281953 0.139961 0.027744 -0.286206 0.067671 0.508895 0.012082 -0.127883 0.083107 -0.122396 
Hospital 0.045999 0.317681 -0.186022 -0.024905 0.098961 -0.243843 -0.148188 0.156734 0.375412 0.053595 -0.334933 0.166533 -0.192053 -0.271088 -0.110731 -0.276536 0.063501 -0.072861 -0.005122 0.132774 -0.255391 -0.282793 0.144793 -0.027563 -0.279875 -0.072272 0.041878 -0.181758 0.121821 0.158597 0.001951 -0.007849 -0.134727 -0.039513 0.257793 -0.303601 0.164014 -0.004001 -0.089766 0.148088 -0.110853 -0.074826 -0.405719 0.204229 -0.063054 -0.305115 0.196074 0.063745 -0.545989 0.447179 0.083755 -0.037727 0.150865 0.062754 0.429881 0.298047 0.064025 -0.084201 0.160114 -0.056249 0.293025 0.026139 -0.085752 0.275914 -0.316039 -0.183073 0.058775 0.233458 0.002847 0.276486 0.029752 -0.183875 0.630974 -0.638660 0.427008 -0.108385 0.037181 -0.117200 0.149266 0.312637 0.176468 -0.003585 -0.269824 0.206358 0.022650 -0.224708 0.212297 -0.457765 -0.322464 -0.097087 -0.021444 -0.295440 -0.130545 0.029567 0.166455 -0.049038 0.205123 -0.204126 -0.000329 -0.369258 
this -0.096602 -0.246487 0.138983 -0.516904 0.124283 0.087658 -0.233020 -0.092462 -0.289744 0.433818 0.112371 0.510159 -0.328749 -0.281374 -0.401540 0.270438 0.373695 0.391455 -0.063254 0.457264 0.057887 -0.008040 -0.118996 -0.092483 0.143982 -0.111604 -0.077784 0.388215 -0.165459 0.168227 0.157837 -0.252613 -0.447732 0.061773 -0.397776 -0.088620 0.565519 0.297071 -0.177335 -0.245624 -0.029795 0.049516 -0.170938 -0.221061 0.128346 0.206084 -0.061592 0.376781 0.008602 -0.188453 -0.312496 -0.171920 0.156210 0.288748 -0.234786 -0.288586 -0.114370 0.023970 -0.001634 -0.039016 -0.102342 0.103557 -0.165415 -0.092638 -0.111427 0.291297 0.097413 -0.115704 0.419517 0.042139 -0.015281 0.060201 0.349002 -0.137046 -0.127076 0.210090 -0.424984 0.110544 -0.054738 -0.341963 -0.036542 -0.043619 0.022053 -0.061367 0.027407 0.279782 -0.143708 0.059645 0.833403 -0.088016 0.329833 0.111202 -0.215317 -0.229934 0.024395 0.550456 0.078815 0.096872 0.004952 -0.159043 
Health -0.038421 -0.281006 0.324508 0.231098 0.486235 -0.006145 -0.309247 -0.104572 -0.133493 -0.034172 -0.017044 -0.061785 0.253554 0.205141 -0.157369 0.014606 0.304900 -0.111626 0.407520 -0.096041 0.468260 0.354517 0.199219 -0.369795 -0.237497 -0.208477 -0.336403 0.213995 -0.104468 0.170029 -0.493322 -0.041774 -0.152153 -0.230042 -0.584615 0.214099 -0.061412 0.155681 0.214766 -0.355396 -0.053012 -0.200004 0.067508 0.040940 0.206743 0.418839 0.282323 -0.451257 0.174364 -0.259660 -0.165421 0.267770 -0.677953 0.419624 -0.140331 -0.808856 -0.271440 0.104042 0.135895 0.272051 -0.161023 0.088432 0.290316 -0.482294 -0.476942 0.412076 -0.330840 0.126960 0.615591 -0.420713 0.047967 0.185263 -0.141893 -0.077080 -0.454748 -0.420415 0.095200 -0.268125 -0.187938 -0.216132 -0.063943 -0.406380 0.724128 -0.288734 0.102129 0.370439 -0.191859 0.178512 -0.123302 0.284536 0.445328 0.332975 0.031440 0.053956 -0.029622 -0.024966 -0.281939 0.038310 0.088878 -0.006219 
information -0.021708 0.200275 -0.075180 0.149459 -0.019674 -0.109874 0.339868 0.177495 0.219670 -0.079944 0.114076 -0.021846 0.400930 -0.090525 0.057288 -0.277623 -0.223923 -0.169456 -0.016188 -0.047939 -0.026915 -0.068675 -0.192504 0.163605 0.147083 0.093401 -0.023775 -0.050820 -0.026780 -0.264980 0.194267 -0.067475 0.401270 -0.007824 0.181824 -0.265420 0.029263 -0.080947 -0.108977 -0.014211 -0.195651 -0.020965 0.155890 0.011343 -0.100480 -0.311121 0.182173 -0.202677 0.191486 -0.040802 0.049496 0.124611 0.270469 -0.122224 0.019900 -0.016315 -0.149306 0.108321 0.239566 0.144469 0.105839 0.154575 0.076332 0.058373 0.321220 -0.087948 -0.167274 -0.134349 -0.220324 0.055559 -0.053815 0.024649 -0.016497 0.210945 0.227899 -0.075344 0.053055 -0.099824 0.182533 0.210904 -0.360852 0.020336 -0.164279 0.233453 -0.072834 -0.324081 0.064383 -0.206853 0.002802 -0.128835 -0.259047 -0.091450 -0.247648 0.037028 -0.149701 -0.300199 0.059066 0.055288 -0.011196 0.171905 
xxfn -0.044642 -0.076310 -0.038622 0.016749 -0.042921 -0.239419 0.028540 0.096563 0.294127 0.090519 0.213522 0.087589 -0.080828 -0.280243 -0.149724 0.079404 -0.021216 0.106348 0.025468 0.285373 0.083667 0.083566 -0.187660 -0.236491 0.171832 0.088611 -0.235333 0.117783 -0.234098 0.051493 0.049896 -0.090661 -0.048033 0.102843 -0.013675 0.098926 -0.005145 0.073341 0.088335 -0.380072 -0.142191 0.202848 -0.168035 -0.203973 0.124131 0.175020 -0.239011 0.077853 0.124151 -0.117779 0.184318 -0.027367 -0.316648 -0.105856 -0.016007 -0.177999 0.037080 0.005427 0.230224 -0.111467 0.037269 -0.175828 0.086484 -0.022378 0.090723 0.279026 -0.089280 -0.075427 0.150682 -0.131711 0.055413 0.123300 -0.181019 -0.243297 -0.391887 0.162275 -0.139150 0.065681 -0.023776 -0.499040 -0.109535 0.049777 -0.075358 -0.054756 0.067805 0.255079 -0.172431 0.080952 0.137484 -0.076168 0.289774 -0.022380 0.030934 0.021704 -0.206860 0.184908 -0.188356 0.181546 0.081331 -0.091118 
Medicaid -0.107602 0.102131 -0.252237 0.074709 -0.291033 -0.034956 0.031182 0.239073 0.215528 -0.621945 0.124387 -0.413041 0.088110 0.098696 -0.082960 0.100903 -0.748269 -0.099986 -0.109098 -0.641299 0.150220 0.201008 0.254876 -0.437901 -0.151289 0.304591 -0.024076 -0.348817 0.076569 0.152957 -0.055490 0.176860 0.176526 0.376914 0.423347 0.413042 -0.312008 -0.186157 0.255743 0.084873 0.288512 0.208858 0.051974 -0.091806 -0.001933 0.157271 -0.122221 -0.288544 0.046258 0.334854 0.253118 0.306024 -0.172453 -0.394152 -0.009859 0.122948 0.095182 0.378998 -0.100995 -0.244814 0.198436 -0.363089 0.497413 -0.138578 -0.122616 0.125552 0.063947 0.045797 -0.000228 -0.325819 -0.343983 -0.220457 -0.205218 -0.121943 -0.373882 0.135778 0.290732 -0.071409 -0.185140 0.248541 0.105460 -0.174628 0.130372 -0.168267 -0.126844 -0.090830 -0.121857 0.146716 -0.494301 0.004024 0.157866 0.075657 0.267356 0.190388 -0.274913 -0.135464 -0.316241 -0.100035 -0.156434 -0.137515 
services 0.060940 -0.125758 0.076367 -0.502728 -0.153782 -0.102630 -0.212745 0.056134 -0.372534 0.378407 -0.189497 0.279031 -0.097681 -0.212840 -0.144478 0.099597 0.059958 0.061820 -0.086575 0.171540 -0.029269 -0.174302 -0.186751 0.022183 -0.106947 -0.120152 -0.173389 0.293860 -0.083638 0.374593 0.410982 -0.170717 -0.261242 -0.085936 -0.203654 -0.251425 0.680837 0.077454 -0.406295 -0.047322 0.018228 -0.164094 -0.457807 -0.025803 0.026534 0.070321 -0.061521 0.162065 0.037270 -0.163957 -0.105337 -0.099675 0.293160 0.096894 0.051597 -0.127242 -0.211881 -0.052216 -0.045429 0.056637 0.081552 0.267160 -0.299014 0.002691 0.001651 0.422892 -0.051106 0.152369 0.332179 0.097139 -0.051748 0.114103 0.467295 -0.012116 0.058806 0.072265 -0.229790 -0.035738 0.258880 0.120255 -0.028462 -0.029345 -0.055461 0.234207 0.016600 0.148090 0.144635 0.050531 0.658178 -0.065069 -0.122345 0.009696 -0.163615 -0.391309 0.172375 0.405688 0.162309 0.182165 -0.129475 -0.056225 
Assessment: 0.013338 0.222161 0.090171 0.631482 0.299818 0.165150 -0.148653 -0.418726 0.532824 -0.263143 -0.331803 0.520597 -0.513544 -0.239172 -0.420235 -0.262473 0.732336 -0.210508 0.603167 0.219960 0.155577 0.241643 0.557193 -0.465999 -0.161086 -0.338681 0.345886 0.325237 0.071085 -0.212011 -0.970454 0.065951 -0.297444 -0.164499 0.134343 0.536485 -0.148179 0.094874 0.487571 0.217054 -0.010744 0.180279 0.261777 -0.278990 0.335449 0.126658 0.260004 0.060370 -0.134046 0.120965 0.005702 -0.365489 -0.179338 -0.009077 -0.170364 -0.574577 -0.018887 0.093229 -0.064029 -0.439995 -0.282562 -0.485023 0.422932 -0.074603 -0.519120 -0.121897 0.211081 -0.319699 -0.135695 -0.209576 -0.121598 0.171685 0.206891 -0.279630 -0.594644 -0.298494 0.043502 0.215618 -0.649176 -0.024100 0.300963 -0.021164 0.019173 -0.262091 0.196152 0.152641 -0.459777 0.000987 -0.324911 0.291893 0.364197 0.132573 -0.102765 0.540670 -0.059422 -0.004437 -0.319294 -0.019732 -0.244391 -0.475003 
plan: 0.332441 0.707378 0.003945 0.170162 -0.193925 -0.231007 -0.044215 -0.136861 0.202939 -0.225865 -0.768951 0.332445 -0.348763 -0.271982 0.009010 -0.201358 0.054397 -0.479760 -0.069381 0.190709 -0.123932 -0.384456 0.186316 -0.031070 -0.224466 -0.423147 0.442584 0.145623 0.111642 -0.129638 -0.147251 0.075911 -0.211674 -0.210539 0.687776 0.069143 0.402439 0.242638 0.015001 0.446468 0.102382 -0.053075 -0.272851 -0.024510 0.117100 -0.337902 0.294716 0.344549 0.099816 0.169649 0.308408 -0.737805 0.475035 -0.358070 0.049537 0.210309 -0.018049 -0.194665 -0.322660 -0.256785 -0.086421 0.061657 -0.096618 0.144065 -0.163671 -0.207924 0.465716 -0.244592 -0.622362 0.232778 0.071533 -0.007834 0.559874 -0.164084 0.043212 -0.085188 0.073912 0.174256 0.040357 0.523041 -0.030305 0.217583 -0.403806 0.425337 -0.093191 -0.208189 0.006683 -0.098720 -0.366901 0.300692 -0.325978 -0.121727 -0.124015 0.010942 0.076890 0.212646 0.127329 -0.011345 -0.605491 -0.200770 
xxloc -0.017879 -0.054821 0.221753 -0.282026 0.073125 -0.083489 -0.253907 -0.082990 -0.360573 0.157276 -0.112842 0.086602 -0.117701 -0.117389 -0.180121 0.097302 0.268111 0.204883 -0.196018 0.275663 0.040173 -0.111726 -0.126513 0.064097 -0.143038 -0.007410 -0.047019 0.232975 -0.281809 0.092357 0.122651 -0.099190 -0.314255 -0.192434 -0.350925 -0.141195 0.338914 0.216119 -0.187196 -0.176985 0.050484 -0.127839 -0.275134 -0.007858 -0.064327 0.124178 -0.017252 0.182279 -0.135358 -0.180675 -0.224211 -0.106892 0.054767 0.318131 -0.008415 -0.019476 -0.138083 -0.208348 0.047816 0.082609 -0.197481 0.295497 -0.203158 -0.156035 -0.130109 0.245322 0.032208 0.118875 0.273232 -0.035736 0.117736 0.110977 0.135347 -0.047425 0.123013 0.056929 -0.173780 -0.104175 0.106136 -0.131449 -0.036939 -0.061956 0.011068 0.122445 0.006114 0.227210 0.022355 -0.010378 0.394964 0.082729 0.208114 -0.051695 -0.081582 -0.318888 0.144668 0.348895 0.123749 0.037117 -0.080275 -0.010527 
None -0.198866 0.067373 0.149769 0.027401 -0.012523 0.102482 -0.065297 -0.432760 -0.113180 -0.114975 -0.023329 0.366627 -0.601084 -0.381575 -0.412122 -0.043340 0.572666 0.204653 0.091710 0.108325 0.057651 0.186836 0.087358 -0.057694 -0.109182 0.031991 0.453543 0.315234 -0.132685 -0.192788 -0.521929 -0.040909 -0.458226 -0.194761 -0.079095 0.343028 0.117735 0.020886 0.070013 0.194814 0.090674 0.270851 0.162767 -0.517906 0.032922 0.237369 -0.174256 0.338490 -0.259835 -0.196562 -0.233299 -0.364434 0.310869 -0.120076 -0.247954 -0.274068 -0.031795 -0.196346 -0.059135 -0.531493 -0.449845 -0.198796 0.263503 -0.137249 -0.078416 0.218542 0.470327 -0.209695 -0.127822 -0.182413 -0.046488 0.314030 0.092675 0.054775 -0.426244 0.128330 -0.120401 0.150720 -0.500340 -0.055654 0.226720 0.091524 -0.429169 -0.018395 0.089714 0.266282 -0.267809 0.038224 0.463420 0.116829 0.368783 -0.067592 -0.063840 0.146042 0.097373 0.324705 -0.200357 0.246105 -0.184721 -0.292438 
Free 0.068307 -0.065264 -0.401685 -0.050132 -0.225395 -0.040647 -0.180563 0.234558 0.033171 -0.302187 0.110761 -0.416329 0.073002 0.271911 0.278419 0.518607 -0.754360 -0.027275 -0.019823 -0.443398 0.245047 0.011186 0.149453 -0.393179 -0.019818 0.043502 -0.421318 -0.368425 0.144012 0.414733 0.274767 0.199847 0.067108 0.474002 0.268853 0.492263 -0.306950 0.035461 0.248167 -0.160263 0.217872 0.211201 -0.220407 0.312567 0.180227 0.147505 -0.149671 -0.135768 0.200723 0.350919 0.330358 0.160789 -0.509872 -0.137323 -0.020569 0.218867 0.207404 0.410581 -0.224019 -0.136827 0.231981 -0.462871 0.244970 0.100956 -0.354481 0.001075 -0.150150 0.229431 0.222924 -0.256647 -0.259684 -0.441691 -0.215795 -0.322670 -0.378715 0.180158 0.187306 -0.034528 0.104813 -0.077948 0.080338 -0.193514 0.407016 -0.414356 0.083201 0.021024 0.032738 0.255479 -0.687238 0.010452 0.177368 0.350034 0.409549 -0.011864 -0.123023 0.099727 -0.067924 -0.204739 -0.166185 0.031595 
services: -0.397338 -0.439157 -0.085816 -0.039801 0.042066 0.138131 0.084370 -0.201332 0.146028 0.051872 0.409901 0.106429 -0.315055 -0.151711 -0.145226 -0.015789 0.226372 0.351254 0.440316 -0.187458 0.130184 0.353846 -0.110768 -0.101744 0.046011 0.280396 -0.099914 0.089540 -0.010477 -0.006085 -0.332484 0.148420 -0.039840 0.252141 -0.168163 0.308183 -0.143008 -0.282926 0.091418 0.129760 -0.078037 0.408029 0.306455 -0.312738 0.048351 0.483792 -0.370469 -0.098123 -0.148428 -0.110537 0.006091 0.098893 0.027584 0.011649 -0.186355 -0.314120 0.126910 0.105461 0.250541 -0.340958 -0.093347 -0.340256 0.292389 0.051529 0.055768 0.220955 -0.012654 -0.009419 0.313294 -0.172855 -0.289614 0.116779 -0.314876 0.011387 -0.447267 0.100692 -0.251188 0.108700 -0.368770 -0.326420 0.261113 -0.046823 -0.142166 -0.347770 0.184319 0.462094 -0.205435 0.105466 0.331961 -0.236331 0.360912 0.037074 0.047726 0.178473 0.012915 0.019533 -0.296772 0.245833 0.191067 -0.201820 
that 0.161888 -0.236496 0.117030 -0.704272 -0.060400 0.006786 -0.542102 -0.027874 -0.527329 0.672358 -0.106499 0.278505 -0.326236 0.004387 -0.213318 0.430053 0.178568 0.381900 -0.349053 0.403233 -0.032360 -0.234214 -0.140228 -0.017034 0.209426 -0.247726 -0.198613 0.104523 -0.073689 0.602000 0.376714 -0.224808 -0.587127 0.070684 -0.372007 -0.215916 0.535648 0.408987 -0.230800 -0.226552 0.082510 -0.191958 -0.509644 0.038725 0.221384 0.243855 -0.246681 0.512139 -0.021468 0.001055 -0.292240 -0.231575 -0.176975 0.196442 -0.030214 -0.050883 -0.117601 -0.165182 -0.261398 0.088798 0.190975 0.255513 -0.470923 0.083212 -0.062907 0.225796 0.231100 0.129381 0.410434 0.201937 0.180733 -0.071524 0.470453 -0.438631 0.031724 0.262841 -0.404614 0.256591 0.156617 -0.420662 0.156132 0.039581 0.201329 -0.046506 -0.069960 0.185059 0.094760 0.089734 0.721814 -0.037874 0.283569 0.110725 0.087892 -0.464485 0.229542 0.663242 0.238133 -0.059153 0.262060 -0.079684 
She 0.127074 -0.166206 0.043287 -0.626852 -0.003884 -0.069113 -0.069980 0.266388 -0.104668 0.361024 0.067746 0.389418 -0.221413 -0.259749 -0.205887 0.552451 -0.080031 0.170423 -0.110877 0.590650 0.043171 -0.203031 -0.259778 -0.203602 0.258521 -0.244449 -0.342638 0.423130 -0.182583 0.071049 0.642099 -0.255903 -0.244157 0.407569 -0.119460 -0.091383 0.767456 0.413335 -0.110528 -0.408939 -0.007283 0.089182 -0.556653 -0.051188 0.158903 0.011598 0.168635 0.335392 0.366464 -0.116495 -0.018771 -0.268454 0.293759 0.221543 -0.341223 0.020738 0.050997 0.267808 -0.069996 0.071552 0.051305 -0.085875 -0.239878 -0.064342 -0.164219 0.209725 -0.139929 -0.229280 0.365239 0.150146 -0.135441 -0.155681 0.285788 -0.083808 -0.072603 0.315979 -0.408516 0.033464 0.212700 -0.337138 -0.268890 -0.037333 0.065933 -0.117803 0.070598 0.350090 -0.180653 0.023922 0.565217 -0.104523 0.057622 0.233140 -0.354314 -0.284942 -0.094044 0.665976 0.287432 -0.028904 -0.372279 -0.041575 
xxname(s) -0.115932 0.446322 0.207256 0.226965 0.076955 0.033359 0.244367 -0.275525 -0.286615 -0.568446 -0.157629 0.082071 -0.018773 -0.320015 -0.213495 -0.187832 0.262809 -0.218244 -0.172083 0.017956 -0.002634 0.078901 0.014730 0.246256 -0.249327 0.005766 0.639155 0.413546 -0.209968 -0.548750 -0.240750 -0.069908 -0.036146 -0.523594 0.076085 0.042930 0.193894 -0.017053 -0.183281 0.154842 0.067877 0.141444 0.392739 -0.378226 -0.279139 -0.293796 0.287139 0.226804 -0.053094 -0.366250 -0.119075 -0.321426 0.752972 -0.001474 -0.193669 -0.005968 -0.189393 -0.230068 -0.132625 -0.136222 -0.731771 0.253163 0.222951 -0.411366 0.137956 0.053856 0.345003 -0.263863 -0.426864 -0.174304 0.081504 0.274342 -0.080153 0.630963 0.158822 0.000919 0.274494 -0.190197 -0.043315 0.498791 -0.303730 0.039497 -0.510092 0.352446 -0.089225 -0.118910 -0.128026 0.013195 0.142566 0.182717 -0.177915 -0.146579 -0.302777 0.022422 -0.027244 0.008973 -0.132312 0.203235 -0.670046 0.135779 
Referrals -0.339341 -0.525946 0.366166 -0.483452 0.102964 0.214822 -0.209686 0.176841 -0.345969 0.557714 0.810174 0.116618 0.554448 0.631853 -0.712725 0.066469 0.057765 0.657072 -0.314027 -0.189975 0.306503 0.534919 0.005696 0.053969 0.861947 0.157715 -0.245691 -0.256741 -0.045371 0.486467 -0.102748 -0.530838 -0.005994 0.237475 -0.933919 -0.483723 -0.305163 0.267974 -0.050855 -0.442197 -0.156307 -0.513708 0.423835 -0.246224 0.135423 0.593637 -0.137536 -0.217578 0.122607 -0.089121 -0.931789 0.794075 -0.733780 0.204662 -0.172138 -0.965868 -0.562823 0.294857 0.106817 0.612712 0.540182 0.514699 0.153041 -0.439139 0.539158 0.054221 0.047493 -0.127020 0.563422 -0.137494 -0.032224 0.157027 0.134360 -0.235808 -0.111612 -0.102723 -0.199301 0.055609 -0.158618 -0.720304 -0.089267 -0.290866 0.902975 -0.291270 -0.405442 -0.360362 0.009550 -0.002626 1.067482 -0.359260 0.752076 0.141337 -0.032854 -0.150615 -0.090273 -0.133173 -0.144802 0.013956 1.282713 0.078324 
Secondary -0.120862 -0.190128 -0.069401 -0.073548 -0.151773 -0.056164 0.088868 0.094419 0.245011 0.066536 0.285640 -0.058738 -0.253937 -0.143390 -0.077311 0.029851 -0.070983 0.114626 0.057727 -0.056513 -0.148367 0.181628 -0.008344 -0.052635 0.074778 0.176788 -0.023665 -0.113479 0.092567 0.092405 -0.125277 -0.053017 -0.070416 0.188603 0.037497 0.113025 -0.175389 -0.215950 0.069787 -0.006767 0.046406 0.202448 -0.071344 -0.254524 0.016181 0.249103 -0.313023 0.012640 -0.138533 0.019581 0.172833 0.134934 -0.183022 -0.269658 0.125980 0.092071 0.266961 -0.069055 0.043145 -0.209490 0.179832 -0.320022 0.075782 0.019816 0.125011 0.158930 0.107983 0.033759 0.007416 0.051212 0.041758 0.105390 -0.224916 -0.173513 -0.276758 0.208113 -0.014886 0.061059 -0.256070 -0.293492 0.236251 0.146806 -0.185952 -0.107022 0.009289 0.225749 -0.073914 0.053795 0.070356 -0.168958 0.158834 -0.162316 0.196425 0.154181 -0.083485 -0.031534 -0.219621 0.156135 0.263997 -0.237689 
Status: 0.004835 -0.002090 0.003208 -0.000827 -0.002460 0.003768 0.003867 -0.000473 -0.004119 -0.001185 0.001178 -0.000226 -0.002488 -0.002418 -0.000956 -0.004305 0.002591 -0.002898 0.003874 -0.004429 0.003773 -0.003095 0.004573 0.000184 -0.003785 -0.000978 0.002547 0.002814 -0.002427 -0.002015 0.001703 -0.000757 -0.001996 0.000825 -0.001553 -0.002248 0.000162 -0.002927 0.001685 -0.000878 -0.000794 -0.001239 0.002823 -0.003365 0.002791 0.000419 -0.004232 -0.003929 0.001072 -0.000921 -0.003074 -0.004287 -0.003292 0.004273 -0.004797 -0.003659 0.004853 -0.001969 0.002005 0.001237 0.003164 0.004884 0.001239 -0.003819 0.001797 0.001865 -0.000689 -0.000544 0.003409 -0.001496 -0.004873 0.001842 0.003156 -0.003168 0.000094 -0.003380 -0.001306 0.001381 -0.001883 -0.000428 0.000179 -0.000818 -0.004397 -0.001020 0.000267 -0.000234 0.001458 -0.004377 0.004116 -0.004835 -0.002912 0.002785 -0.000620 -0.000091 -0.003600 -0.003755 -0.003784 0.001030 -0.004200 0.004285 
Pre-Hospitalization -0.297171 -0.717859 0.330038 -0.509699 0.363913 0.394091 -0.039555 -0.237033 -0.935391 0.148654 0.159587 -0.025436 -0.051677 -0.047402 0.028073 0.367973 0.454518 0.263925 0.194297 -0.032010 0.052845 0.184121 -0.123525 0.088617 -0.449444 0.192686 -0.116712 0.355579 -0.065843 -0.118032 0.077491 0.085524 -0.199207 0.012301 -0.790219 0.074808 0.583520 -0.061847 -0.296169 -0.155439 0.273748 0.017836 0.149050 -0.101847 -0.375425 0.416397 -0.003535 -0.021750 -0.005255 -0.493129 -0.472799 0.253713 0.305249 0.513985 -0.266506 -0.150205 0.104023 0.072414 0.011004 0.213277 -0.573836 0.230052 -0.057515 -0.388609 -0.482659 0.516306 -0.258062 0.200055 0.709883 -0.090302 -0.169995 0.050664 -0.138633 0.664995 -0.099339 0.063413 -0.039029 -0.308924 -0.297122 0.051057 0.072125 -0.297596 0.307530 -0.135679 0.184180 0.582675 -0.077132 0.223265 0.661565 0.202468 -0.002434 0.212387 -0.121154 -0.196510 0.058718 0.344449 -0.055559 0.094611 -0.235150 0.127410 
DME -0.254243 -0.099707 -0.149338 0.397035 0.092763 0.082272 0.276080 -0.102014 0.558444 -0.402411 0.004779 0.130223 -0.468467 -0.250046 -0.088998 -0.069651 0.306412 -0.017543 0.650340 -0.129282 -0.117775 0.326965 0.237402 -0.234712 -0.279704 0.049744 0.163508 0.130050 0.095833 -0.378432 -0.498691 0.233237 0.053069 0.209678 0.194161 0.484150 -0.206210 -0.457548 0.333518 0.325826 -0.013394 0.457144 0.207849 -0.177912 -0.029445 0.047075 -0.005840 -0.135738 -0.436169 0.129722 0.245292 -0.026623 0.285737 -0.129432 -0.066540 0.133973 0.371046 0.061071 0.142596 -0.520217 -0.245683 -0.739072 0.391814 0.047740 -0.227933 -0.129234 -0.083007 -0.070986 -0.109429 -0.150859 -0.261782 0.079405 -0.403332 0.050586 -0.278159 0.048704 0.110728 -0.023881 -0.423204 -0.008958 0.357194 0.077317 -0.400078 -0.368473 0.366071 0.422314 -0.303016 -0.037822 -0.392606 -0.092352 0.011320 -0.092550 -0.005423 0.476497 0.016172 -0.280512 -0.279744 0.034061 -0.349702 -0.273920 
O[2]: -0.332399 -0.276402 -0.010598 0.144830 0.135043 0.064399 0.232596 -0.107800 0.372533 -0.310852 0.125575 0.176814 -0.583632 -0.336336 -0.277463 0.017717 0.419319 0.152531 0.563673 0.012756 -0.079440 0.340487 0.066060 -0.247674 -0.265929 0.120951 0.050207 0.233759 -0.075332 -0.266999 -0.330465 0.116393 -0.111136 0.256031 -0.034983 0.363555 0.056401 -0.385021 0.152223 0.182799 0.018870 0.409115 0.090039 -0.255600 -0.069147 0.200017 -0.016911 -0.065163 -0.478089 -0.001284 0.136114 -0.012929 0.497061 0.040543 -0.114073 0.015056 0.298760 0.038353 0.194563 -0.461996 -0.320684 -0.659902 0.287167 -0.103243 -0.229463 0.081029 -0.088219 -0.028360 0.161128 -0.190278 -0.330586 0.137989 -0.301147 0.112910 -0.192243 0.110128 -0.105751 -0.062906 -0.368986 -0.092135 0.343099 0.033931 -0.406214 -0.392764 0.423716 0.608992 -0.315062 -0.064988 0.036102 -0.142451 0.095400 -0.087036 -0.169803 0.366092 0.119977 -0.057943 -0.207869 0.078562 -0.359843 -0.346494 
Functional 0.004356 -0.123362 0.243643 0.616225 0.745253 0.400824 -0.120420 -0.509855 0.095470 -0.035510 -0.384520 0.514104 -0.294087 -0.056846 -0.087256 -0.083103 1.035104 -0.322472 0.851201 0.258727 0.055357 0.291244 0.576103 -0.330094 -0.435383 -0.467590 0.254841 0.403434 0.263408 -0.345359 -0.915383 0.155795 -0.195464 -0.280027 -0.250852 0.426267 -0.006807 0.044544 0.389256 0.158683 -0.035991 0.015685 0.452759 -0.035386 0.147600 0.078044 0.533582 -0.082368 -0.124638 -0.057562 -0.133486 -0.168954 -0.179217 0.396855 -0.213517 -0.547256 0.063685 0.077772 -0.138381 -0.031874 -0.538735 -0.279958 0.224011 -0.217990 -0.822385 -0.119497 -0.081421 -0.162865 0.170498 -0.058190 -0.008211 0.049117 0.157641 0.106617 -0.381543 -0.505787 0.179433 0.014386 -0.617192 0.140986 0.264662 -0.197545 0.416471 -0.397256 0.347579 0.267349 -0.313893 0.063269 -0.372682 0.452555 0.020355 0.307841 -0.182740 0.501298 0.048803 -0.061715 -0.267391 -0.088568 -0.250626 -0.249540 
Status 0.024006 0.204068 -0.043278 0.942276 0.252612 0.233386 0.101186 -0.510708 0.501490 -0.653990 -0.400716 0.070087 -0.453650 -0.086871 0.188821 -0.167212 0.506380 -0.421701 0.753633 -0.103486 0.094262 0.202581 0.575427 -0.324821 -0.603460 -0.110783 0.451378 0.152599 0.279549 -0.538193 -0.957254 0.452540 0.026932 -0.157939 0.427206 0.846109 -0.552951 -0.302110 0.587146 0.497950 0.164930 0.410657 0.376724 -0.100796 0.101858 -0.010255 0.188799 -0.196773 -0.243867 0.122319 0.341517 -0.333915 -0.052280 -0.074863 -0.061901 0.038746 0.420103 0.036346 -0.142125 -0.590926 -0.567683 -0.746831 0.377236 -0.055533 -0.652725 -0.328908 -0.007679 -0.152940 -0.378693 -0.247243 -0.172305 0.028220 -0.404442 0.197791 -0.551956 -0.293326 0.284384 0.005006 -0.594740 0.290076 0.420764 0.006219 -0.152905 -0.318200 0.306726 0.297494 -0.350439 0.170760 -1.018714 0.422270 -0.050050 0.066881 0.129926 0.612548 -0.024145 -0.280087 -0.298042 -0.006546 -0.665523 -0.268202 
Contact(s): 0.183586 0.175823 0.203081 0.128073 -0.022562 -0.404612 0.365112 -0.057274 0.283099 0.158622 -0.327025 0.234416 0.054715 -0.476303 0.284043 -0.309195 0.041341 -0.555049 0.356152 0.377547 -0.055021 -0.246584 -0.282395 -0.102077 -0.338633 -0.037893 0.073843 0.341599 0.039922 -0.360970 0.006452 0.122494 0.071654 -0.131280 0.474307 -0.015596 0.475991 -0.073997 -0.005142 0.147304 -0.138208 0.118596 -0.325432 -0.311750 -0.014840 -0.069426 0.081497 -0.195978 0.460899 -0.325212 0.496793 -0.374826 0.313819 -0.403756 0.019056 -0.094708 0.081450 -0.158409 0.219062 -0.107459 -0.057678 0.051392 -0.197617 -0.048223 -0.008234 0.513049 -0.021033 -0.266072 -0.258577 0.203630 0.076099 0.225042 0.145232 0.227224 -0.352540 -0.205001 -0.126887 -0.070744 -0.159362 0.290052 -0.268771 0.091144 -0.414370 0.504407 -0.028287 0.285263 -0.018771 -0.003353 0.069503 0.273521 -0.479790 -0.128208 -0.285852 0.024903 -0.224211 0.234220 -0.048882 0.548402 -0.295660 -0.092675 
Proxy: -0.007164 -0.316558 0.369261 -0.047178 0.377474 -0.071067 -0.595861 0.081084 -0.693372 -0.003133 -0.092787 -0.475496 0.593812 0.658648 0.142647 0.371398 -0.064573 0.212121 -0.284976 0.012309 0.570844 -0.045890 -0.019729 -0.004305 -0.350190 -0.109867 -0.638995 0.234815 -0.459773 0.370888 0.298277 -0.051881 -0.048042 -0.599496 -0.882488 -0.106810 -0.138643 0.381170 -0.180643 -0.668621 0.002715 -0.600932 -0.265714 0.740851 -0.067608 0.182923 0.293582 -0.353741 -0.032258 -0.357090 -0.264721 0.404995 -0.746129 1.136199 0.019642 -0.104092 -0.312923 -0.097628 0.158314 0.762752 -0.339194 0.607981 -0.331436 -0.570223 -0.508420 0.198181 -0.685305 0.549022 0.909048 -0.480766 0.241017 -0.103720 -0.389559 0.097392 0.381861 -0.290958 0.016986 -0.633743 0.738930 -0.293346 -0.388889 -0.400589 0.954610 -0.149428 0.031869 0.280852 0.164124 0.392094 -0.339344 0.220773 0.377527 0.269987 0.129941 -0.704597 0.263280 0.098614 0.290117 -0.174561 -0.159665 0.476530 
Dialysis: 0.043262 0.075507 0.098859 0.249265 0.168021 0.167613 0.001027 -0.110314 -0.098769 -0.342804 -0.247482 -0.047319 0.044590 0.089993 0.076644 0.050403 0.004976 -0.306513 0.170228 -0.163660 0.109571 0.069380 0.290529 -0.252309 -0.428217 -0.039676 0.148749 0.123669 0.151612 -0.202792 -0.240583 0.162148 0.096169 -0.067606 0.101966 0.289606 -0.001002 -0.065418 0.139985 0.142948 0.187986 -0.011889 0.156662 0.002715 -0.063255 -0.003834 0.282840 -0.210556 0.043140 -0.015058 0.050058 0.017777 0.077678 0.056334 -0.108462 -0.045132 0.024620 0.172424 -0.174556 -0.042718 -0.317292 -0.099437 0.141060 -0.304299 -0.404355 0.049840 -0.058254 -0.047826 0.025788 -0.130707 -0.133141 -0.117111 -0.044744 0.304492 -0.174045 -0.167183 0.219449 -0.154376 -0.171352 0.436064 0.080504 -0.179694 0.232529 -0.086161 -0.006420 0.067052 -0.148511 0.181471 -0.349841 0.312854 -0.177463 0.141505 -0.067182 0.107985 -0.049796 -0.019272 -0.124968 -0.050912 -0.445005 0.004245 
Recommended: -0.291225 -0.432325 -0.151857 -0.686647 -0.711445 -0.145733 -0.263591 0.507542 0.061481 0.313427 0.869063 -0.369914 0.054757 0.510803 -0.516246 0.293437 -0.707403 0.944644 -0.791852 -0.338662 0.249886 0.256446 -0.176801 -0.031595 0.890473 0.548827 -0.418961 -0.625176 -0.128690 0.815678 0.383813 -0.328430 -0.061187 0.670732 -0.265376 -0.240292 -0.616677 0.043131 0.008369 -0.373269 0.075645 -0.146349 -0.266036 -0.190225 0.198578 0.670440 -0.888326 0.001733 -0.144426 0.252461 -0.366140 0.607249 -0.765931 -0.301409 0.126834 -0.104529 -0.073246 0.137336 0.099375 -0.011387 0.938612 -0.010149 -0.044606 0.013417 0.790550 0.001492 0.074068 0.124142 0.268309 -0.139241 -0.147377 0.018044 -0.252352 -0.724359 -0.197169 0.480990 -0.425198 0.216556 0.202140 -1.048098 0.231821 0.110899 0.294019 -0.263056 -0.432976 -0.163739 0.108880 0.121728 0.629079 -0.678814 0.894192 -0.178585 0.546829 -0.339690 -0.001306 -0.014659 0.006536 -0.012541 1.115920 -0.053872 
multidisciplinary -0.366824 -0.333334 0.507198 0.043196 0.724322 0.636569 0.411791 -0.364834 -0.616113 -0.235920 0.295943 0.308679 0.173228 -0.018951 -0.319130 0.061789 0.652274 -0.198648 0.471686 -0.129030 0.089895 0.547690 0.213557 0.017880 -0.367883 0.088751 0.512729 0.601908 0.131854 -0.791249 -0.483560 -0.159938 0.146798 -0.187450 -0.576132 0.083627 0.250845 -0.219954 -0.024418 0.043188 0.063013 0.126030 0.907274 -0.604882 -0.342896 0.075856 0.645762 -0.277834 0.156815 -0.604220 -0.628092 0.265345 0.652926 0.390197 -0.585742 -0.611723 -0.172651 0.315131 -0.129378 0.206530 -0.811897 0.168064 0.420720 -0.890287 -0.240563 0.304071 0.037783 -0.439602 0.263042 -0.155338 -0.134626 0.170677 -0.120631 1.213927 -0.128309 -0.223145 0.196410 -0.313811 -0.636198 0.530174 -0.131153 -0.439373 0.238644 -0.186083 -0.072082 0.215756 -0.361430 0.161359 0.732355 0.200289 -0.241371 0.244122 -0.695418 0.319000 -0.210693 -0.043504 -0.340529 0.195922 -0.350996 0.101076 
team: -0.367225 -0.245521 0.439642 0.223876 0.563328 0.625847 0.335559 -0.153995 -0.424428 -0.408528 0.377220 0.047955 0.488068 0.399917 -0.298437 0.071331 0.228338 -0.133843 0.290174 -0.407023 0.182959 0.650588 0.401919 -0.097015 -0.179001 0.166617 0.399112 0.245380 0.204706 -0.577718 -0.515901 -0.104315 0.381029 -0.019823 -0.508826 0.131824 -0.172178 -0.190328 0.103047 0.021551 0.112146 -0.083022 1.014505 -0.382626 -0.280178 0.096718 0.574057 -0.491453 0.101566 -0.303696 -0.569204 0.571819 0.254196 0.338164 -0.477215 -0.581559 -0.236598 0.488193 -0.151006 0.346123 -0.569379 0.092904 0.517626 -0.905697 -0.145917 0.042297 -0.027646 -0.349769 0.237531 -0.303682 -0.254921 0.007787 -0.248393 1.009735 -0.133867 -0.285038 0.366097 -0.327878 -0.515285 0.486881 -0.091926 -0.494889 0.600101 -0.327224 -0.193458 -0.087418 -0.282216 0.212995 0.287935 0.169927 -0.103652 0.254414 -0.453516 0.289969 -0.245887 -0.307754 -0.372087 0.042370 -0.124898 0.196016 
was 0.079542 -0.293352 -0.053096 -0.537303 0.091878 -0.008587 -0.238806 -0.013383 -0.173013 0.435080 0.168296 0.233481 -0.452299 -0.171428 -0.095663 0.608238 0.218082 0.292499 0.063520 0.381561 -0.065107 -0.070893 -0.185618 -0.069880 0.278332 -0.241754 -0.301365 0.052755 0.035015 0.310397 0.253342 -0.180105 -0.478177 0.457678 -0.259025 0.101413 0.383965 0.290083 0.034688 -0.326281 0.005376 0.268646 -0.462637 -0.053665 0.223419 0.257988 -0.136907 0.448631 0.075320 0.031701 -0.092801 -0.244549 -0.200278 0.126802 -0.124314 0.000943 0.225484 0.078023 -0.188850 -0.069754 0.087055 -0.267283 -0.102920 0.118119 -0.270984 0.118548 0.113929 0.022851 0.382960 0.180942 0.059477 -0.154981 0.152916 -0.467620 -0.228995 0.335214 -0.256903 0.152717 -0.091710 -0.654747 0.147580 -0.013460 0.082008 -0.402510 0.156796 0.428725 -0.029144 -0.009452 0.378919 -0.090089 0.357386 0.219477 0.034578 -0.113388 0.067198 0.594937 0.084560 -0.059153 0.071156 -0.158963 
rehab 0.053513 -0.175536 -0.157743 -0.328860 -0.023441 0.022519 -0.173162 0.106460 -0.096831 0.514922 -0.055297 0.197321 -0.269771 -0.070046 0.159141 0.223305 0.046585 0.120178 0.020414 0.102354 -0.281683 -0.150074 -0.060347 0.090026 0.064034 -0.189739 -0.151615 -0.106518 0.232203 0.336747 0.251513 -0.041217 -0.244686 0.179143 -0.040511 -0.206952 0.259086 0.056161 -0.148989 0.014496 -0.053100 -0.040201 -0.286897 0.182863 0.082640 -0.002314 -0.137912 0.244668 -0.136008 0.179930 0.000808 -0.057462 -0.008676 0.017673 0.144122 0.212578 0.175430 -0.075091 -0.110533 0.011198 0.319304 -0.034804 -0.287896 0.398648 -0.083893 -0.023663 0.070146 0.143821 0.117521 0.370888 0.116388 -0.126263 0.330056 -0.310770 0.149134 0.141801 -0.183360 0.129827 0.077201 -0.135385 0.219990 0.106954 -0.070504 -0.014976 0.093052 0.035993 0.192404 -0.144551 0.135801 -0.154736 -0.127740 -0.001182 0.083872 -0.083409 0.203444 0.174729 0.170720 -0.076016 0.281001 -0.151832 
reviewer:: -0.019559 0.229239 -0.072044 0.212480 -0.034506 -0.108318 0.417574 0.141720 0.267350 -0.123288 0.067815 -0.039304 0.392614 -0.118016 0.097221 -0.380747 -0.187655 -0.249480 0.067576 -0.116562 -0.069588 -0.066037 -0.177113 0.181187 0.072395 0.121808 0.064720 -0.085703 0.043500 -0.340118 0.100355 -0.018519 0.436325 -0.009123 0.263249 -0.248698 0.017608 -0.191898 -0.079160 0.117201 -0.183160 0.004453 0.175997 -0.040575 -0.127077 -0.330782 0.189496 -0.269677 0.156044 -0.031448 0.086139 0.120785 0.360341 -0.225467 0.053143 -0.001716 -0.105716 0.080210 0.240774 0.079113 0.120187 0.122458 0.113917 0.080111 0.344178 -0.098526 -0.141523 -0.150662 -0.328513 0.090302 -0.076698 0.066038 -0.012968 0.270834 0.212435 -0.125926 0.087906 -0.102626 0.086031 0.323359 -0.301372 0.024373 -0.257427 0.277367 -0.080390 -0.335911 0.072261 -0.258973 -0.039329 -0.105757 -0.359387 -0.148803 -0.264829 0.115398 -0.143241 -0.375750 0.032407 0.091481 -0.019581 0.140398 
To -0.040554 0.193875 0.236488 -0.236979 -0.106825 -0.043881 0.085910 -0.301565 -0.473382 0.261440 -0.110032 0.379446 -0.576819 -0.662219 -0.325596 -0.211057 0.691641 0.073949 -0.132912 0.142107 -0.443850 -0.009454 -0.237966 0.388272 -0.115614 -0.093832 0.700344 0.191202 -0.012503 -0.220957 -0.225127 -0.234751 -0.587373 -0.350064 -0.042678 -0.139481 0.705368 -0.110202 -0.360237 0.330144 0.020569 0.080557 -0.030233 -0.669396 -0.171291 -0.016523 -0.233810 0.568788 -0.439640 -0.291467 -0.407591 -0.433201 0.922321 -0.413970 -0.088958 -0.036243 -0.077614 -0.596634 -0.115093 -0.396091 -0.272828 0.124776 -0.017372 0.096439 0.324856 0.457987 0.730506 -0.161032 -0.461641 0.212174 0.239565 0.543375 0.503793 0.172726 0.088783 0.302624 -0.081870 0.196069 -0.443784 0.308673 0.205917 0.292567 -0.898762 0.413820 0.018928 0.047152 0.047558 -0.381921 1.001757 0.080927 -0.148690 -0.384348 -0.190999 0.004285 0.305515 0.304351 -0.071375 0.396943 0.032344 -0.219967 
home 0.121105 -0.427833 0.086676 -0.457243 0.045196 0.150407 0.073827 -0.064628 -0.450727 0.502405 0.217634 -0.042392 0.017314 0.137256 0.322989 0.415356 0.109437 0.132759 0.066341 0.187534 -0.038177 -0.168061 -0.347161 0.218114 0.182187 0.056338 -0.231380 -0.040545 0.161638 -0.058832 0.381584 0.009219 -0.026738 0.386784 -0.310418 -0.094643 0.235259 0.044357 -0.034447 -0.081622 0.056131 0.059050 -0.260109 -0.001070 -0.022247 0.153569 -0.091852 0.017494 0.293774 -0.222305 -0.262356 -0.031560 0.024080 0.039373 -0.178704 0.089434 0.187375 0.066786 -0.107942 0.117496 0.065676 -0.006013 -0.292032 0.078556 -0.010557 0.071694 -0.118745 0.015836 0.171472 0.253760 -0.015212 -0.077321 -0.076566 0.270943 -0.076967 0.124157 -0.268982 0.045793 -0.125935 -0.276692 0.078981 -0.050450 0.149949 -0.191419 0.030373 0.279080 0.087673 -0.027366 0.551838 0.016170 -0.149412 0.194644 -0.085701 -0.104623 0.066699 0.327676 0.302684 0.012213 0.179198 0.193214 
Rehab 0.008191 0.006584 0.023379 -0.027647 0.076152 0.041511 -0.138881 -0.057250 -0.075090 0.117044 -0.201121 0.200957 -0.202381 -0.128092 -0.013418 0.050706 0.162503 -0.031100 0.046054 0.102648 -0.095363 -0.039467 0.088972 -0.084684 -0.224955 -0.114274 0.066707 0.114262 0.081914 0.065053 -0.062729 0.017360 -0.178155 -0.072582 -0.002611 0.004503 0.181545 0.065233 -0.043772 0.058404 0.023069 -0.040207 -0.079964 0.009345 0.021611 0.023611 0.028802 0.115904 -0.115723 0.032178 0.001478 -0.097778 0.034620 0.081510 0.044238 0.040847 0.049230 -0.067608 -0.096447 -0.075368 -0.065263 0.038084 -0.088348 0.037147 -0.221691 0.077170 0.069437 0.008866 0.062473 0.109281 0.062689 -0.031325 0.216972 -0.073812 -0.034435 -0.008585 -0.056022 -0.004444 -0.035075 0.096779 0.132856 -0.014315 -0.020612 0.055248 0.021386 0.089843 -0.008460 0.000257 0.020118 0.083747 -0.057142 -0.021783 -0.019223 -0.022077 0.089174 0.158011 -0.015373 0.010700 -0.075659 -0.145743 
xxdate 0.534698 0.241092 -0.103965 -0.463342 -0.397815 -0.316469 0.097983 0.170627 0.099376 0.644197 -0.374275 -0.007369 0.145837 0.159888 0.321908 -0.132188 -0.208882 -0.287408 -0.118958 0.047261 -0.322400 -0.619397 -0.375236 0.446240 0.546277 -0.239088 -0.110159 -0.576469 0.475514 0.217429 0.485302 0.024035 0.093907 0.533888 0.459079 -0.586826 0.376569 -0.002096 -0.034575 0.470518 -0.069083 -0.230452 -0.753559 0.090341 0.190551 -0.252088 -0.004256 0.043876 0.270668 0.343733 0.014746 -0.339363 0.279849 -0.676360 0.274995 0.312182 -0.031263 -0.077992 -0.243935 0.063108 0.904777 0.140177 -0.453398 0.633936 0.518035 -0.373666 0.278963 0.012094 -0.572599 0.772459 0.030703 -0.117864 0.609557 -0.394979 0.414845 -0.021007 -0.256631 0.423220 0.107373 0.155967 0.126533 0.245604 -0.215202 0.191917 -0.178129 -0.457719 0.485274 -0.608251 0.344175 -0.156605 -0.568413 -0.033770 -0.083485 -0.044695 0.231986 -0.027251 0.626873 -0.168468 0.485563 0.112099 
Case 0.046625 -0.226145 0.199316 -0.511847 0.008056 -0.053551 -0.224290 0.046808 -0.608583 0.483035 0.206889 -0.036472 0.374681 0.362521 0.005526 0.283929 -0.130211 0.303358 -0.484666 0.187500 0.225084 -0.107892 -0.297360 0.161777 0.299215 0.117954 -0.198386 -0.128903 -0.038767 0.248423 0.476714 -0.157014 -0.035945 0.110938 -0.471612 -0.435501 0.066603 0.284182 -0.179273 -0.404345 -0.089382 -0.262471 -0.128646 -0.005123 0.008281 0.168247 -0.142703 0.063990 0.281845 -0.219010 -0.433491 0.140446 -0.336409 0.233762 -0.048535 -0.171922 -0.271778 0.023980 -0.026712 0.425279 0.139027 0.627593 -0.424591 -0.218294 0.299473 0.104681 -0.010865 0.029099 0.330347 0.063601 0.215721 -0.083384 0.079146 0.040583 0.099945 0.090880 -0.307478 0.008185 0.271174 -0.454384 -0.186154 -0.177234 0.474805 0.017781 -0.352308 -0.061024 0.199258 0.139243 0.733532 -0.113169 0.070693 0.070203 -0.016072 -0.484098 0.021263 0.372675 0.237755 -0.008017 0.471255 0.368670 
follow 0.095605 0.191203 -0.157679 -0.527452 -0.537928 -0.138871 -0.731766 0.294877 -0.455522 -0.272789 0.084086 -0.325468 -0.087626 0.323555 -0.346567 0.703900 -0.877079 0.586399 -1.187683 0.021581 0.385345 -0.073732 0.023139 -0.439003 0.234531 0.187008 -0.241509 -0.168001 -0.422150 0.757723 0.655667 -0.099264 -0.317967 0.154827 -0.061210 0.115243 -0.152116 0.484764 -0.049092 -0.630997 0.308682 -0.103432 -0.335659 0.156796 0.166307 0.258737 -0.468858 0.504527 -0.019511 0.230438 -0.091178 0.010931 -0.576498 0.136460 -0.034393 0.312729 -0.207264 0.080467 -0.338844 -0.068069 -0.010722 0.202228 -0.187220 -0.230195 0.105751 0.053163 0.177568 0.204342 0.399800 -0.442821 0.078079 -0.363160 -0.105345 -0.456759 -0.041678 0.623631 -0.107158 0.162436 0.651905 -0.568196 -0.035610 -0.011522 0.468661 -0.189818 -0.355719 -0.055800 -0.097548 0.567014 0.094545 -0.159747 0.579604 0.103025 0.511182 -0.697105 -0.054066 0.559853 0.055207 -0.399100 -0.148065 0.238456 
DC 0.210999 -0.007821 -0.205098 -0.509020 -0.513911 -0.139950 -0.730057 0.215128 -0.252077 -0.126523 -0.030634 -0.235561 -0.423743 0.147924 -0.227392 0.779715 -0.597961 0.535548 -0.802131 0.172339 0.208362 -0.112259 0.020661 -0.579358 0.057060 0.080029 -0.331112 -0.070473 -0.323612 0.752590 0.580193 -0.005052 -0.487158 0.314573 0.006137 0.304536 -0.049553 0.344493 0.071475 -0.525274 0.315009 0.057514 -0.646671 0.156312 0.270926 0.331320 -0.560679 0.548781 -0.158488 0.277703 0.166758 -0.164406 -0.550155 0.091463 0.014259 0.406722 0.056967 0.039455 -0.329734 -0.312034 0.037991 -0.195161 -0.298738 -0.035102 -0.108974 0.167371 0.110289 0.266768 0.440158 -0.366320 0.028989 -0.357139 -0.118899 -0.573494 -0.229048 0.622307 -0.211745 0.250507 0.492827 -0.685861 0.248223 0.047785 0.294897 -0.340146 -0.091181 0.353841 -0.171608 0.512617 0.023146 -0.111186 0.544954 0.116908 0.580399 -0.571029 0.030024 0.679695 0.031743 -0.314388 -0.231523 0.025987 
insurance -0.177451 -0.011136 -0.200124 0.266478 0.399020 -0.154245 0.531553 -0.224762 0.525704 0.388988 0.232615 0.460446 -0.134817 -0.518843 0.225545 -0.293336 0.693646 -0.218128 0.713315 0.302539 -0.394422 0.025591 -0.245074 0.398685 0.128991 0.010932 0.249001 -0.248455 0.579449 -0.476383 -0.296192 -0.052237 0.071088 0.237427 0.218378 -0.242957 -0.076156 -0.363392 0.013701 0.190122 -0.511349 0.544628 0.162589 -0.387469 -0.050041 -0.228067 -0.016454 -0.006417 -0.199702 -0.053828 0.023679 -0.115482 0.087168 -0.314293 0.321770 -0.097455 0.381734 -0.122035 0.283176 -0.133975 0.127144 -0.210168 0.075270 0.360155 0.097945 -0.204605 0.031502 -0.169261 -0.371433 0.558626 0.243814 0.147926 0.234792 -0.250061 -0.053595 -0.054542 -0.027299 0.022210 -0.495389 -0.190262 0.086339 0.038998 -0.622185 -0.000680 0.057004 -0.037093 0.261070 -0.571925 0.033419 -0.218763 -0.291687 -0.312570 -0.321123 0.522972 0.012849 -0.151483 -0.035554 0.311890 0.436896 -0.282561 
The -0.044122 -0.256980 0.134538 -0.706071 -0.033253 -0.107615 -0.417358 0.056491 -0.344791 0.539389 0.094494 0.265786 -0.336378 -0.128244 -0.394283 0.303565 0.224898 0.497776 -0.306618 0.348258 -0.049988 -0.111276 -0.183649 0.050622 0.183111 -0.070279 -0.167181 0.127097 -0.170105 0.464146 0.304831 -0.292876 -0.568373 0.094162 -0.449538 -0.320360 0.464677 0.258383 -0.246719 -0.227150 -0.006898 -0.099581 -0.521914 -0.098729 0.096160 0.255327 -0.201970 0.398505 -0.247795 -0.052777 -0.325607 -0.093904 -0.029019 0.270170 0.043143 -0.033180 -0.078728 -0.186089 -0.021514 0.043265 0.191525 0.217671 -0.362530 -0.023373 0.015458 0.273065 0.179009 0.129346 0.441661 0.130895 0.134991 0.068829 0.346935 -0.428979 0.115483 0.272168 -0.421988 0.073529 0.117919 -0.491005 0.099976 0.030949 -0.005695 -0.027461 -0.070487 0.281399 0.091001 -0.056537 0.804747 -0.212582 0.394546 -0.075009 -0.029048 -0.391460 0.221913 0.521356 0.202046 0.028182 0.278447 -0.166956 
days -0.230302 -0.310571 -0.438167 -0.206242 0.189959 -0.223047 0.114550 0.288882 0.556114 0.941155 0.560828 -0.038515 0.113056 0.006753 0.269919 -0.405542 0.146830 0.371708 0.271965 -0.153203 -0.526691 -0.073627 -0.300823 0.568600 0.474841 0.224990 -0.295526 -0.987964 0.617391 0.391501 0.025251 -0.109646 0.122778 0.389789 -0.112309 -0.855345 -0.496957 -0.387687 -0.133459 0.108847 -0.614485 0.004590 -0.162789 0.217414 -0.032572 -0.050745 -0.336290 -0.219365 -0.685291 0.547799 -0.220795 0.581703 -0.494397 -0.139440 0.752954 0.208181 0.360697 -0.187469 0.535348 0.211873 1.159837 0.033140 -0.173995 0.867302 0.378354 -0.458824 -0.107041 0.457841 0.063348 0.742999 0.300688 -0.096977 0.378044 -0.984608 0.570867 -0.080618 -0.143100 0.056327 -0.045553 -0.495652 0.381780 0.118243 -0.264629 -0.068318 -0.025472 -0.453983 0.664378 -0.901060 0.054318 -0.734313 0.067308 -0.499381 0.117294 0.277019 0.288471 -0.610745 0.240165 -0.082897 1.581682 -0.277360 
not 0.128561 -0.071626 0.070424 -0.593038 -0.003364 -0.016340 -0.347615 0.067722 -0.366953 0.403803 -0.030191 0.317712 -0.219268 -0.090927 -0.266046 0.409202 0.043546 0.261729 -0.312997 0.421164 0.027298 -0.171707 -0.105176 -0.083234 0.219484 -0.246033 -0.155626 0.211781 -0.120168 0.350922 0.399475 -0.263711 -0.423566 0.131736 -0.246086 -0.155736 0.555041 0.427174 -0.158482 -0.304432 0.029376 -0.084264 -0.374006 -0.020499 0.168678 0.081118 0.003608 0.449987 0.119514 -0.013315 -0.213836 -0.221807 0.014715 0.205940 -0.155126 -0.084991 -0.127428 0.033532 -0.208460 0.079607 0.062636 0.161519 -0.267398 -0.033480 -0.098975 0.178898 0.178498 -0.045985 0.329205 0.117105 0.066728 -0.121755 0.441438 -0.287783 0.022575 0.243049 -0.301394 0.149320 0.174117 -0.285951 -0.063488 -0.028894 0.163363 -0.056430 -0.067670 0.111869 -0.011637 0.064463 0.597262 -0.044458 0.220732 0.160455 -0.116718 -0.359328 0.054525 0.605396 0.209881 -0.081489 -0.017734 -0.038187 
care 0.216325 -0.072786 0.126710 -0.282791 0.016743 0.046385 -0.294063 -0.117605 -0.406604 0.219455 -0.150874 0.116892 -0.085273 0.045867 0.076030 0.392922 0.063128 0.100679 -0.157691 0.388483 0.206495 -0.236110 -0.088007 -0.079332 -0.014245 -0.172943 -0.191976 0.311981 -0.192719 0.143162 0.294844 -0.045676 -0.258314 -0.059064 -0.229481 0.104473 0.296539 0.426582 -0.051857 -0.265110 0.119077 -0.069474 -0.307143 0.135522 0.130687 0.085893 0.026452 0.261021 0.337680 -0.198923 -0.080713 -0.305597 -0.148939 0.293260 -0.191387 -0.063232 -0.073335 0.029260 -0.182002 0.072813 -0.227885 0.119520 -0.269742 -0.089504 -0.298981 0.151500 -0.047786 0.005223 0.276411 -0.050147 0.034471 -0.105351 0.110738 0.044034 -0.165509 0.047840 -0.201150 0.017738 0.174991 -0.199562 -0.119214 -0.086766 0.279050 -0.038032 0.034946 0.234833 -0.063620 0.265872 0.228493 0.212299 0.139230 0.283662 -0.023787 -0.345315 0.015592 0.579001 0.228767 -0.021910 -0.285373 0.119427 
Planned 0.654770 0.635820 -0.266658 -0.072960 -0.500898 -0.383426 0.022749 0.320124 0.301958 -0.106759 -0.848256 -0.226360 0.109351 0.196138 0.412766 -0.019023 -0.670326 -0.646746 -0.181607 -0.158712 -0.263708 -0.682661 0.035326 0.023145 0.033356 -0.315198 -0.060690 -0.529362 0.394018 0.182451 0.523254 0.272427 0.208835 0.459863 0.976040 -0.127561 0.323864 -0.001119 0.154236 0.549688 0.231693 -0.223174 -0.847071 0.401716 0.150404 -0.506091 0.244683 -0.060499 0.242356 0.618681 0.506711 -0.445072 0.366500 -0.680129 0.329037 0.709054 0.048012 0.127468 -0.418685 -0.107472 0.614990 -0.120756 -0.265110 0.504535 0.008771 -0.492036 0.117739 0.092014 -0.682576 0.511087 -0.172359 -0.416251 0.529300 -0.385156 0.403281 -0.026297 0.137412 0.231401 0.303581 0.682134 0.122907 0.172273 -0.118713 0.193323 -0.087591 -0.483288 0.349235 -0.384529 -0.655941 0.098282 -0.762269 0.060016 0.052480 -0.017673 0.148402 -0.100023 0.560347 -0.411524 -0.373908 0.077479 
Date: 0.640188 0.518140 -0.327266 -0.447985 -0.612434 -0.371370 -0.170410 0.508741 0.047107 0.058791 -0.766555 -0.236728 0.009778 0.162938 0.372797 0.331403 -0.840095 -0.462662 -0.415252 -0.100078 -0.266836 -0.761253 -0.015248 -0.144855 0.037039 -0.349689 -0.304852 -0.549720 0.356102 0.504360 0.921527 0.163750 0.040115 0.671279 0.829630 -0.216736 0.631851 0.107632 0.021883 0.313417 0.269713 -0.231445 -1.171871 0.488011 0.175696 -0.421310 0.177722 0.143858 0.176826 0.729277 0.379757 -0.331897 0.287726 -0.544248 0.314245 0.839386 0.049862 0.202894 -0.488352 -0.070332 0.791666 -0.133636 -0.348634 0.516394 -0.063593 -0.283492 0.077501 0.216302 -0.300079 0.504882 -0.196593 -0.568848 0.701065 -0.589787 0.474766 0.212613 0.025225 0.184398 0.478366 0.546453 0.199652 0.127470 -0.009884 0.086397 -0.093711 -0.325109 0.343479 -0.358809 -0.458152 0.050493 -0.664516 0.125631 0.029363 -0.226950 0.248849 0.150577 0.595037 -0.537276 -0.389870 0.049679 
Update -0.019100 0.191083 -0.058424 0.175433 -0.033209 -0.102908 0.376920 0.129319 0.241326 -0.097879 0.057952 -0.028350 0.348854 -0.116166 0.087849 -0.333606 -0.170399 -0.226321 0.060514 -0.090052 -0.067186 -0.064097 -0.171235 0.162357 0.065081 0.104568 0.044375 -0.067968 0.036472 -0.301599 0.097643 -0.024784 0.387725 -0.000615 0.223661 -0.233039 0.037598 -0.167973 -0.082234 0.092553 -0.167604 0.001243 0.147796 -0.043781 -0.115448 -0.290976 0.168528 -0.236174 0.136614 -0.037702 0.071234 0.109090 0.326910 -0.201121 0.043327 -0.000425 -0.098085 0.074413 0.223916 0.080740 0.105769 0.110286 0.092901 0.066632 0.303484 -0.074008 -0.132075 -0.134295 -0.280801 0.083469 -0.071454 0.065669 -0.003950 0.246389 0.187714 -0.107606 0.075266 -0.093039 0.086076 0.283074 -0.275445 0.022213 -0.225983 0.249331 -0.068258 -0.281228 0.063212 -0.234972 -0.007815 -0.095729 -0.324220 -0.129020 -0.249742 0.100139 -0.122893 -0.321996 0.032540 0.087892 -0.021774 0.121587 
reviewer: 0.175725 0.051384 -0.287896 0.180707 0.174880 -0.175856 0.156353 0.081978 0.486717 -0.131049 -0.294966 0.606813 -0.743706 -0.610954 0.073585 0.497341 0.345958 -0.306499 0.544949 0.658943 -0.323564 -0.135204 0.100187 -0.367206 -0.261080 -0.534312 -0.044928 0.330312 0.192832 -0.182636 0.207390 -0.021513 -0.260065 0.314649 0.447716 0.475470 0.491376 0.047862 0.184539 -0.136485 -0.100564 0.501146 -0.531582 -0.006016 0.089708 -0.330198 0.224293 0.431933 -0.086650 0.099387 0.630430 -0.508631 0.309162 -0.018561 0.035093 0.423905 0.553117 0.147166 -0.178767 -0.326400 -0.289788 -0.800454 -0.091427 0.100447 -0.647250 -0.035216 -0.200358 -0.192846 -0.085828 0.216192 0.013848 -0.190772 0.142136 -0.322807 -0.248058 0.326706 0.025964 -0.048560 0.041829 -0.111578 0.024982 0.142492 -0.341596 -0.311502 0.510789 0.531057 -0.097481 0.054873 -0.621057 0.070020 -0.339527 0.029479 -0.201022 0.195792 0.003010 0.455296 -0.015567 0.071312 -0.899257 -0.310881 
authorized 0.165820 0.000245 -0.368483 -0.162647 0.267094 -0.264194 -0.474072 0.258157 0.516127 0.484294 -0.255173 -0.011308 -0.335098 0.096431 0.160081 -0.132492 0.144413 0.188880 0.207516 0.031535 -0.394937 -0.321920 0.224259 -0.031926 -0.215929 -0.219480 -0.360491 -0.693438 0.454074 0.666503 -0.036805 0.056031 -0.297249 0.162304 0.005267 -0.393324 -0.234650 -0.031351 0.129113 0.137348 -0.263940 -0.240181 -0.764024 0.673485 0.120233 -0.110961 0.080560 -0.098977 -0.937597 0.895326 0.064246 0.146462 -0.468667 0.247260 0.713384 0.519294 0.398824 -0.175813 0.189840 0.034385 0.829451 -0.172426 -0.300322 0.654376 -0.620215 -0.498564 -0.094803 0.666604 0.327856 0.496822 0.179326 -0.430198 0.616063 -1.314925 0.603944 -0.228667 -0.000131 -0.101135 0.222848 -0.158474 0.592793 0.007324 0.107301 -0.203320 0.225521 -0.146482 0.487300 -0.652327 -0.737228 -0.273283 0.239098 -0.278454 0.281119 0.019710 0.434807 -0.279385 0.389016 -0.516212 0.628886 -0.488207 
to: 0.192919 0.340702 -0.490863 -0.025560 -0.060735 -0.462128 -0.198197 0.352442 0.706508 0.284350 -0.417695 0.065492 -0.316479 -0.135478 0.242242 -0.063351 -0.103108 -0.034880 0.026336 0.224593 -0.438583 -0.498287 0.092775 0.093438 -0.042450 -0.241716 -0.241769 -0.552357 0.285837 0.413577 0.305956 0.083894 -0.150772 0.244406 0.530445 -0.378130 -0.078191 0.013926 -0.020741 0.117259 -0.243353 -0.033876 -0.838676 0.638348 0.065800 -0.481940 0.046275 0.210536 -0.676861 0.767349 0.442252 -0.131714 -0.212747 0.007103 0.772648 0.802975 0.395623 -0.142234 0.143874 -0.007570 0.710440 -0.261975 -0.351941 0.774597 -0.329514 -0.591183 -0.087859 0.460499 -0.123595 0.552159 0.153630 -0.433890 0.634632 -1.222163 0.656231 0.008865 -0.035850 -0.038982 0.439026 -0.036412 0.283840 0.210306 -0.314306 0.016098 0.192458 -0.254208 0.496898 -0.601698 -0.915693 -0.280626 -0.132906 -0.340657 0.119478 0.034790 0.355072 -0.068574 0.517699 -0.398411 0.187119 -0.370401 
Meeting: 0.216715 0.482313 0.126322 0.408281 0.060063 0.148821 -0.220104 -0.156579 -0.056080 -0.677799 -0.703544 0.047990 -0.055689 0.009300 -0.163487 -0.027193 -0.050119 -0.567712 0.058378 -0.155498 0.265470 -0.074322 0.594135 -0.612203 -0.709151 -0.174841 0.301995 0.277230 0.078233 -0.152386 -0.374541 0.200275 -0.048762 -0.218607 0.391022 0.544802 0.227166 0.092501 0.240476 0.256339 0.431552 -0.092968 -0.062871 -0.009908 0.074846 -0.070708 0.487094 -0.178314 0.078783 0.105569 0.050626 -0.231704 0.203174 0.012995 -0.153389 -0.154334 -0.225497 0.305138 -0.332256 -0.256707 -0.446101 -0.155071 0.256713 -0.417595 -0.739344 0.158965 0.040199 -0.099201 -0.048263 -0.348733 -0.321208 -0.129908 0.323806 0.227813 -0.342772 -0.249568 0.270492 -0.138486 -0.248773 0.833733 0.153824 -0.250364 0.278295 0.026646 -0.088317 -0.008003 -0.336989 0.228881 -0.522065 0.607112 -0.172684 0.242513 -0.146517 0.112905 -0.055922 0.145722 -0.120988 -0.163065 -0.965969 -0.158530 
Referrals: -0.012329 0.003576 0.024441 0.005935 0.016471 0.007829 0.004723 -0.017990 -0.021458 -0.009650 0.004506 0.008953 0.028680 0.001911 -0.013405 -0.003745 0.020712 0.003352 -0.005714 0.015431 0.028983 0.006856 -0.008593 -0.004101 -0.012374 0.004014 0.003884 0.036896 -0.029570 -0.018715 -0.005363 -0.013031 -0.001069 -0.033510 -0.036247 -0.008181 0.006136 0.016192 -0.008683 -0.023809 -0.000393 -0.013498 0.012932 -0.003446 -0.005526 0.001288 0.026189 -0.010444 0.020708 -0.035718 -0.022251 -0.002912 0.006191 0.043757 -0.017059 -0.030894 -0.032947 0.004096 0.018136 0.019272 -0.038485 0.027035 0.003764 -0.036433 -0.015146 0.015149 -0.017546 -0.012769 0.018596 -0.028021 -0.005894 0.017427 -0.005804 0.031906 0.002786 -0.020918 -0.003596 -0.026197 0.010426 0.005376 -0.032278 -0.020607 0.011302 0.009477 -0.001539 0.005339 -0.010174 0.014798 0.025081 0.014576 0.019946 0.006593 -0.026589 -0.017174 -0.003614 0.010720 0.001188 0.007730 -0.026698 0.016202 
Narrative 0.254805 -0.232162 -0.229276 0.252135 0.140052 -0.016743 -0.058329 0.143837 0.402543 0.118362 -0.378436 0.155042 -0.613983 -0.061160 0.411262 0.518988 0.313085 -0.132602 0.603053 0.416771 -0.374910 -0.103211 0.190701 -0.299104 -0.231421 -0.579342 -0.306017 0.150402 0.124951 0.030438 0.189313 0.163559 -0.208422 0.184027 0.186013 0.312578 0.131470 -0.067357 0.228010 -0.100737 -0.021685 0.122758 -0.568480 0.527984 0.187994 -0.225142 0.174145 0.198909 -0.310460 0.230862 0.621329 -0.333235 0.046546 0.307654 0.045461 0.604677 0.626366 -0.023768 -0.128924 -0.107219 -0.059774 -0.802144 -0.275344 0.355869 -0.614531 -0.331823 -0.472307 0.172847 0.062377 0.174980 0.075671 -0.220838 -0.174852 -0.289175 0.100938 0.105024 -0.000003 0.006875 0.235874 -0.275462 0.294492 0.179897 -0.055262 -0.507066 0.722380 0.578848 -0.073672 -0.001365 -0.867082 0.052725 -0.314025 0.132777 0.137696 0.152968 0.314431 0.075772 0.216815 -0.241498 -0.566680 -0.104184 
Acute 0.419968 0.405720 0.070791 -0.067993 -0.237530 -0.190107 -0.423424 -0.084347 -0.171863 0.139533 -0.655949 0.088755 -0.183466 0.091903 0.218553 0.129364 -0.087218 -0.166302 -0.298107 0.332070 0.123813 -0.473708 0.073124 -0.015190 -0.121728 -0.402197 -0.035601 0.183405 -0.137807 0.299026 0.194089 0.073495 -0.358832 -0.352993 0.224653 0.032861 0.206892 0.539135 -0.008517 0.049324 0.120009 -0.300476 -0.515537 0.355426 0.245476 -0.116684 0.094246 0.334719 0.254481 0.047245 0.223457 -0.616949 -0.143506 0.097922 0.019974 0.187480 -0.123116 -0.250065 -0.309646 0.004609 -0.029406 0.248128 -0.425540 0.163581 -0.273604 -0.113869 0.192375 0.040302 -0.178121 0.080885 0.191794 -0.114671 0.323980 -0.263614 0.027733 -0.089715 -0.133585 0.100850 0.369018 0.073403 -0.071663 0.149049 0.088227 0.284749 -0.037027 -0.039828 0.119868 0.154899 -0.318721 0.330269 -0.024010 0.118484 0.147471 -0.351219 0.172017 0.447544 0.362466 -0.079982 -0.348312 0.022448 
Barrier(s) 0.109414 0.602963 0.464836 0.270042 0.059890 -0.058476 -0.132494 -0.560423 -0.382964 -0.582794 -0.776635 0.314072 -0.430467 -0.439015 -0.317911 -0.128233 0.642388 -0.377274 -0.035151 0.314474 0.153600 -0.142240 0.244812 -0.094229 -0.738680 -0.248742 0.644377 0.821229 -0.414994 -0.427574 -0.482982 0.000180 -0.500010 -0.813201 0.055512 0.352274 0.515927 0.229670 -0.045626 0.269998 0.315239 0.015153 -0.158019 -0.361877 -0.116158 -0.161978 0.404222 0.322743 -0.059691 -0.469043 -0.006563 -0.780533 0.664131 0.137021 -0.204732 -0.123254 -0.278932 -0.387131 -0.273897 -0.375364 -1.029930 0.201867 0.105446 -0.589106 -0.493279 0.323084 0.432604 -0.224424 -0.294724 -0.321358 0.088019 0.380304 0.233395 0.475454 -0.216665 -0.187845 0.167906 -0.237142 -0.173530 0.652247 -0.103863 -0.031678 -0.441379 0.440149 0.075061 0.327837 -0.251231 0.190159 0.082007 0.634622 0.005486 -0.037829 -0.327878 -0.102200 0.143613 0.533617 -0.035554 0.293367 -1.166951 -0.134286 
she 0.141525 -0.310998 0.034234 -0.684209 -0.104849 0.049958 -0.286559 0.076234 -0.488201 0.485851 -0.014794 0.111863 -0.228349 0.009880 -0.012307 0.503031 -0.062493 0.257201 -0.264502 0.247656 -0.085426 -0.203094 -0.183985 -0.044770 0.103912 -0.089817 -0.205904 0.037404 0.027040 0.360837 0.526742 -0.071545 -0.329694 0.322140 -0.200447 -0.120484 0.541543 0.200537 -0.180291 -0.155068 0.159699 -0.041003 -0.434756 0.019535 0.084100 0.185359 -0.205538 0.341400 0.088256 0.010073 -0.145932 -0.133758 0.043505 0.057125 -0.088787 0.175419 0.074191 -0.000327 -0.239876 0.033474 0.142356 0.086901 -0.403233 0.070500 -0.056344 0.232565 0.077622 0.080635 0.344172 0.214476 0.005282 -0.169415 0.236022 -0.122210 0.014700 0.333120 -0.316968 0.193802 0.093113 -0.250346 0.125490 0.001912 0.147509 -0.102404 -0.037258 0.251367 0.055252 0.111358 0.600088 -0.050332 -0.008022 0.135153 0.039436 -0.356684 0.105585 0.560516 0.214087 -0.076253 0.074277 0.027662 
by 0.096404 -0.159066 0.019376 -0.554123 0.001263 0.002721 -0.308612 -0.011676 -0.436927 0.440303 -0.084296 0.340512 -0.463094 -0.250406 -0.109935 0.516868 0.245448 0.301686 -0.243041 0.490314 -0.227300 -0.190713 -0.196905 0.044715 0.104011 -0.307592 -0.055571 0.279786 -0.080233 0.302469 0.475622 -0.237028 -0.513947 -0.004626 -0.214125 -0.125313 0.635802 0.232205 -0.325339 -0.236923 0.008352 0.053043 -0.392443 -0.006999 0.092643 0.025098 -0.173333 0.648014 -0.167226 -0.090815 -0.082392 -0.359224 0.217811 0.221590 -0.058072 0.237559 0.107308 -0.249138 -0.263835 -0.030366 -0.138817 0.046554 -0.456629 0.067534 -0.022169 0.170775 0.151826 0.046040 0.261538 0.211083 0.221190 -0.025774 0.260020 -0.160287 0.185850 0.417537 -0.266528 0.178121 0.300502 -0.325826 0.017034 0.150490 -0.178210 -0.035577 0.102821 0.288744 0.060095 0.109567 0.544119 -0.092301 0.007137 0.034797 0.008976 -0.413251 0.235880 0.579626 0.174465 0.031229 -0.170609 0.004514 
his 0.219060 -0.112781 0.025584 -0.462947 -0.198748 -0.095103 -0.123256 -0.075908 -0.144131 0.425865 0.097479 0.081693 -0.295545 -0.080989 0.032439 0.347969 0.025158 0.247414 -0.157763 0.388316 0.019368 -0.264196 -0.328485 0.084859 0.374963 -0.057132 -0.177336 0.065399 -0.084832 0.192316 0.324557 -0.123702 -0.329085 0.282126 -0.065714 0.007386 0.230744 0.261188 -0.001139 -0.142323 0.007877 0.154877 -0.491610 -0.101410 0.229527 0.157744 -0.271180 0.368361 0.260816 -0.082188 -0.059020 -0.376412 -0.094300 -0.097035 -0.127379 0.059756 0.100822 -0.072819 -0.132967 -0.149054 0.151922 -0.112767 -0.284186 0.195066 0.117871 0.083490 0.179954 -0.069581 0.039886 0.150371 0.073100 0.000536 0.044670 -0.212377 -0.194457 0.269453 -0.397887 0.254781 0.020185 -0.534795 0.046620 0.134486 -0.125777 -0.101787 -0.015897 0.271513 -0.009942 0.017687 0.514797 -0.052678 0.204817 0.085514 0.049179 -0.186526 0.041002 0.531748 0.246931 0.061723 0.105058 -0.005030 
lives 0.025541 -0.232306 0.174580 -0.176743 0.061229 0.059496 0.043696 0.134793 -0.082291 0.148424 0.189374 0.041152 0.142397 0.076099 -0.139958 0.169015 0.000920 0.215522 -0.107637 0.281536 0.158178 -0.059408 -0.166379 -0.075306 0.159844 0.110124 -0.229230 0.200966 -0.249769 -0.101236 0.312390 -0.165001 0.077183 0.123256 -0.286453 -0.153111 0.176028 0.118106 -0.023259 -0.288534 -0.030577 -0.104638 -0.205642 0.042415 -0.032951 0.024735 0.099619 -0.105249 0.124165 -0.181953 -0.288359 0.155119 0.072129 0.317011 -0.192692 -0.079972 -0.101666 0.191839 0.191083 0.215078 -0.025537 0.047159 -0.148882 -0.187259 0.002055 0.080340 -0.363722 -0.063301 0.273101 -0.096773 -0.127380 0.030352 -0.058129 0.221550 0.080958 0.050243 -0.293848 -0.102932 0.137986 -0.245947 -0.182352 -0.082925 0.197109 -0.082851 0.015688 0.167678 -0.144487 0.002761 0.396964 -0.035819 0.069873 0.078474 -0.252709 -0.154227 -0.050741 0.161726 0.237935 -0.057786 -0.071446 0.116512 
as 0.214828 -0.219746 0.127214 -0.483313 0.037705 0.030541 -0.356486 0.005591 -0.418337 0.741985 -0.024979 0.235249 -0.038382 0.100748 -0.041495 0.231948 0.238030 0.277394 -0.177802 0.371106 -0.019427 -0.245159 -0.213661 0.140014 0.312068 -0.243627 -0.263949 0.057338 -0.048697 0.396875 0.350299 -0.237064 -0.326113 0.001837 -0.423643 -0.341959 0.371067 0.339236 -0.193547 -0.222873 -0.091861 -0.300493 -0.396602 0.161198 0.197821 0.076642 -0.070579 0.273910 0.068497 -0.056960 -0.373735 -0.104173 -0.161710 0.228594 -0.035249 -0.161038 -0.200403 -0.107926 -0.096707 0.232610 0.256101 0.264975 -0.412181 0.185924 0.051800 0.088314 0.028740 0.115063 0.288714 0.220246 0.170591 -0.014116 0.436377 -0.260223 0.168721 0.038716 -0.365856 0.184903 0.194395 -0.329687 0.039071 0.013507 0.221585 -0.027037 0.002915 -0.007335 0.150972 -0.098413 0.667760 -0.042307 0.121456 0.144607 -0.067500 -0.334712 0.230861 0.388065 0.360596 -0.072069 0.394305 0.054973 
or 0.102968 -0.177798 0.285796 -0.220832 0.142063 -0.103570 -0.132023 -0.139337 -0.174805 0.440352 -0.176095 0.318056 -0.145194 -0.228900 -0.056322 -0.007807 0.410557 -0.002625 0.190602 0.397446 -0.015106 -0.107181 -0.183363 -0.029802 -0.107245 -0.165382 -0.084956 0.331628 -0.067255 0.050906 -0.001531 -0.055309 -0.304323 -0.102521 -0.221485 -0.112480 0.501016 0.165852 -0.087735 -0.050914 -0.067279 -0.074866 -0.301681 -0.165298 0.077328 0.178063 -0.003972 0.075806 0.111716 -0.254179 -0.084625 -0.215246 0.042097 0.092371 -0.062062 -0.263151 -0.065834 -0.185004 0.080407 0.048773 -0.052901 0.161296 -0.251884 -0.047971 -0.123730 0.394592 0.026403 -0.028136 0.223781 0.128605 0.108730 0.181245 0.259549 -0.038573 -0.170830 -0.097892 -0.289017 0.040938 -0.141070 -0.144584 -0.017783 -0.020055 -0.015640 0.126239 0.057234 0.345132 -0.020031 -0.025028 0.508893 0.146192 0.011345 0.012306 -0.171844 -0.137624 0.066248 0.387335 0.065283 0.233207 0.060208 -0.101605 
Mr. 0.143418 0.211886 -0.053594 -0.208120 -0.308498 -0.254019 -0.088409 -0.069128 0.225335 0.037457 -0.086477 0.079668 -0.328338 -0.224513 -0.101833 0.072638 -0.170731 0.014885 -0.133731 0.177269 0.057026 -0.197619 -0.130490 -0.128523 0.173427 0.004113 0.020078 -0.014236 -0.038202 0.170281 0.020724 -0.005237 -0.255304 0.203599 0.331951 0.147075 0.086569 0.161833 0.126732 0.050482 0.049894 0.243147 -0.391118 -0.263978 0.233428 0.151717 -0.255010 0.251699 0.203114 0.074946 0.219424 -0.410703 -0.107688 -0.383083 -0.005986 0.016889 0.082844 -0.050616 -0.096662 -0.369749 0.166586 -0.171889 -0.014214 0.127354 0.073067 0.116244 0.356972 -0.136828 -0.161919 0.040055 0.002090 0.010910 0.106438 -0.373362 -0.387107 0.178083 -0.216824 0.255040 -0.120440 -0.283561 0.069709 0.138862 -0.272060 0.061848 -0.122832 0.153926 -0.091006 0.043120 0.152252 -0.012000 0.252835 -0.050313 0.109247 -0.044821 -0.102899 0.400138 0.003174 0.118944 -0.037150 -0.200829 
